-0.0000000203,0.0000002742,-0.0000004523,-0.0000001848,-0.0000000557,-0.0000001894,0.0000000778,-0.0000000221,-0.0000001751,0.0000002877,0.0000000548,0.0000003245,-0.0000001247,-0.0000001500,-0.0000003688,0.0000000864,0.0000001879,0.0000003207,-0.0000000421,0.0000000762,-0.0000000017,-0.0000000440,0.0000002185,-0.0000002651,0.0000005017,0.0000003799,0.0000003287,-0.0000002744,0.0000001507,-0.0000003435,-0.0000002923,0.0000000201,0.0000003566,0.0000003252,0.0000000785,0.0000002860,0.0000005053,0.0000001983,0.0000001287,0.0000000249,-0.0000000542,-0.0000001669,-0.0000003726,0.0000000457,-0.0000000044,-0.0000000845,0.0000004001,-0.0000003629,0.0000001875,0.0000001061,-0.0000000267,-0.0000002336,0.0000006416,0.0000001138,-0.0000000925,-0.0000000973,0.0000001075,-0.0000004679,-0.0000001412,0.0000001094,-0.0000002019,-0.0000003090,0.0000000500,0.0000002929,0.0000000287,0.0000001833,-0.0000003766,0.0000001688,0.0000001226,0.0000006482,-0.0000004163,0.0000002163,0.0000000412,-0.0000003067,0.0000002150,-0.0000003302,-0.0000001668,-0.0000001755,0.0000000690,0.0000001221,0.0000005095,-0.0000001112,0.0000002925,0.0000004155,-0.0000002403,-0.0000001072,-0.0000002362,-0.0000001402,-0.0000006336,0.0000001256,0.0000000577,-0.0000004985,0.0000000627,0.0000002838,0.0000001567,0.0000001989,-0.0000000176,0.0000000715,0.0000000319,-0.0000004856,0.0000001057,0.0000000903,0.0000003622,0.0000000415,-0.0000001898,0.0000004077,0.0000003167,0.0000000452,-0.0000005143,0.0000001542,0.0000002281,0.0000002378,-0.0000000325,-0.0000000283,0.0000002484,-0.0000000834,-0.0000001826,0.0000000578,-0.0000002475,0.0000002996,-0.0000000150,-0.0000001909,-0.0000001781,-0.0000000921,-0.0000001562,-0.0000001460,0.0000005779,0.0000000515
0.0000000338,-0.0000004573,0.0000007543,0.0000003082,0.0000000929,0.0000003158,-0.0000001297,0.0000000368,0.0000002920,-0.0000004796,-0.0000000914,-0.0000005410,0.0000002080,0.0000002502,0.0000006150,-0.0000001441,-0.0000003132,-0.0000005347,0.0000000702,-0.0000001271,0.0000000029,0.0000000734,-0.0000003643,0.0000004421,-0.0000008366,-0.0000006335,-0.0000005481,0.0000004575,-0.0000002512,0.0000005728,0.0000004873,-0.0000000335,-0.0000005945,-0.0000005422,-0.0000001309,-0.0000004768,-0.0000008425,-0.0000003307,-0.0000002146,-0.0000000414,0.0000000904,0.0000002782,0.0000006213,-0.0000000762,0.0000000073,0.0000001409,-0.0000006671,0.0000006052,-0.0000003127,-0.0000001769,0.0000000445,0.0000003894,-0.0000010698,-0.0000001897,0.0000001543,0.0000001623,-0.0000001792,0.0000007802,0.0000002354,-0.0000001825,0.0000003366,0.0000005153,-0.0000000833,-0.0000004884,-0.0000000479,-0.0000003056,0.0000006279,-0.0000002814,-0.0000002045,-0.0000010809,0.0000006941,-0.0000003606,-0.0000000686,0.0000005114,-0.0000003584,0.0000005506,0.0000002781,0.0000002926,-0.0000001150,-0.0000002036,-0.0000008496,0.0000001854,-0.0000004877,-0.0000006928,0.0000004007,0.0000001788,0.0000003938,0.0000002337,0.0000010565,-0.0000002094,-0.0000000962,0.0000008311,-0.0000001046,-0.0000004732,-0.0000002612,-0.0000003317,0.0000000293,-0.0000001193,-0.0000000531,0.0000008097,-0.0000001762,-0.0000001506,-0.0000006039,-0.0000000693,0.0000003166,-0.0000006799,-0.0000005280,-0.0000000753,0.0000008576,-0.0000002571,-0.0000003803,-0.0000003966,0.0000000542,0.0000000473,-0.0000004142,0.0000001390,0.0000003044,-0.0000000964,0.0000004127,-0.0000004996,0.0000000249,0.0000003183,0.0000002970,0.0000001535,0.0000002604,0.0000002435,-0.0000009635,-0.0000000858
-0.0000000515,0.0000006972,-0.0000011500,-0.0000004699,-0.0000001416,-0.0000004815,0.0000001977,-0.0000000562,-0.0000004452,0.0000007313,0.0000001393,0.0000008248,-0.0000003171,-0.0000003814,-0.0000009376,0.0000002197,0.0000004776,0.0000008152,-0.0000001070,0.0000001938,-0.0000000044,-0.0000001119,0.0000005555,-0.0000006740,0.0000012756,0.0000009658,0.0000008356,-0.0000006975,0.0000003831,-0.0000008733,-0.0000007430,0.0000000510,0.0000009065,0.0000008267,0.0000001995,0.0000007270,0.0000012845,0.0000005042,0.0000003271,0.0000000632,-0.0000001379,-0.0000004242,-0.0000009473,0.0000001162,-0.0000000112,-0.0000002148,0.0000010171,-0.0000009227,0.0000004767,0.0000002697,-0.0000000679,-0.0000005938,0.0000016310,0.0000002892,-0.0000002352,-0.0000002474,0.0000002732,-0.0000011896,-0.0000003589,0.0000002782,-0.0000005132,-0.0000007856,0.0000001271,0.0000007447,0.0000000731,0.0000004659,-0.0000009574,0.0000004291,0.0000003118,0.0000016479,-0.0000010583,0.0000005498,0.0000001046,-0.0000007798,0.0000005465,-0.0000008394,-0.0000004240,-0.0000004461,0.0000001753,0.0000003104,0.0000012954,-0.0000002827,0.0000007435,0.0000010563,-0.0000006110,-0.0000002726,-0.0000006004,-0.0000003564,-0.0000016107,0.0000003193,0.0000001466,-0.0000012672,0.0000001595,0.0000007215,0.0000003983,0.0000005057,-0.0000000447,0.0000001818,0.0000000810,-0.0000012345,0.0000002687,0.0000002296,0.0000009208,0.0000001056,-0.0000004826,0.0000010365,0.0000008050,0.0000001148,-0.0000013075,0.0000003920,0.0000005799,0.0000006046,-0.0000000826,-0.0000000721,0.0000006314,-0.0000002120,-0.0000004641,0.0000001469,-0.0000006291,0.0000007617,-0.0000000380,-0.0000004853,-0.0000004529,-0.0000002340,-0.0000003971,-0.0000003713,0.0000014690,0.0000001308
-0.0000000494,0.0000006688,-0.0000011032,-0.0000004508,-0.0000001359,-0.0000004619,0.0000001897,-0.0000000539,-0.0000004271,0.0000007015,0.0000001337,0.0000007913,-0.0000003042,-0.0000003659,-0.0000008995,0.0000002108,0.0000004581,0.0000007820,-0.0000001026,0.0000001859,-0.0000000042,-0.0000001074,0.0000005329,-0.0000006466,0.0000012236,0.0000009265,0.0000008016,-0.0000006692,0.0000003675,-0.0000008378,-0.0000007128,0.0000000489,0.0000008696,0.0000007930,0.0000001914,0.0000006974,0.0000012323,0.0000004836,0.0000003138,0.0000000606,-0.0000001322,-0.0000004070,-0.0000009088,0.0000001115,-0.0000000107,-0.0000002061,0.0000009757,-0.0000008851,0.0000004573,0.0000002587,-0.0000000651,-0.0000005696,0.0000015646,0.0000002774,-0.0000002257,-0.0000002373,0.0000002621,-0.0000011412,-0.0000003443,0.0000002669,-0.0000004923,-0.0000007536,0.0000001219,0.0000007144,0.0000000701,0.0000004470,-0.0000009184,0.0000004116,0.0000002991,0.0000015808,-0.0000010152,0.0000005274,0.0000001004,-0.0000007480,0.0000005243,-0.0000008053,-0.0000004067,-0.0000004280,0.0000001682,0.0000002978,0.0000012426,-0.0000002712,0.0000007132,0.0000010133,-0.0000005861,-0.0000002615,-0.0000005759,-0.0000003418,-0.0000015452,0.0000003063,0.0000001407,-0.0000012156,0.0000001530,0.0000006921,0.0000003821,0.0000004851,-0.0000000429,0.0000001744,0.0000000777,-0.0000011842,0.0000002577,0.0000002202,0.0000008833,0.0000001013,-0.0000004630,0.0000009943,0.0000007723,0.0000001101,-0.0000012543,0.0000003761,0.0000005563,0.0000005800,-0.0000000793,-0.0000000691,0.0000006057,-0.0000002034,-0.0000004452,0.0000001410,-0.0000006035,0.0000007307,-0.0000000365,-0.0000004656,-0.0000004345,-0.0000002245,-0.0000003809,-0.0000003562,0.0000014092,0.0000001255
0.0000000065,-0.0000000876,0.0000001445,0.0000000590,0.0000000178,0.0000000605,-0.0000000248,0.0000000071,0.0000000559,-0.0000000919,-0.0000000175,-0.0000001036,0.0000000398,0.0000000479,0.0000001178,-0.0000000276,-0.0000000600,-0.0000001024,0.0000000134,-0.0000000243,0.0000000006,0.0000000141,-0.0000000698,0.0000000847,-0.0000001602,-0.0000001213,-0.0000001050,0.0000000876,-0.0000000481,0.0000001097,0.0000000933,-0.0000000064,-0.0000001139,-0.0000001038,-0.0000000251,-0.0000000913,-0.0000001614,-0.0000000633,-0.0000000411,-0.0000000079,0.0000000173,0.0000000533,0.0000001190,-0.0000000146,0.0000000014,0.0000000270,-0.0000001278,0.0000001159,-0.0000000599,-0.0000000339,0.0000000085,0.0000000746,-0.0000002049,-0.0000000363,0.0000000295,0.0000000311,-0.0000000343,0.0000001494,0.0000000451,-0.0000000349,0.0000000645,0.0000000987,-0.0000000160,-0.0000000935,-0.0000000092,-0.0000000585,0.0000001203,-0.0000000539,-0.0000000392,-0.0000002070,0.0000001329,-0.0000000691,-0.0000000131,0.0000000980,-0.0000000686,0.0000001054,0.0000000533,0.0000000560,-0.0000000220,-0.0000000390,-0.0000001627,0.0000000355,-0.0000000934,-0.0000001327,0.0000000767,0.0000000342,0.0000000754,0.0000000448,0.0000002023,-0.0000000401,-0.0000000184,0.0000001592,-0.0000000200,-0.0000000906,-0.0000000500,-0.0000000635,0.0000000056,-0.0000000228,-0.0000000102,0.0000001551,-0.0000000337,-0.0000000288,-0.0000001157,-0.0000000133,0.0000000606,-0.0000001302,-0.0000001011,-0.0000000144,0.0000001642,-0.0000000492,-0.0000000728,-0.0000000759,0.0000000104,0.0000000091,-0.0000000793,0.0000000266,0.0000000583,-0.0000000185,0.0000000790,-0.0000000957,0.0000000048,0.0000000610,0.0000000569,0.0000000294,0.0000000499,0.0000000466,-0.0000001845,-0.0000000164
-0.0000000118,0.0000001599,-0.0000002638,-0.0000001078,-0.0000000325,-0.0000001105,0.0000000454,-0.0000000129,-0.0000001021,0.0000001678,0.0000000320,0.0000001892,-0.0000000728,-0.0000000875,-0.0000002151,0.0000000504,0.0000001096,0.0000001870,-0.0000000245,0.0000000445,-0.0000000010,-0.0000000257,0.0000001274,-0.0000001546,0.0000002926,0.0000002216,0.0000001917,-0.0000001600,0.0000000879,-0.0000002004,-0.0000001705,0.0000000117,0.0000002080,0.0000001897,0.0000000458,0.0000001668,0.0000002947,0.0000001157,0.0000000751,0.0000000145,-0.0000000316,-0.0000000973,-0.0000002173,0.0000000267,-0.0000000026,-0.0000000493,0.0000002333,-0.0000002117,0.0000001094,0.0000000619,-0.0000000156,-0.0000001362,0.0000003742,0.0000000664,-0.0000000540,-0.0000000568,0.0000000627,-0.0000002729,-0.0000000823,0.0000000638,-0.0000001177,-0.0000001802,0.0000000292,0.0000001708,0.0000000168,0.0000001069,-0.0000002196,0.0000000984,0.0000000715,0.0000003781,-0.0000002428,0.0000001261,0.0000000240,-0.0000001789,0.0000001254,-0.0000001926,-0.0000000973,-0.0000001024,0.0000000402,0.0000000712,0.0000002972,-0.0000000649,0.0000001706,0.0000002423,-0.0000001402,-0.0000000625,-0.0000001377,-0.0000000818,-0.0000003695,0.0000000733,0.0000000336,-0.0000002907,0.0000000366,0.0000001655,0.0000000914,0.0000001160,-0.0000000103,0.0000000417,0.0000000186,-0.0000002832,0.0000000616,0.0000000527,0.0000002112,0.0000000242,-0.0000001107,0.0000002378,0.0000001847,0.0000000263,-0.0000003000,0.0000000899,0.0000001330,0.0000001387,-0.0000000190,-0.0000000165,0.0000001449,-0.0000000486,-0.0000001065,0.0000000337,-0.0000001443,0.0000001748,-0.0000000087,-0.0000001113,-0.0000001039,-0.0000000537,-0.0000000911,-0.0000000852,0.0000003370,0.0000000300
0.0000000229,-0.0000003098,0.0000005111,0.0000002088,0.0000000629,0.0000002140,-0.0000000879,0.0000000250,0.0000001979,-0.0000003250,-0.0000000619,-0.0000003666,0.0000001409,0.0000001695,0.0000004167,-0.0000000976,-0.0000002122,-0.0000003623,0.0000000475,-0.0000000861,0.0000000020,0.0000000497,-0.0000002469,0.0000002995,-0.0000005669,-0.0000004292,-0.0000003714,0.0000003100,-0.0000001702,0.0000003881,0.0000003302,-0.0000000227,-0.0000004028,-0.0000003674,-0.0000000887,-0.0000003231,-0.0000005709,-0.0000002241,-0.0000001454,-0.0000000281,0.0000000613,0.0000001885,0.0000004210,-0.0000000516,0.0000000050,0.0000000955,-0.0000004520,0.0000004100,-0.0000002119,-0.0000001199,0.0000000302,0.0000002639,-0.0000007248,-0.0000001285,0.0000001045,0.0000001100,-0.0000001214,0.0000005287,0.0000001595,-0.0000001236,0.0000002281,0.0000003491,-0.0000000565,-0.0000003309,-0.0000000325,-0.0000002071,0.0000004255,-0.0000001907,-0.0000001385,-0.0000007323,0.0000004703,-0.0000002443,-0.0000000465,0.0000003465,-0.0000002429,0.0000003731,0.0000001884,0.0000001983,-0.0000000779,-0.0000001380,-0.0000005757,0.0000001256,-0.0000003304,-0.0000004694,0.0000002715,0.0000001211,0.0000002668,0.0000001584,0.0000007158,-0.0000001419,-0.0000000652,0.0000005632,-0.0000000709,-0.0000003206,-0.0000001770,-0.0000002247,0.0000000199,-0.0000000808,-0.0000000360,0.0000005486,-0.0000001194,-0.0000001020,-0.0000004092,-0.0000000469,0.0000002145,-0.0000004606,-0.0000003578,-0.0000000510,0.0000005811,-0.0000001742,-0.0000002577,-0.0000002687,0.0000000367,0.0000000320,-0.0000002806,0.0000000942,0.0000002063,-0.0000000653,0.0000002796,-0.0000003385,0.0000000169,0.0000002157,0.0000002013,0.0000001040,0.0000001765,0.0000001650,-0.0000006529,-0.0000000581
-0.0000000421,0.0000005693,-0.0000009391,-0.0000003837,-0.0000001157,-0.0000003932,0.0000001615,-0.0000000459,-0.0000003636,0.0000005972,0.0000001138,0.0000006736,-0.0000002590,-0.0000003115,-0.0000007657,0.0000001794,0.0000003900,0.0000006657,-0.0000000873,0.0000001582,-0.0000000036,-0.0000000914,0.0000004536,-0.0000005504,0.0000010416,0.0000007887,0.0000006824,-0.0000005696,0.0000003128,-0.0000007132,-0.0000006068,0.0000000417,0.0000007402,0.0000006751,0.0000001629,0.0000005937,0.0000010490,0.0000004117,0.0000002671,0.0000000516,-0.0000001126,-0.0000003464,-0.0000007736,0.0000000949,-0.0000000091,-0.0000001754,0.0000008306,-0.0000007535,0.0000003893,0.0000002202,-0.0000000554,-0.0000004849,0.0000013319,0.0000002362,-0.0000001921,-0.0000002020,0.0000002231,-0.0000009714,-0.0000002931,0.0000002272,-0.0000004191,-0.0000006415,0.0000001038,0.0000006081,0.0000000597,0.0000003805,-0.0000007818,0.0000003504,0.0000002546,0.0000013457,-0.0000008642,0.0000004489,0.0000000854,-0.0000006368,0.0000004463,-0.0000006855,-0.0000003462,-0.0000003643,0.0000001432,0.0000002535,0.0000010578,-0.0000002309,0.0000006072,0.0000008626,-0.0000004989,-0.0000002226,-0.0000004903,-0.0000002910,-0.0000013153,0.0000002607,0.0000001197,-0.0000010348,0.0000001302,0.0000005892,0.0000003253,0.0000004129,-0.0000000365,0.0000001485,0.0000000661,-0.0000010081,0.0000002194,0.0000001875,0.0000007519,0.0000000863,-0.0000003941,0.0000008465,0.0000006574,0.0000000937,-0.0000010677,0.0000003202,0.0000004735,0.0000004937,-0.0000000675,-0.0000000588,0.0000005156,-0.0000001731,-0.0000003790,0.0000001200,-0.0000005138,0.0000006220,-0.0000000311,-0.0000003963,-0.0000003698,-0.0000001911,-0.0000003243,-0.0000003032,0.0000011996,0.0000001068
0.0000000286,-0.0000003873,0.0000006388,0.0000002610,0.0000000787,0.0000002675,-0.0000001098,0.0000000312,0.0000002473,-0.0000004062,-0.0000000774,-0.0000004582,0.0000001762,0.0000002119,0.0000005209,-0.0000001221,-0.0000002653,-0.0000004529,0.0000000594,-0.0000001076,0.0000000024,0.0000000622,-0.0000003086,0.0000003744,-0.0000007086,-0.0000005365,-0.0000004642,0.0000003875,-0.0000002128,0.0000004851,0.0000004128,-0.0000000283,-0.0000005036,-0.0000004592,-0.0000001108,-0.0000004039,-0.0000007136,-0.0000002801,-0.0000001817,-0.0000000351,0.0000000766,0.0000002357,0.0000005263,-0.0000000646,0.0000000062,0.0000001193,-0.0000005650,0.0000005126,-0.0000002648,-0.0000001498,0.0000000377,0.0000003298,-0.0000009061,-0.0000001607,0.0000001307,0.0000001374,-0.0000001518,0.0000006608,0.0000001994,-0.0000001546,0.0000002851,0.0000004364,-0.0000000706,-0.0000004137,-0.0000000406,-0.0000002588,0.0000005318,-0.0000002384,-0.0000001732,-0.0000009154,0.0000005879,-0.0000003054,-0.0000000581,0.0000004332,-0.0000003036,0.0000004663,0.0000002355,0.0000002478,-0.0000000974,-0.0000001724,-0.0000007196,0.0000001571,-0.0000004130,-0.0000005868,0.0000003394,0.0000001514,0.0000003335,0.0000001980,0.0000008948,-0.0000001774,-0.0000000815,0.0000007039,-0.0000000886,-0.0000004008,-0.0000002213,-0.0000002809,0.0000000248,-0.0000001010,-0.0000000450,0.0000006858,-0.0000001493,-0.0000001275,-0.0000005115,-0.0000000587,0.0000002681,-0.0000005758,-0.0000004472,-0.0000000638,0.0000007263,-0.0000002178,-0.0000003221,-0.0000003359,0.0000000459,0.0000000400,-0.0000003508,0.0000001178,0.0000002578,-0.0000000816,0.0000003495,-0.0000004232,0.0000000211,0.0000002696,0.0000002516,0.0000001300,0.0000002206,0.0000002062,-0.0000008161,-0.0000000727
0.0000000156,-0.0000002113,0.0000003485,0.0000001424,0.0000000429,0.0000001459,-0.0000000599,0.0000000170,0.0000001349,-0.0000002216,-0.0000000422,-0.0000002500,0.0000000961,0.0000001156,0.0000002841,-0.0000000666,-0.0000001447,-0.0000002470,0.0000000324,-0.0000000587,0.0000000013,0.0000000339,-0.0000001683,0.0000002043,-0.0000003865,-0.0000002927,-0.0000002532,0.0000002114,-0.0000001161,0.0000002646,0.0000002252,-0.0000000155,-0.0000002747,-0.0000002505,-0.0000000605,-0.0000002203,-0.0000003893,-0.0000001528,-0.0000000991,-0.0000000191,0.0000000418,0.0000001286,0.0000002871,-0.0000000352,0.0000000034,0.0000000651,-0.0000003082,0.0000002796,-0.0000001445,-0.0000000817,0.0000000206,0.0000001799,-0.0000004943,-0.0000000876,0.0000000713,0.0000000750,-0.0000000828,0.0000003605,0.0000001088,-0.0000000843,0.0000001555,0.0000002381,-0.0000000385,-0.0000002257,-0.0000000221,-0.0000001412,0.0000002901,-0.0000001300,-0.0000000945,-0.0000004994,0.0000003207,-0.0000001666,-0.0000000317,0.0000002363,-0.0000001656,0.0000002544,0.0000001285,0.0000001352,-0.0000000531,-0.0000000941,-0.0000003925,0.0000000857,-0.0000002253,-0.0000003201,0.0000001852,0.0000000826,0.0000001819,0.0000001080,0.0000004881,-0.0000000968,-0.0000000444,0.0000003840,-0.0000000483,-0.0000002186,-0.0000001207,-0.0000001532,0.0000000135,-0.0000000551,-0.0000000245,0.0000003741,-0.0000000814,-0.0000000696,-0.0000002790,-0.0000000320,0.0000001463,-0.0000003141,-0.0000002440,-0.0000000348,0.0000003962,-0.0000001188,-0.0000001757,-0.0000001832,0.0000000250,0.0000000218,-0.0000001914,0.0000000642,0.0000001406,-0.0000000445,0.0000001907,-0.0000002308,0.0000000115,0.0000001471,0.0000001372,0.0000000709,0.0000001203,0.0000001125,-0.0000004452,-0.0000000396
-0.0000000112,0.0000001522,-0.0000002511,-0.0000001026,-0.0000000309,-0.0000001052,0.0000000432,-0.0000000123,-0.0000000972,0.0000001597,0.0000000304,0.0000001801,-0.0000000693,-0.0000000833,-0.0000002048,0.0000000480,0.0000001043,0.0000001780,-0.0000000234,0.0000000423,-0.0000000010,-0.0000000244,0.0000001213,-0.0000001472,0.0000002786,0.0000002109,0.0000001825,-0.0000001523,0.0000000837,-0.0000001907,-0.0000001623,0.0000000111,0.0000001979,0.0000001805,0.0000000436,0.0000001588,0.0000002805,0.0000001101,0.0000000714,0.0000000138,-0.0000000301,-0.0000000926,-0.0000002069,0.0000000254,-0.0000000024,-0.0000000469,0.0000002221,-0.0000002015,0.0000001041,0.0000000589,-0.0000000148,-0.0000001297,0.0000003562,0.0000000632,-0.0000000514,-0.0000000540,0.0000000597,-0.0000002598,-0.0000000784,0.0000000608,-0.0000001121,-0.0000001716,0.0000000277,0.0000001626,0.0000000160,0.0000001017,-0.0000002091,0.0000000937,0.0000000681,0.0000003599,-0.0000002311,0.0000001201,0.0000000228,-0.0000001703,0.0000001193,-0.0000001833,-0.0000000926,-0.0000000974,0.0000000383,0.0000000678,0.0000002829,-0.0000000617,0.0000001624,0.0000002307,-0.0000001334,-0.0000000595,-0.0000001311,-0.0000000778,-0.0000003517,0.0000000697,0.0000000320,-0.0000002767,0.0000000348,0.0000001576,0.0000000870,0.0000001104,-0.0000000098,0.0000000397,0.0000000177,-0.0000002696,0.0000000587,0.0000000501,0.0000002011,0.0000000231,-0.0000001054,0.0000002264,0.0000001758,0.0000000251,-0.0000002855,0.0000000856,0.0000001266,0.0000001320,-0.0000000180,-0.0000000157,0.0000001379,-0.0000000463,-0.0000001014,0.0000000321,-0.0000001374,0.0000001663,-0.0000000083,-0.0000001060,-0.0000000989,-0.0000000511,-0.0000000867,-0.0000000811,0.0000003208,0.0000000286
-0.0000000208,0.0000002819,-0.0000004650,-0.0000001900,-0.0000000573,-0.0000001947,0.0000000799,-0.0000000227,-0.0000001800,0.0000002957,0.0000000563,0.0000003335,-0.0000001282,-0.0000001542,-0.0000003791,0.0000000888,0.0000001931,0.0000003296,-0.0000000433,0.0000000783,-0.0000000018,-0.0000000453,0.0000002246,-0.0000002725,0.0000005158,0.0000003905,0.0000003379,-0.0000002821,0.0000001549,-0.0000003531,-0.0000003004,0.0000000206,0.0000003665,0.0000003343,0.0000000807,0.0000002940,0.0000005194,0.0000002039,0.0000001323,0.0000000256,-0.0000000557,-0.0000001715,-0.0000003831,0.0000000470,-0.0000000045,-0.0000000869,0.0000004113,-0.0000003731,0.0000001928,0.0000001091,-0.0000000274,-0.0000002401,0.0000006595,0.0000001169,-0.0000000951,-0.0000001000,0.0000001105,-0.0000004810,-0.0000001451,0.0000001125,-0.0000002075,-0.0000003177,0.0000000514,0.0000003011,0.0000000295,0.0000001884,-0.0000003871,0.0000001735,0.0000001261,0.0000006663,-0.0000004279,0.0000002223,0.0000000423,-0.0000003153,0.0000002210,-0.0000003394,-0.0000001714,-0.0000001804,0.0000000709,0.0000001255,0.0000005238,-0.0000001143,0.0000003006,0.0000004271,-0.0000002471,-0.0000001102,-0.0000002428,-0.0000001441,-0.0000006513,0.0000001291,0.0000000593,-0.0000005124,0.0000000645,0.0000002917,0.0000001611,0.0000002045,-0.0000000181,0.0000000735,0.0000000328,-0.0000004992,0.0000001086,0.0000000928,0.0000003723,0.0000000427,-0.0000001952,0.0000004191,0.0000003255,0.0000000464,-0.0000005287,0.0000001585,0.0000002345,0.0000002445,-0.0000000334,-0.0000000291,0.0000002553,-0.0000000857,-0.0000001877,0.0000000594,-0.0000002544,0.0000003080,-0.0000000154,-0.0000001962,-0.0000001831,-0.0000000946,-0.0000001606,-0.0000001501,0.0000005940,0.0000000529
0.0000000118,-0.0000001596,0.0000002632,0.0000001076,0.0000000324,0.0000001102,-0.0000000453,0.0000000129,0.0000001019,-0.0000001674,-0.0000000319,-0.0000001888,0.0000000726,0.0000000873,0.0000002146,-0.0000000503,-0.0000001093,-0.0000001866,0.0000000245,-0.0000000444,0.0000000010,0.0000000256,-0.0000001271,0.0000001543,-0.0000002920,-0.0000002211,-0.0000001913,0.0000001597,-0.0000000877,0.0000001999,0.0000001701,-0.0000000117,-0.0000002075,-0.0000001892,-0.0000000457,-0.0000001664,-0.0000002940,-0.0000001154,-0.0000000749,-0.0000000145,0.0000000316,0.0000000971,0.0000002168,-0.0000000266,0.0000000026,0.0000000492,-0.0000002328,0.0000002112,-0.0000001091,-0.0000000617,0.0000000155,0.0000001359,-0.0000003733,-0.0000000662,0.0000000538,0.0000000566,-0.0000000625,0.0000002723,0.0000000821,-0.0000000637,0.0000001175,0.0000001798,-0.0000000291,-0.0000001705,-0.0000000167,-0.0000001066,0.0000002191,-0.0000000982,-0.0000000714,-0.0000003772,0.0000002422,-0.0000001258,-0.0000000239,0.0000001785,-0.0000001251,0.0000001921,0.0000000971,0.0000001021,-0.0000000401,-0.0000000711,-0.0000002965,0.0000000647,-0.0000001702,-0.0000002418,0.0000001399,0.0000000624,0.0000001374,0.0000000816,0.0000003687,-0.0000000731,-0.0000000336,0.0000002901,-0.0000000365,-0.0000001651,-0.0000000912,-0.0000001157,0.0000000102,-0.0000000416,-0.0000000185,0.0000002826,-0.0000000615,-0.0000000526,-0.0000002108,-0.0000000242,0.0000001105,-0.0000002373,-0.0000001843,-0.0000000263,0.0000002993,-0.0000000897,-0.0000001327,-0.0000001384,0.0000000189,0.0000000165,-0.0000001445,0.0000000485,0.0000001062,-0.0000000336,0.0000001440,-0.0000001744,0.0000000087,0.0000001111,0.0000001037,0.0000000536,0.0000000909,0.0000000850,-0.0000003363,-0.0000000299
0.0000000179,-0.0000002416,0.0000003985,0.0000001628,0.0000000491,0.0000001669,-0.0000000685,0.0000000195,0.0000001543,-0.0000002534,-0.0000000483,-0.0000002858,0.0000001099,0.0000001322,0.0000003249,-0.0000000761,-0.0000001655,-0.0000002825,0.0000000371,-0.0000000671,0.0000000015,0.0000000388,-0.0000001925,0.0000002336,-0.0000004420,-0.0000003347,-0.0000002896,0.0000002417,-0.0000001327,0.0000003026,0.0000002575,-0.0000000177,-0.0000003141,-0.0000002865,-0.0000000691,-0.0000002519,-0.0000004451,-0.0000001747,-0.0000001134,-0.0000000219,0.0000000478,0.0000001470,0.0000003283,-0.0000000403,0.0000000039,0.0000000744,-0.0000003524,0.0000003197,-0.0000001652,-0.0000000935,0.0000000235,0.0000002057,-0.0000005652,-0.0000001002,0.0000000815,0.0000000857,-0.0000000947,0.0000004122,0.0000001244,-0.0000000964,0.0000001778,0.0000002722,-0.0000000440,-0.0000002580,-0.0000000253,-0.0000001614,0.0000003317,-0.0000001487,-0.0000001080,-0.0000005710,0.0000003667,-0.0000001905,-0.0000000363,0.0000002702,-0.0000001894,0.0000002909,0.0000001469,0.0000001546,-0.0000000608,-0.0000001076,-0.0000004489,0.0000000980,-0.0000002576,-0.0000003660,0.0000002117,0.0000000944,0.0000002080,0.0000001235,0.0000005581,-0.0000001106,-0.0000000508,0.0000004391,-0.0000000553,-0.0000002500,-0.0000001380,-0.0000001752,0.0000000155,-0.0000000630,-0.0000000281,0.0000004278,-0.0000000931,-0.0000000796,-0.0000003191,-0.0000000366,0.0000001672,-0.0000003592,-0.0000002790,-0.0000000398,0.0000004531,-0.0000001359,-0.0000002009,-0.0000002095,0.0000000286,0.0000000250,-0.0000002188,0.0000000735,0.0000001608,-0.0000000509,0.0000002180,-0.0000002639,0.0000000132,0.0000001682,0.0000001569,0.0000000811,0.0000001376,0.0000001286,-0.0000005090,-0.0000000453
0.0000000458,-0.0000006194,0.0000010217,0.0000004175,0.0000001258,0.0000004278,-0.0000001757,0.0000000499,0.0000003955,-0.0000006497,-0.0000001238,-0.0000007328,0.0000002817,0.0000003389,0.0000008330,-0.0000001952,-0.0000004243,-0.0000007242,0.0000000950,-0.0000001721,0.0000000039,0.0000000994,-0.0000004935,0.0000005988,-0.0000011333,-0.0000008580,-0.0000007424,0.0000006197,-0.0000003403,0.0000007759,0.0000006601,-0.0000000453,-0.0000008053,-0.0000007345,-0.0000001772,-0.0000006459,-0.0000011412,-0.0000004479,-0.0000002906,-0.0000000561,0.0000001225,0.0000003769,0.0000008416,-0.0000001033,0.0000000099,0.0000001908,-0.0000009036,0.0000008197,-0.0000004235,-0.0000002396,0.0000000603,0.0000005275,-0.0000014491,-0.0000002570,0.0000002090,0.0000002198,-0.0000002427,0.0000010569,0.0000003188,-0.0000002472,0.0000004559,0.0000006979,-0.0000001129,-0.0000006616,-0.0000000649,-0.0000004139,0.0000008506,-0.0000003812,-0.0000002770,-0.0000014641,0.0000009402,-0.0000004884,-0.0000000929,0.0000006928,-0.0000004855,0.0000007458,0.0000003767,0.0000003964,-0.0000001558,-0.0000002758,-0.0000011508,0.0000002512,-0.0000006606,-0.0000009385,0.0000005428,0.0000002422,0.0000005334,0.0000003166,0.0000014310,-0.0000002837,-0.0000001303,0.0000011258,-0.0000001417,-0.0000006410,-0.0000003539,-0.0000004492,0.0000000397,-0.0000001615,-0.0000000720,0.0000010967,-0.0000002387,-0.0000002040,-0.0000008180,-0.0000000938,0.0000004288,-0.0000009209,-0.0000007152,-0.0000001020,0.0000011616,-0.0000003483,-0.0000005152,-0.0000005372,0.0000000734,0.0000000640,-0.0000005610,0.0000001883,0.0000004123,-0.0000001305,0.0000005590,-0.0000006767,0.0000000338,0.0000004312,0.0000004024,0.0000002079,0.0000003528,0.0000003298,-0.0000013052,-0.0000001162
-0.0000000122,0.0000001657,-0.0000002733,-0.0000001117,-0.0000000337,-0.0000001145,0.0000000470,-0.0000000133,-0.0000001058,0.0000001738,0.0000000331,0.0000001961,-0.0000000754,-0.0000000907,-0.0000002229,0.0000000522,0.0000001135,0.0000001938,-0.0000000254,0.0000000461,-0.0000000010,-0.0000000266,0.0000001320,-0.0000001602,0.0000003032,0.0000002296,0.0000001986,-0.0000001658,0.0000000911,-0.0000002076,-0.0000001766,0.0000000121,0.0000002155,0.0000001965,0.0000000474,0.0000001728,0.0000003053,0.0000001198,0.0000000778,0.0000000150,-0.0000000328,-0.0000001008,-0.0000002252,0.0000000276,-0.0000000027,-0.0000000511,0.0000002418,-0.0000002193,0.0000001133,0.0000000641,-0.0000000161,-0.0000001411,0.0000003877,0.0000000687,-0.0000000559,-0.0000000588,0.0000000649,-0.0000002828,-0.0000000853,0.0000000661,-0.0000001220,-0.0000001867,0.0000000302,0.0000001770,0.0000000174,0.0000001107,-0.0000002276,0.0000001020,0.0000000741,0.0000003917,-0.0000002516,0.0000001307,0.0000000249,-0.0000001853,0.0000001299,-0.0000001995,-0.0000001008,-0.0000001060,0.0000000417,0.0000000738,0.0000003079,-0.0000000672,0.0000001767,0.0000002511,-0.0000001452,-0.0000000648,-0.0000001427,-0.0000000847,-0.0000003829,0.0000000759,0.0000000349,-0.0000003012,0.0000000379,0.0000001715,0.0000000947,0.0000001202,-0.0000000106,0.0000000432,0.0000000193,-0.0000002934,0.0000000639,0.0000000546,0.0000002189,0.0000000251,-0.0000001147,0.0000002464,0.0000001914,0.0000000273,-0.0000003108,0.0000000932,0.0000001378,0.0000001437,-0.0000000196,-0.0000000171,0.0000001501,-0.0000000504,-0.0000001103,0.0000000349,-0.0000001495,0.0000001811,-0.0000000090,-0.0000001154,-0.0000001077,-0.0000000556,-0.0000000944,-0.0000000882,0.0000003492,0.0000000311
0.0000000517,-0.0000006998,0.0000011542,0.0000004716,0.0000001422,0.0000004833,-0.0000001985,0.0000000564,0.0000004469,-0.0000007340,-0.0000001398,-0.0000008279,0.0000003183,0.0000003828,0.0000009411,-0.0000002205,-0.0000004793,-0.0000008182,0.0000001074,-0.0000001945,0.0000000044,0.0000001123,-0.0000005575,0.0000006765,-0.0000012803,-0.0000009694,-0.0000008387,0.0000007001,-0.0000003845,0.0000008766,0.0000007458,-0.0000000512,-0.0000009098,-0.0000008298,-0.0000002002,-0.0000007297,-0.0000012893,-0.0000005060,-0.0000003283,-0.0000000634,0.0000001384,0.0000004258,0.0000009508,-0.0000001166,0.0000000112,0.0000002156,-0.0000010209,0.0000009261,-0.0000004785,-0.0000002707,0.0000000681,0.0000005960,-0.0000016371,-0.0000002903,0.0000002361,0.0000002483,-0.0000002742,0.0000011940,0.0000003602,-0.0000002792,0.0000005151,0.0000007885,-0.0000001275,-0.0000007474,-0.0000000733,-0.0000004677,0.0000009609,-0.0000004307,-0.0000003129,-0.0000016540,0.0000010622,-0.0000005518,-0.0000001050,0.0000007827,-0.0000005485,0.0000008425,0.0000004256,0.0000004478,-0.0000001760,-0.0000003116,-0.0000013002,0.0000002838,-0.0000007463,-0.0000010602,0.0000006133,0.0000002736,0.0000006026,0.0000003577,0.0000016167,-0.0000003205,-0.0000001472,0.0000012719,-0.0000001601,-0.0000007242,-0.0000003998,-0.0000005075,0.0000000449,-0.0000001825,-0.0000000813,0.0000012390,-0.0000002697,-0.0000002304,-0.0000009242,-0.0000001060,0.0000004844,-0.0000010404,-0.0000008080,-0.0000001152,0.0000013123,-0.0000003935,-0.0000005820,-0.0000006069,0.0000000830,0.0000000723,-0.0000006338,0.0000002128,0.0000004658,-0.0000001475,0.0000006315,-0.0000007646,0.0000000382,0.0000004871,0.0000004546,0.0000002349,0.0000003985,0.0000003726,-0.0000014745,-0.0000001313
-0.0000000229,0.0000003098,-0.0000005111,-0.0000002088,-0.0000000630,-0.0000002140,0.0000000879,-0.0000000250,-0.0000001979,0.0000003250,0.0000000619,0.0000003666,-0.0000001409,-0.0000001695,-0.0000004167,0.0000000977,0.0000002122,0.0000003623,-0.0000000475,0.0000000861,-0.0000000020,-0.0000000497,0.0000002469,-0.0000002996,0.0000005669,0.0000004292,0.0000003714,-0.0000003100,0.0000001702,-0.0000003881,-0.0000003302,0.0000000227,0.0000004029,0.0000003674,0.0000000887,0.0000003231,0.0000005709,0.0000002241,0.0000001454,0.0000000281,-0.0000000613,-0.0000001885,-0.0000004210,0.0000000517,-0.0000000050,-0.0000000955,0.0000004520,-0.0000004101,0.0000002119,0.0000001199,-0.0000000302,-0.0000002639,0.0000007249,0.0000001285,-0.0000001045,-0.0000001100,0.0000001214,-0.0000005287,-0.0000001595,0.0000001236,-0.0000002281,-0.0000003491,0.0000000565,0.0000003310,0.0000000325,0.0000002071,-0.0000004255,0.0000001907,0.0000001386,0.0000007324,-0.0000004703,0.0000002443,0.0000000465,-0.0000003466,0.0000002429,-0.0000003731,-0.0000001884,-0.0000001983,0.0000000779,0.0000001380,0.0000005757,-0.0000001256,0.0000003304,0.0000004695,-0.0000002715,-0.0000001211,-0.0000002668,-0.0000001584,-0.0000007159,0.0000001419,0.0000000652,-0.0000005632,0.0000000709,0.0000003206,0.0000001770,0.0000002247,-0.0000000199,0.0000000808,0.0000000360,-0.0000005486,0.0000001194,0.0000001020,0.0000004092,0.0000000469,-0.0000002145,0.0000004607,0.0000003578,0.0000000510,-0.0000005811,0.0000001742,0.0000002577,0.0000002687,-0.0000000367,-0.0000000320,0.0000002806,-0.0000000942,-0.0000002063,0.0000000653,-0.0000002796,0.0000003385,-0.0000000169,-0.0000002157,-0.0000002013,-0.0000001040,-0.0000001765,-0.0000001650,0.0000006529,0.0000000581
0.0000000384,-0.0000005198,0.0000008574,0.0000003504,0.0000001056,0.0000003590,-0.0000001474,0.0000000419,0.0000003320,-0.0000005453,-0.0000001039,-0.0000006150,0.0000002365,0.0000002844,0.0000006991,-0.0000001638,-0.0000003561,-0.0000006078,0.0000000798,-0.0000001445,0.0000000033,0.0000000834,-0.0000004142,0.0000005026,-0.0000009511,-0.0000007201,-0.0000006230,0.0000005201,-0.0000002856,0.0000006512,0.0000005540,-0.0000000380,-0.0000006759,-0.0000006164,-0.0000001488,-0.0000005421,-0.0000009578,-0.0000003759,-0.0000002439,-0.0000000471,0.0000001028,0.0000003163,0.0000007063,-0.0000000867,0.0000000083,0.0000001602,-0.0000007584,0.0000006880,-0.0000003554,-0.0000002011,0.0000000506,0.0000004427,-0.0000012161,-0.0000002156,0.0000001754,0.0000001845,-0.0000002037,0.0000008870,0.0000002676,-0.0000002074,0.0000003826,0.0000005857,-0.0000000947,-0.0000005552,-0.0000000545,-0.0000003474,0.0000007138,-0.0000003199,-0.0000002324,-0.0000012287,0.0000007891,-0.0000004099,-0.0000000780,0.0000005814,-0.0000004075,0.0000006259,0.0000003161,0.0000003326,-0.0000001307,-0.0000002315,-0.0000009658,0.0000002108,-0.0000005544,-0.0000007876,0.0000004556,0.0000002032,0.0000004476,0.0000002657,0.0000012010,-0.0000002381,-0.0000001093,0.0000009448,-0.0000001189,-0.0000005379,-0.0000002970,-0.0000003770,0.0000000333,-0.0000001356,-0.0000000604,0.0000009204,-0.0000002003,-0.0000001712,-0.0000006865,-0.0000000788,0.0000003599,-0.0000007729,-0.0000006002,-0.0000000856,0.0000009749,-0.0000002923,-0.0000004324,-0.0000004508,0.0000000616,0.0000000537,-0.0000004708,0.0000001581,0.0000003461,-0.0000001096,0.0000004691,-0.0000005680,0.0000000284,0.0000003619,0.0000003377,0.0000001745,0.0000002961,0.0000002768,-0.0000010953,-0.0000000975
0.0000000378,-0.0000005121,0.0000008447,0.0000003452,0.0000001040,0.0000003537,-0.0000001452,0.0000000413,0.0000003270,-0.0000005372,-0.0000001023,-0.0000006059,0.0000002330,0.0000002802,0.0000006888,-0.0000001614,-0.0000003508,-0.0000005988,0.0000000786,-0.0000001423,0.0000000032,0.0000000822,-0.0000004080,0.0000004951,-0.0000009370,-0.0000007094,-0.0000006138,0.0000005124,-0.0000002814,0.0000006415,0.0000005458,-0.0000000375,-0.0000006658,-0.0000006072,-0.0000001465,-0.0000005340,-0.0000009436,-0.0000003703,-0.0000002403,-0.0000000464,0.0000001013,0.0000003116,0.0000006959,-0.0000000854,0.0000000082,0.0000001578,-0.0000007471,0.0000006778,-0.0000003502,-0.0000001981,0.0000000499,0.0000004361,-0.0000011981,-0.0000002124,0.0000001728,0.0000001817,-0.0000002007,0.0000008738,0.0000002636,-0.0000002044,0.0000003770,0.0000005771,-0.0000000933,-0.0000005470,-0.0000000537,-0.0000003422,0.0000007032,-0.0000003152,-0.0000002290,-0.0000012105,0.0000007774,-0.0000004038,-0.0000000768,0.0000005728,-0.0000004014,0.0000006166,0.0000003115,0.0000003277,-0.0000001288,-0.0000002280,-0.0000009515,0.0000002077,-0.0000005461,-0.0000007759,0.0000004488,0.0000002002,0.0000004410,0.0000002618,0.0000011832,-0.0000002345,-0.0000001077,0.0000009308,-0.0000001171,-0.0000005300,-0.0000002926,-0.0000003714,0.0000000328,-0.0000001336,-0.0000000595,0.0000009068,-0.0000001974,-0.0000001686,-0.0000006764,-0.0000000776,0.0000003545,-0.0000007614,-0.0000005913,-0.0000000843,0.0000009604,-0.0000002880,-0.0000004260,-0.0000004441,0.0000000607,0.0000000529,-0.0000004638,0.0000001557,0.0000003409,-0.0000001079,0.0000004621,-0.0000005595,0.0000000279,0.0000003565,0.0000003327,0.0000001719,0.0000002917,0.0000002727,-0.0000010791,-0.0000000961
0.0000000201,-0.0000002717,0.0000004481,0.0000001831,0.0000000552,0.0000001876,-0.0000000770,0.0000000219,0.0000001735,-0.0000002849,-0.0000000543,-0.0000003214,0.0000001236,0.0000001486,0.0000003654,-0.0000000856,-0.0000001861,-0.0000003176,0.0000000417,-0.0000000755,0.0000000017,0.0000000436,-0.0000002164,0.0000002626,-0.0000004970,-0.0000003763,-0.0000003256,0.0000002718,-0.0000001493,0.0000003403,0.0000002895,-0.0000000199,-0.0000003532,-0.0000003221,-0.0000000777,-0.0000002833,-0.0000005005,-0.0000001964,-0.0000001275,-0.0000000246,0.0000000537,0.0000001653,0.0000003691,-0.0000000453,0.0000000044,0.0000000837,-0.0000003963,0.0000003595,-0.0000001857,-0.0000001051,0.0000000264,0.0000002314,-0.0000006355,-0.0000001127,0.0000000917,0.0000000964,-0.0000001065,0.0000004635,0.0000001398,-0.0000001084,0.0000002000,0.0000003061,-0.0000000495,-0.0000002902,-0.0000000285,-0.0000001815,0.0000003730,-0.0000001672,-0.0000001215,-0.0000006421,0.0000004124,-0.0000002142,-0.0000000408,0.0000003038,-0.0000002129,0.0000003271,0.0000001652,0.0000001738,-0.0000000683,-0.0000001210,-0.0000005047,0.0000001102,-0.0000002897,-0.0000004116,0.0000002381,0.0000001062,0.0000002339,0.0000001389,0.0000006276,-0.0000001244,-0.0000000571,0.0000004938,-0.0000000621,-0.0000002811,-0.0000001552,-0.0000001970,0.0000000174,-0.0000000709,-0.0000000316,0.0000004810,-0.0000001047,-0.0000000895,-0.0000003588,-0.0000000412,0.0000001881,-0.0000004039,-0.0000003137,-0.0000000447,0.0000005095,-0.0000001528,-0.0000002260,-0.0000002356,0.0000000322,0.0000000281,-0.0000002460,0.0000000826,0.0000001808,-0.0000000573,0.0000002451,-0.0000002968,0.0000000148,0.0000001891,0.0000001765,0.0000000912,0.0000001547,0.0000001447,-0.0000005724,-0.0000000510
0.0000000211,-0.0000002860,0.0000004718,0.0000001928,0.0000000581,0.0000001975,-0.0000000811,0.0000000230,0.0000001826,-0.0000003000,-0.0000000572,-0.0000003384,0.0000001301,0.0000001565,0.0000003847,-0.0000000901,-0.0000001959,-0.0000003344,0.0000000439,-0.0000000795,0.0000000018,0.0000000459,-0.0000002279,0.0000002765,-0.0000005233,-0.0000003962,-0.0000003428,0.0000002862,-0.0000001571,0.0000003583,0.0000003048,-0.0000000209,-0.0000003719,-0.0000003391,-0.0000000818,-0.0000002983,-0.0000005270,-0.0000002068,-0.0000001342,-0.0000000259,0.0000000566,0.0000001740,0.0000003886,-0.0000000477,0.0000000046,0.0000000881,-0.0000004173,0.0000003785,-0.0000001956,-0.0000001106,0.0000000278,0.0000002436,-0.0000006691,-0.0000001186,0.0000000965,0.0000001015,-0.0000001121,0.0000004880,0.0000001472,-0.0000001141,0.0000002105,0.0000003223,-0.0000000521,-0.0000003055,-0.0000000300,-0.0000001911,0.0000003928,-0.0000001760,-0.0000001279,-0.0000006760,0.0000004342,-0.0000002255,-0.0000000429,0.0000003199,-0.0000002242,0.0000003444,0.0000001739,0.0000001830,-0.0000000719,-0.0000001273,-0.0000005314,0.0000001160,-0.0000003050,-0.0000004333,0.0000002507,0.0000001118,0.0000002463,0.0000001462,0.0000006608,-0.0000001310,-0.0000000602,0.0000005199,-0.0000000654,-0.0000002960,-0.0000001634,-0.0000002074,0.0000000183,-0.0000000746,-0.0000000332,0.0000005064,-0.0000001102,-0.0000000942,-0.0000003777,-0.0000000433,0.0000001980,-0.0000004252,-0.0000003303,-0.0000000471,0.0000005364,-0.0000001608,-0.0000002379,-0.0000002480,0.0000000339,0.0000000296,-0.0000002590,0.0000000870,0.0000001904,-0.0000000603,0.0000002581,-0.0000003125,0.0000000156,0.0000001991,0.0000001858,0.0000000960,0.0000001629,0.0000001523,-0.0000006027,-0.0000000537
-0.0000000162,0.0000002187,-0.0000003608,-0.0000001474,-0.0000000444,-0.0000001511,0.0000000620,-0.0000000176,-0.0000001397,0.0000002294,0.0000000437,0.0000002588,-0.0000000995,-0.0000001197,-0.0000002942,0.0000000689,0.0000001498,0.0000002557,-0.0000000336,0.0000000608,-0.0000000014,-0.0000000351,0.0000001743,-0.0000002115,0.0000004002,0.0000003030,0.0000002622,-0.0000002188,0.0000001202,-0.0000002740,-0.0000002331,0.0000000160,0.0000002844,0.0000002594,0.0000000626,0.0000002281,0.0000004030,0.0000001582,0.0000001026,0.0000000198,-0.0000000433,-0.0000001331,-0.0000002972,0.0000000365,-0.0000000035,-0.0000000674,0.0000003191,-0.0000002895,0.0000001496,0.0000000846,-0.0000000213,-0.0000001863,0.0000005117,0.0000000907,-0.0000000738,-0.0000000776,0.0000000857,-0.0000003732,-0.0000001126,0.0000000873,-0.0000001610,-0.0000002465,0.0000000399,0.0000002336,0.0000000229,0.0000001462,-0.0000003004,0.0000001346,0.0000000978,0.0000005170,-0.0000003320,0.0000001725,0.0000000328,-0.0000002446,0.0000001715,-0.0000002634,-0.0000001330,-0.0000001400,0.0000000550,0.0000000974,0.0000004064,-0.0000000887,0.0000002333,0.0000003314,-0.0000001917,-0.0000000855,-0.0000001884,-0.0000001118,-0.0000005053,0.0000001002,0.0000000460,-0.0000003976,0.0000000500,0.0000002263,0.0000001250,0.0000001586,-0.0000000140,0.0000000570,0.0000000254,-0.0000003873,0.0000000843,0.0000000720,0.0000002889,0.0000000331,-0.0000001514,0.0000003252,0.0000002526,0.0000000360,-0.0000004102,0.0000001230,0.0000001819,0.0000001897,-0.0000000259,-0.0000000226,0.0000001981,-0.0000000665,-0.0000001456,0.0000000461,-0.0000001974,0.0000002390,-0.0000000119,-0.0000001523,-0.0000001421,-0.0000000734,-0.0000001246,-0.0000001165,0.0000004609,0.0000000410
-0.0000000088,0.0000001195,-0.0000001971,-0.0000000805,-0.0000000243,-0.0000000825,0.0000000339,-0.0000000096,-0.0000000763,0.0000001253,0.0000000239,0.0000001413,-0.0000000543,-0.0000000654,-0.0000001607,0.0000000377,0.0000000818,0.0000001397,-0.0000000183,0.0000000332,-0.0000000008,-0.0000000192,0.0000000952,-0.0000001155,0.0000002186,0.0000001655,0.0000001432,-0.0000001195,0.0000000656,-0.0000001496,-0.0000001273,0.0000000087,0.0000001553,0.0000001417,0.0000000342,0.0000001246,0.0000002201,0.0000000864,0.0000000561,0.0000000108,-0.0000000236,-0.0000000727,-0.0000001623,0.0000000199,-0.0000000019,-0.0000000368,0.0000001743,-0.0000001581,0.0000000817,0.0000000462,-0.0000000116,-0.0000001017,0.0000002795,0.0000000496,-0.0000000403,-0.0000000424,0.0000000468,-0.0000002038,-0.0000000615,0.0000000477,-0.0000000879,-0.0000001346,0.0000000218,0.0000001276,0.0000000125,0.0000000798,-0.0000001641,0.0000000735,0.0000000534,0.0000002824,-0.0000001813,0.0000000942,0.0000000179,-0.0000001336,0.0000000936,-0.0000001438,-0.0000000727,-0.0000000764,0.0000000300,0.0000000532,0.0000002220,-0.0000000484,0.0000001274,0.0000001810,-0.0000001047,-0.0000000467,-0.0000001029,-0.0000000611,-0.0000002760,0.0000000547,0.0000000251,-0.0000002171,0.0000000273,0.0000001236,0.0000000683,0.0000000866,-0.0000000077,0.0000000312,0.0000000139,-0.0000002115,0.0000000460,0.0000000393,0.0000001578,0.0000000181,-0.0000000827,0.0000001776,0.0000001379,0.0000000197,-0.0000002240,0.0000000672,0.0000000994,0.0000001036,-0.0000000142,-0.0000000123,0.0000001082,-0.0000000363,-0.0000000795,0.0000000252,-0.0000001078,0.0000001305,-0.0000000065,-0.0000000832,-0.0000000776,-0.0000000401,-0.0000000680,-0.0000000636,0.0000002517,0.0000000224
0.0000000184,-0.0000002488,0.0000004103,0.0000001677,0.0000000505,0.0000001718,-0.0000000705,0.0000000200,0.0000001589,-0.0000002609,-0.0000000497,-0.0000002943,0.0000001132,0.0000001361,0.0000003346,-0.0000000784,-0.0000001704,-0.0000002909,0.0000000382,-0.0000000691,0.0000000016,0.0000000399,-0.0000001982,0.0000002405,-0.0000004551,-0.0000003446,-0.0000002981,0.0000002489,-0.0000001367,0.0000003116,0.0000002651,-0.0000000182,-0.0000003234,-0.0000002950,-0.0000000712,-0.0000002594,-0.0000004583,-0.0000001799,-0.0000001167,-0.0000000225,0.0000000492,0.0000001514,0.0000003380,-0.0000000415,0.0000000040,0.0000000766,-0.0000003629,0.0000003292,-0.0000001701,-0.0000000962,0.0000000242,0.0000002119,-0.0000005820,-0.0000001032,0.0000000839,0.0000000883,-0.0000000975,0.0000004244,0.0000001280,-0.0000000993,0.0000001831,0.0000002803,-0.0000000453,-0.0000002657,-0.0000000261,-0.0000001662,0.0000003416,-0.0000001531,-0.0000001112,-0.0000005880,0.0000003776,-0.0000001962,-0.0000000373,0.0000002782,-0.0000001950,0.0000002995,0.0000001513,0.0000001592,-0.0000000626,-0.0000001108,-0.0000004622,0.0000001009,-0.0000002653,-0.0000003769,0.0000002180,0.0000000973,0.0000002142,0.0000001271,0.0000005747,-0.0000001139,-0.0000000523,0.0000004521,-0.0000000569,-0.0000002574,-0.0000001421,-0.0000001804,0.0000000159,-0.0000000649,-0.0000000289,0.0000004405,-0.0000000959,-0.0000000819,-0.0000003285,-0.0000000377,0.0000001722,-0.0000003698,-0.0000002872,-0.0000000410,0.0000004665,-0.0000001399,-0.0000002069,-0.0000002157,0.0000000295,0.0000000257,-0.0000002253,0.0000000756,0.0000001656,-0.0000000524,0.0000002245,-0.0000002718,0.0000000136,0.0000001732,0.0000001616,0.0000000835,0.0000001417,0.0000001325,-0.0000005242,-0.0000000467
-0.0000000203,0.0000002743,-0.0000004524,-0.0000001848,-0.0000000557,-0.0000001894,0.0000000778,-0.0000000221,-0.0000001751,0.0000002877,0.0000000548,0.0000003245,-0.0000001248,-0.0000001500,-0.0000003689,0.0000000864,0.0000001879,0.0000003207,-0.0000000421,0.0000000762,-0.0000000017,-0.0000000440,0.0000002185,-0.0000002652,0.0000005018,0.0000003799,0.0000003287,-0.0000002744,0.0000001507,-0.0000003436,-0.0000002923,0.0000000201,0.0000003566,0.0000003252,0.0000000785,0.0000002860,0.0000005053,0.0000001983,0.0000001287,0.0000000249,-0.0000000542,-0.0000001669,-0.0000003727,0.0000000457,-0.0000000044,-0.0000000845,0.0000004001,-0.0000003630,0.0000001875,0.0000001061,-0.0000000267,-0.0000002336,0.0000006416,0.0000001138,-0.0000000925,-0.0000000973,0.0000001075,-0.0000004680,-0.0000001412,0.0000001094,-0.0000002019,-0.0000003090,0.0000000500,0.0000002929,0.0000000287,0.0000001833,-0.0000003766,0.0000001688,0.0000001226,0.0000006483,-0.0000004163,0.0000002163,0.0000000412,-0.0000003067,0.0000002150,-0.0000003302,-0.0000001668,-0.0000001755,0.0000000690,0.0000001221,0.0000005096,-0.0000001112,0.0000002925,0.0000004155,-0.0000002404,-0.0000001072,-0.0000002362,-0.0000001402,-0.0000006336,0.0000001256,0.0000000577,-0.0000004985,0.0000000627,0.0000002838,0.0000001567,0.0000001989,-0.0000000176,0.0000000715,0.0000000319,-0.0000004856,0.0000001057,0.0000000903,0.0000003622,0.0000000416,-0.0000001899,0.0000004078,0.0000003167,0.0000000452,-0.0000005143,0.0000001542,0.0000002281,0.0000002379,-0.0000000325,-0.0000000283,0.0000002484,-0.0000000834,-0.0000001826,0.0000000578,-0.0000002475,0.0000002997,-0.0000000150,-0.0000001909,-0.0000001782,-0.0000000921,-0.0000001562,-0.0000001461,0.0000005779,0.0000000515
-0.0000000420,0.0000005682,-0.0000009372,-0.0000003829,-0.0000001154,-0.0000003924,0.0000001611,-0.0000000458,-0.0000003628,0.0000005960,0.0000001135,0.0000006722,-0.0000002584,-0.0000003108,-0.0000007641,0.0000001791,0.0000003892,0.0000006643,-0.0000000872,0.0000001579,-0.0000000036,-0.0000000912,0.0000004527,-0.0000005493,0.0000010395,0.0000007871,0.0000006810,-0.0000005685,0.0000003122,-0.0000007117,-0.0000006055,0.0000000416,0.0000007387,0.0000006737,0.0000001626,0.0000005925,0.0000010468,0.0000004109,0.0000002666,0.0000000515,-0.0000001123,-0.0000003457,-0.0000007720,0.0000000947,-0.0000000091,-0.0000001751,0.0000008289,-0.0000007519,0.0000003885,0.0000002198,-0.0000000553,-0.0000004839,0.0000013292,0.0000002357,-0.0000001917,-0.0000002016,0.0000002226,-0.0000009694,-0.0000002925,0.0000002267,-0.0000004182,-0.0000006402,0.0000001035,0.0000006069,0.0000000595,0.0000003797,-0.0000007802,0.0000003497,0.0000002541,0.0000013430,-0.0000008625,0.0000004480,0.0000000853,-0.0000006355,0.0000004454,-0.0000006841,-0.0000003455,-0.0000003636,0.0000001429,0.0000002530,0.0000010557,-0.0000002304,0.0000006059,0.0000008608,-0.0000004979,-0.0000002221,-0.0000004893,-0.0000002904,-0.0000013127,0.0000002602,0.0000001195,-0.0000010327,0.0000001300,0.0000005880,0.0000003246,0.0000004121,-0.0000000364,0.0000001482,0.0000000660,-0.0000010060,0.0000002190,0.0000001871,0.0000007504,0.0000000861,-0.0000003933,0.0000008447,0.0000006561,0.0000000935,-0.0000010655,0.0000003195,0.0000004726,0.0000004927,-0.0000000674,-0.0000000587,0.0000005146,-0.0000001728,-0.0000003782,0.0000001197,-0.0000005127,0.0000006208,-0.0000000310,-0.0000003955,-0.0000003691,-0.0000001907,-0.0000003236,-0.0000003026,0.0000011972,0.0000001066
-0.0000000045,0.0000000615,-0.0000001014,-0.0000000414,-0.0000000125,-0.0000000425,0.0000000174,-0.0000000050,-0.0000000392,0.0000000645,0.0000000123,0.0000000727,-0.0000000280,-0.0000000336,-0.0000000827,0.0000000194,0.0000000421,0.0000000719,-0.0000000094,0.0000000171,-0.0000000004,-0.0000000099,0.0000000490,-0.0000000594,0.0000001124,0.0000000851,0.0000000737,-0.0000000615,0.0000000338,-0.0000000770,-0.0000000655,0.0000000045,0.0000000799,0.0000000729,0.0000000176,0.0000000641,0.0000001132,0.0000000444,0.0000000288,0.0000000056,-0.0000000122,-0.0000000374,-0.0000000835,0.0000000102,-0.0000000010,-0.0000000189,0.0000000897,-0.0000000813,0.0000000420,0.0000000238,-0.0000000060,-0.0000000523,0.0000001438,0.0000000255,-0.0000000207,-0.0000000218,0.0000000241,-0.0000001049,-0.0000000316,0.0000000245,-0.0000000452,-0.0000000693,0.0000000112,0.0000000656,0.0000000064,0.0000000411,-0.0000000844,0.0000000378,0.0000000275,0.0000001453,-0.0000000933,0.0000000485,0.0000000092,-0.0000000687,0.0000000482,-0.0000000740,-0.0000000374,-0.0000000393,0.0000000155,0.0000000274,0.0000001142,-0.0000000249,0.0000000655,0.0000000931,-0.0000000539,-0.0000000240,-0.0000000529,-0.0000000314,-0.0000001420,0.0000000281,0.0000000129,-0.0000001117,0.0000000141,0.0000000636,0.0000000351,0.0000000446,-0.0000000039,0.0000000160,0.0000000071,-0.0000001088,0.0000000237,0.0000000202,0.0000000812,0.0000000093,-0.0000000425,0.0000000914,0.0000000710,0.0000000101,-0.0000001153,0.0000000346,0.0000000511,0.0000000533,-0.0000000073,-0.0000000064,0.0000000557,-0.0000000187,-0.0000000409,0.0000000130,-0.0000000555,0.0000000671,-0.0000000034,-0.0000000428,-0.0000000399,-0.0000000206,-0.0000000350,-0.0000000327,0.0000001295,0.0000000115
-0.0000000227,0.0000003067,-0.0000005058,-0.0000002067,-0.0000000623,-0.0000002118,0.0000000870,-0.0000000247,-0.0000001958,0.0000003217,0.0000000613,0.0000003628,-0.0000001395,-0.0000001678,-0.0000004124,0.0000000966,0.0000002101,0.0000003586,-0.0000000470,0.0000000852,-0.0000000019,-0.0000000492,0.0000002443,-0.0000002965,0.0000005611,0.0000004248,0.0000003676,-0.0000003068,0.0000001685,-0.0000003841,-0.0000003268,0.0000000224,0.0000003987,0.0000003636,0.0000000878,0.0000003198,0.0000005650,0.0000002218,0.0000001439,0.0000000278,-0.0000000606,-0.0000001866,-0.0000004167,0.0000000511,-0.0000000049,-0.0000000945,0.0000004474,-0.0000004058,0.0000002097,0.0000001186,-0.0000000299,-0.0000002612,0.0000007174,0.0000001272,-0.0000001035,-0.0000001088,0.0000001202,-0.0000005232,-0.0000001579,0.0000001224,-0.0000002257,-0.0000003455,0.0000000559,0.0000003276,0.0000000321,0.0000002049,-0.0000004211,0.0000001887,0.0000001371,0.0000007248,-0.0000004655,0.0000002418,0.0000000460,-0.0000003430,0.0000002404,-0.0000003692,-0.0000001865,-0.0000001962,0.0000000771,0.0000001365,0.0000005698,-0.0000001244,0.0000003270,0.0000004646,-0.0000002687,-0.0000001199,-0.0000002641,-0.0000001567,-0.0000007085,0.0000001404,0.0000000645,-0.0000005574,0.0000000701,0.0000003173,0.0000001752,0.0000002224,-0.0000000197,0.0000000800,0.0000000356,-0.0000005430,0.0000001182,0.0000001010,0.0000004050,0.0000000465,-0.0000002123,0.0000004559,0.0000003541,0.0000000505,-0.0000005751,0.0000001724,0.0000002551,0.0000002660,-0.0000000364,-0.0000000317,0.0000002777,-0.0000000932,-0.0000002041,0.0000000646,-0.0000002767,0.0000003351,-0.0000000167,-0.0000002135,-0.0000001992,-0.0000001029,-0.0000001747,-0.0000001633,0.0000006462,0.0000000575
0.0000000548,-0.0000007420,0.0000012239,0.0000005001,0.0000001508,0.0000005125,-0.0000002104,0.0000000598,0.0000004738,-0.0000007783,-0.0000001483,-0.0000008779,0.0000003375,0.0000004059,0.0000009980,-0.0000002339,-0.0000005083,-0.0000008676,0.0000001138,-0.0000002062,0.0000000047,0.0000001191,-0.0000005912,0.0000007174,-0.0000013576,-0.0000010279,-0.0000008894,0.0000007424,-0.0000004077,0.0000009295,0.0000007908,-0.0000000543,-0.0000009648,-0.0000008799,-0.0000002123,-0.0000007738,-0.0000013672,-0.0000005366,-0.0000003482,-0.0000000673,0.0000001467,0.0000004515,0.0000010083,-0.0000001237,0.0000000119,0.0000002286,-0.0000010825,0.0000009820,-0.0000005074,-0.0000002870,0.0000000722,0.0000006320,-0.0000017360,-0.0000003078,0.0000002504,0.0000002633,-0.0000002908,0.0000012661,0.0000003820,-0.0000002961,0.0000005462,0.0000008361,-0.0000001352,-0.0000007926,-0.0000000778,-0.0000004959,0.0000010190,-0.0000004567,-0.0000003318,-0.0000017539,0.0000011264,-0.0000005851,-0.0000001113,0.0000008299,-0.0000005817,0.0000008934,0.0000004513,0.0000004748,-0.0000001866,-0.0000003304,-0.0000013787,0.0000003009,-0.0000007913,-0.0000011243,0.0000006503,0.0000002901,0.0000006390,0.0000003793,0.0000017143,-0.0000003398,-0.0000001561,0.0000013487,-0.0000001697,-0.0000007679,-0.0000004239,-0.0000005382,0.0000000476,-0.0000001935,-0.0000000862,0.0000013139,-0.0000002860,-0.0000002444,-0.0000009800,-0.0000001124,0.0000005137,-0.0000011032,-0.0000008568,-0.0000001222,0.0000013916,-0.0000004173,-0.0000006172,-0.0000006435,0.0000000880,0.0000000767,-0.0000006721,0.0000002256,0.0000004940,-0.0000001564,0.0000006696,-0.0000008107,0.0000000405,0.0000005165,0.0000004820,0.0000002491,0.0000004226,0.0000003951,-0.0000015635,-0.0000001392
0.0000000138,-0.0000001861,0.0000003070,0.0000001255,0.0000000378,0.0000001286,-0.0000000528,0.0000000150,0.0000001189,-0.0000001953,-0.0000000372,-0.0000002202,0.0000000847,0.0000001018,0.0000002504,-0.0000000587,-0.0000001275,-0.0000002177,0.0000000286,-0.0000000517,0.0000000012,0.0000000299,-0.0000001483,0.0000001800,-0.0000003406,-0.0000002579,-0.0000002231,0.0000001862,-0.0000001023,0.0000002332,0.0000001984,-0.0000000136,-0.0000002420,-0.0000002207,-0.0000000533,-0.0000001941,-0.0000003430,-0.0000001346,-0.0000000873,-0.0000000169,0.0000000368,0.0000001133,0.0000002529,-0.0000000310,0.0000000030,0.0000000574,-0.0000002716,0.0000002463,-0.0000001273,-0.0000000720,0.0000000181,0.0000001585,-0.0000004355,-0.0000000772,0.0000000628,0.0000000661,-0.0000000729,0.0000003176,0.0000000958,-0.0000000743,0.0000001370,0.0000002097,-0.0000000339,-0.0000001988,-0.0000000195,-0.0000001244,0.0000002556,-0.0000001146,-0.0000000832,-0.0000004400,0.0000002826,-0.0000001468,-0.0000000279,0.0000002082,-0.0000001459,0.0000002241,0.0000001132,0.0000001191,-0.0000000468,-0.0000000829,-0.0000003459,0.0000000755,-0.0000001985,-0.0000002820,0.0000001631,0.0000000728,0.0000001603,0.0000000951,0.0000004301,-0.0000000852,-0.0000000392,0.0000003383,-0.0000000426,-0.0000001926,-0.0000001063,-0.0000001350,0.0000000119,-0.0000000485,-0.0000000216,0.0000003296,-0.0000000717,-0.0000000613,-0.0000002458,-0.0000000282,0.0000001289,-0.0000002768,-0.0000002149,-0.0000000306,0.0000003491,-0.0000001047,-0.0000001548,-0.0000001614,0.0000000221,0.0000000192,-0.0000001686,0.0000000566,0.0000001239,-0.0000000392,0.0000001680,-0.0000002034,0.0000000102,0.0000001296,0.0000001209,0.0000000625,0.0000001060,0.0000000991,-0.0000003922,-0.0000000349
0.0000000061,-0.0000000819,0.0000001351,0.0000000552,0.0000000166,0.0000000566,-0.0000000232,0.0000000066,0.0000000523,-0.0000000859,-0.0000000164,-0.0000000969,0.0000000373,0.0000000448,0.0000001102,-0.0000000258,-0.0000000561,-0.0000000958,0.0000000126,-0.0000000228,0.0000000005,0.0000000131,-0.0000000653,0.0000000792,-0.0000001499,-0.0000001135,-0.0000000982,0.0000000820,-0.0000000450,0.0000001026,0.0000000873,-0.0000000060,-0.0000001065,-0.0000000971,-0.0000000234,-0.0000000854,-0.0000001509,-0.0000000592,-0.0000000384,-0.0000000074,0.0000000162,0.0000000498,0.0000001113,-0.0000000137,0.0000000013,0.0000000252,-0.0000001195,0.0000001084,-0.0000000560,-0.0000000317,0.0000000080,0.0000000698,-0.0000001916,-0.0000000340,0.0000000276,0.0000000291,-0.0000000321,0.0000001398,0.0000000422,-0.0000000327,0.0000000603,0.0000000923,-0.0000000149,-0.0000000875,-0.0000000086,-0.0000000547,0.0000001125,-0.0000000504,-0.0000000366,-0.0000001936,0.0000001243,-0.0000000646,-0.0000000123,0.0000000916,-0.0000000642,0.0000000986,0.0000000498,0.0000000524,-0.0000000206,-0.0000000365,-0.0000001522,0.0000000332,-0.0000000874,-0.0000001241,0.0000000718,0.0000000320,0.0000000705,0.0000000419,0.0000001893,-0.0000000375,-0.0000000172,0.0000001489,-0.0000000187,-0.0000000848,-0.0000000468,-0.0000000594,0.0000000053,-0.0000000214,-0.0000000095,0.0000001450,-0.0000000316,-0.0000000270,-0.0000001082,-0.0000000124,0.0000000567,-0.0000001218,-0.0000000946,-0.0000000135,0.0000001536,-0.0000000461,-0.0000000681,-0.0000000710,0.0000000097,0.0000000085,-0.0000000742,0.0000000249,0.0000000545,-0.0000000173,0.0000000739,-0.0000000895,0.0000000045,0.0000000570,0.0000000532,0.0000000275,0.0000000467,0.0000000436,-0.0000001726,-0.0000000154
0.0000000174,-0.0000002358,0.0000003890,0.0000001589,0.0000000479,0.0000001629,-0.0000000669,0.0000000190,0.0000001506,-0.0000002473,-0.0000000471,-0.0000002790,0.0000001073,0.0000001290,0.0000003171,-0.0000000743,-0.0000001615,-0.0000002757,0.0000000362,-0.0000000655,0.0000000015,0.0000000379,-0.0000001879,0.0000002280,-0.0000004314,-0.0000003267,-0.0000002826,0.0000002359,-0.0000001296,0.0000002954,0.0000002513,-0.0000000173,-0.0000003066,-0.0000002796,-0.0000000675,-0.0000002459,-0.0000004345,-0.0000001705,-0.0000001106,-0.0000000214,0.0000000466,0.0000001435,0.0000003204,-0.0000000393,0.0000000038,0.0000000727,-0.0000003440,0.0000003121,-0.0000001612,-0.0000000912,0.0000000230,0.0000002008,-0.0000005517,-0.0000000978,0.0000000796,0.0000000837,-0.0000000924,0.0000004024,0.0000001214,-0.0000000941,0.0000001736,0.0000002657,-0.0000000430,-0.0000002519,-0.0000000247,-0.0000001576,0.0000003238,-0.0000001451,-0.0000001054,-0.0000005574,0.0000003580,-0.0000001859,-0.0000000354,0.0000002637,-0.0000001848,0.0000002839,0.0000001434,0.0000001509,-0.0000000593,-0.0000001050,-0.0000004381,0.0000000956,-0.0000002515,-0.0000003573,0.0000002067,0.0000000922,0.0000002031,0.0000001205,0.0000005448,-0.0000001080,-0.0000000496,0.0000004286,-0.0000000539,-0.0000002440,-0.0000001347,-0.0000001710,0.0000000151,-0.0000000615,-0.0000000274,0.0000004175,-0.0000000909,-0.0000000777,-0.0000003114,-0.0000000357,0.0000001632,-0.0000003506,-0.0000002723,-0.0000000388,0.0000004422,-0.0000001326,-0.0000001961,-0.0000002045,0.0000000280,0.0000000244,-0.0000002136,0.0000000717,0.0000001570,-0.0000000497,0.0000002128,-0.0000002576,0.0000000129,0.0000001642,0.0000001532,0.0000000792,0.0000001343,0.0000001256,-0.0000004969,-0.0000000442
0.0000000374,-0.0000005065,0.0000008354,0.0000003414,0.0000001029,0.0000003498,-0.0000001436,0.0000000408,0.0000003234,-0.0000005312,-0.0000001012,-0.0000005992,0.0000002304,0.0000002771,0.0000006812,-0.0000001596,-0.0000003469,-0.0000005922,0.0000000777,-0.0000001408,0.0000000032,0.0000000813,-0.0000004035,0.0000004896,-0.0000009266,-0.0000007016,-0.0000006070,0.0000005067,-0.0000002783,0.0000006344,0.0000005398,-0.0000000371,-0.0000006585,-0.0000006006,-0.0000001449,-0.0000005281,-0.0000009332,-0.0000003662,-0.0000002376,-0.0000000459,0.0000001001,0.0000003082,0.0000006882,-0.0000000844,0.0000000081,0.0000001560,-0.0000007389,0.0000006703,-0.0000003463,-0.0000001959,0.0000000493,0.0000004313,-0.0000011849,-0.0000002101,0.0000001709,0.0000001797,-0.0000001985,0.0000008642,0.0000002607,-0.0000002021,0.0000003728,0.0000005707,-0.0000000923,-0.0000005410,-0.0000000531,-0.0000003385,0.0000006955,-0.0000003117,-0.0000002265,-0.0000011971,0.0000007688,-0.0000003994,-0.0000000760,0.0000005665,-0.0000003970,0.0000006098,0.0000003080,0.0000003241,-0.0000001274,-0.0000002255,-0.0000009410,0.0000002054,-0.0000005401,-0.0000007674,0.0000004439,0.0000001980,0.0000004361,0.0000002589,0.0000011701,-0.0000002319,-0.0000001065,0.0000009206,-0.0000001159,-0.0000005241,-0.0000002894,-0.0000003673,0.0000000325,-0.0000001321,-0.0000000588,0.0000008968,-0.0000001952,-0.0000001668,-0.0000006689,-0.0000000767,0.0000003506,-0.0000007530,-0.0000005848,-0.0000000834,0.0000009498,-0.0000002848,-0.0000004213,-0.0000004392,0.0000000600,0.0000000524,-0.0000004587,0.0000001540,0.0000003372,-0.0000001067,0.0000004570,-0.0000005534,0.0000000276,0.0000003526,0.0000003290,0.0000001700,0.0000002885,0.0000002697,-0.0000010672,-0.0000000950
-0.0000000530,0.0000007171,-0.0000011829,-0.0000004833,-0.0000001457,-0.0000004953,0.0000002034,-0.0000000578,-0.0000004579,0.0000007522,0.0000001433,0.0000008485,-0.0000003262,-0.0000003923,-0.0000009645,0.0000002260,0.0000004912,0.0000008385,-0.0000001100,0.0000001993,-0.0000000045,-0.0000001151,0.0000005714,-0.0000006933,0.0000013121,0.0000009934,0.0000008595,-0.0000007175,0.0000003940,-0.0000008983,-0.0000007643,0.0000000525,0.0000009324,0.0000008503,0.0000002052,0.0000007478,0.0000013213,0.0000005186,0.0000003365,0.0000000650,-0.0000001418,-0.0000004364,-0.0000009744,0.0000001195,-0.0000000115,-0.0000002209,0.0000010462,-0.0000009491,0.0000004903,0.0000002774,-0.0000000698,-0.0000006107,0.0000016777,0.0000002975,-0.0000002420,-0.0000002545,0.0000002810,-0.0000012236,-0.0000003691,0.0000002862,-0.0000005279,-0.0000008081,0.0000001307,0.0000007660,0.0000000752,0.0000004793,-0.0000009848,0.0000004414,0.0000003207,0.0000016951,-0.0000010886,0.0000005655,0.0000001076,-0.0000008021,0.0000005621,-0.0000008635,-0.0000004361,-0.0000004589,0.0000001803,0.0000003193,0.0000013324,-0.0000002908,0.0000007648,0.0000010865,-0.0000006285,-0.0000002804,-0.0000006176,-0.0000003666,-0.0000016568,0.0000003284,0.0000001508,-0.0000013035,0.0000001640,0.0000007421,0.0000004097,0.0000005201,-0.0000000460,0.0000001870,0.0000000833,-0.0000012698,0.0000002764,0.0000002362,0.0000009471,0.0000001086,-0.0000004964,0.0000010662,0.0000008281,0.0000001181,-0.0000013449,0.0000004033,0.0000005965,0.0000006219,-0.0000000850,-0.0000000741,0.0000006495,-0.0000002180,-0.0000004774,0.0000001511,-0.0000006471,0.0000007835,-0.0000000391,-0.0000004992,-0.0000004658,-0.0000002407,-0.0000004084,-0.0000003819,0.0000015111,0.0000001346
-0.0000000130,0.0000001764,-0.0000002910,-0.0000001189,-0.0000000359,-0.0000001219,0.0000000500,-0.0000000142,-0.0000001127,0.0000001851,0.0000000353,0.0000002088,-0.0000000803,-0.0000000965,-0.0000002373,0.0000000556,0.0000001209,0.0000002063,-0.0000000271,0.0000000490,-0.0000000011,-0.0000000283,0.0000001406,-0.0000001706,0.0000003228,0.0000002444,0.0000002115,-0.0000001765,0.0000000970,-0.0000002210,-0.0000001881,0.0000000129,0.0000002294,0.0000002092,0.0000000505,0.0000001840,0.0000003251,0.0000001276,0.0000000828,0.0000000160,-0.0000000349,-0.0000001074,-0.0000002398,0.0000000294,-0.0000000028,-0.0000000544,0.0000002574,-0.0000002335,0.0000001207,0.0000000683,-0.0000000172,-0.0000001503,0.0000004128,0.0000000732,-0.0000000595,-0.0000000626,0.0000000691,-0.0000003011,-0.0000000908,0.0000000704,-0.0000001299,-0.0000001988,0.0000000322,0.0000001885,0.0000000185,0.0000001179,-0.0000002423,0.0000001086,0.0000000789,0.0000004171,-0.0000002678,0.0000001391,0.0000000265,-0.0000001974,0.0000001383,-0.0000002125,-0.0000001073,-0.0000001129,0.0000000444,0.0000000786,0.0000003278,-0.0000000716,0.0000001882,0.0000002673,-0.0000001546,-0.0000000690,-0.0000001520,-0.0000000902,-0.0000004077,0.0000000808,0.0000000371,-0.0000003207,0.0000000404,0.0000001826,0.0000001008,0.0000001280,-0.0000000113,0.0000000460,0.0000000205,-0.0000003124,0.0000000680,0.0000000581,0.0000002330,0.0000000267,-0.0000001222,0.0000002623,0.0000002037,0.0000000291,-0.0000003309,0.0000000992,0.0000001468,0.0000001530,-0.0000000209,-0.0000000182,0.0000001598,-0.0000000537,-0.0000001175,0.0000000372,-0.0000001592,0.0000001928,-0.0000000096,-0.0000001228,-0.0000001146,-0.0000000592,-0.0000001005,-0.0000000940,0.0000003718,0.0000000331
0.0000000632,-0.0000008555,0.0000014111,0.0000005766,0.0000001738,0.0000005909,-0.0000002426,0.0000000689,0.0000005463,-0.0000008973,-0.0000001710,-0.0000010121,0.0000003891,0.0000004680,0.0000011505,-0.0000002696,-0.0000005860,-0.0000010003,0.0000001312,-0.0000002378,0.0000000054,0.0000001373,-0.0000006816,0.0000008271,-0.0000015652,-0.0000011851,-0.0000010253,0.0000008559,-0.0000004700,0.0000010716,0.0000009117,-0.0000000626,-0.0000011123,-0.0000010144,-0.0000002448,-0.0000008921,-0.0000015762,-0.0000006186,-0.0000004014,-0.0000000775,0.0000001692,0.0000005205,0.0000011624,-0.0000001426,0.0000000137,0.0000002636,-0.0000012480,0.0000011322,-0.0000005849,-0.0000003309,0.0000000833,0.0000007286,-0.0000020013,-0.0000003549,0.0000002886,0.0000003036,-0.0000003352,0.0000014597,0.0000004403,-0.0000003414,0.0000006297,0.0000009640,-0.0000001559,-0.0000009138,-0.0000000897,-0.0000005717,0.0000011747,-0.0000005265,-0.0000003825,-0.0000020221,0.0000012986,-0.0000006746,-0.0000001284,0.0000009568,-0.0000006706,0.0000010300,0.0000005203,0.0000005474,-0.0000002151,-0.0000003809,-0.0000015895,0.0000003469,-0.0000009123,-0.0000012961,0.0000007497,0.0000003344,0.0000007367,0.0000004373,0.0000019764,-0.0000003918,-0.0000001799,0.0000015549,-0.0000001957,-0.0000008853,-0.0000004887,-0.0000006205,0.0000000548,-0.0000002231,-0.0000000994,0.0000015147,-0.0000003297,-0.0000002817,-0.0000011298,-0.0000001296,0.0000005922,-0.0000012719,-0.0000009878,-0.0000001408,0.0000016044,-0.0000004811,-0.0000007115,-0.0000007419,0.0000001014,0.0000000884,-0.0000007748,0.0000002601,0.0000005695,-0.0000001803,0.0000007720,-0.0000009347,0.0000000467,0.0000005955,0.0000005557,0.0000002872,0.0000004872,0.0000004556,-0.0000018026,-0.0000001605
-0.0000000294,0.0000003978,-0.0000006562,-0.0000002681,-0.0000000808,-0.0000002748,0.0000001128,-0.0000000320,-0.0000002541,0.0000004173,0.0000000795,0.0000004707,-0.0000001810,-0.0000002176,-0.0000005351,0.0000001254,0.0000002725,0.0000004652,-0.0000000610,0.0000001106,-0.0000000025,-0.0000000639,0.0000003170,-0.0000003846,0.0000007279,0.0000005511,0.0000004768,-0.0000003980,0.0000002186,-0.0000004983,-0.0000004240,0.0000000291,0.0000005173,0.0000004717,0.0000001138,0.0000004149,0.0000007330,0.0000002877,0.0000001867,0.0000000361,-0.0000000787,-0.0000002421,-0.0000005406,0.0000000663,-0.0000000064,-0.0000001226,0.0000005804,-0.0000005265,0.0000002720,0.0000001539,-0.0000000387,-0.0000003388,0.0000009307,0.0000001650,-0.0000001342,-0.0000001412,0.0000001559,-0.0000006788,-0.0000002048,0.0000001588,-0.0000002928,-0.0000004483,0.0000000725,0.0000004249,0.0000000417,0.0000002659,-0.0000005463,0.0000002449,0.0000001779,0.0000009404,-0.0000006039,0.0000003137,0.0000000597,-0.0000004450,0.0000003118,-0.0000004790,-0.0000002419,-0.0000002546,0.0000001000,0.0000001771,0.0000007392,-0.0000001613,0.0000004243,0.0000006028,-0.0000003486,-0.0000001555,-0.0000003426,-0.0000002033,-0.0000009191,0.0000001822,0.0000000837,-0.0000007231,0.0000000910,0.0000004117,0.0000002273,0.0000002885,-0.0000000255,0.0000001038,0.0000000462,-0.0000007044,0.0000001533,0.0000001310,0.0000005254,0.0000000603,-0.0000002754,0.0000005915,0.0000004594,0.0000000655,-0.0000007461,0.0000002237,0.0000003309,0.0000003450,-0.0000000472,-0.0000000411,0.0000003603,-0.0000001210,-0.0000002648,0.0000000838,-0.0000003590,0.0000004347,-0.0000000217,-0.0000002769,-0.0000002584,-0.0000001336,-0.0000002266,-0.0000002119,0.0000008383,0.0000000747
0.0000000129,-0.0000001745,0.0000002878,0.0000001176,0.0000000354,0.0000001205,-0.0000000495,0.0000000141,0.0000001114,-0.0000001830,-0.0000000349,-0.0000002064,0.0000000794,0.0000000954,0.0000002346,-0.0000000550,-0.0000001195,-0.0000002040,0.0000000268,-0.0000000485,0.0000000011,0.0000000280,-0.0000001390,0.0000001687,-0.0000003192,-0.0000002417,-0.0000002091,0.0000001746,-0.0000000959,0.0000002185,0.0000001859,-0.0000000128,-0.0000002268,-0.0000002069,-0.0000000499,-0.0000001819,-0.0000003214,-0.0000001262,-0.0000000819,-0.0000000158,0.0000000345,0.0000001062,0.0000002371,-0.0000000291,0.0000000028,0.0000000538,-0.0000002545,0.0000002309,-0.0000001193,-0.0000000675,0.0000000170,0.0000001486,-0.0000004081,-0.0000000724,0.0000000589,0.0000000619,-0.0000000684,0.0000002977,0.0000000898,-0.0000000696,0.0000001284,0.0000001966,-0.0000000318,-0.0000001863,-0.0000000183,-0.0000001166,0.0000002396,-0.0000001074,-0.0000000780,-0.0000004124,0.0000002648,-0.0000001376,-0.0000000262,0.0000001951,-0.0000001368,0.0000002101,0.0000001061,0.0000001116,-0.0000000439,-0.0000000777,-0.0000003242,0.0000000707,-0.0000001861,-0.0000002643,0.0000001529,0.0000000682,0.0000001502,0.0000000892,0.0000004031,-0.0000000799,-0.0000000367,0.0000003171,-0.0000000399,-0.0000001805,-0.0000000997,-0.0000001265,0.0000000112,-0.0000000455,-0.0000000203,0.0000003089,-0.0000000672,-0.0000000575,-0.0000002304,-0.0000000264,0.0000001208,-0.0000002594,-0.0000002014,-0.0000000287,0.0000003272,-0.0000000981,-0.0000001451,-0.0000001513,0.0000000207,0.0000000180,-0.0000001580,0.0000000530,0.0000001161,-0.0000000368,0.0000001574,-0.0000001906,0.0000000095,0.0000001214,0.0000001133,0.0000000586,0.0000000994,0.0000000929,-0.0000003676,-0.0000000327
-0.0000000128,0.0000001733,-0.0000002858,-0.0000001168,-0.0000000352,-0.0000001197,0.0000000491,-0.0000000140,-0.0000001106,0.0000001817,0.0000000346,0.0000002050,-0.0000000788,-0.0000000948,-0.0000002330,0.0000000546,0.0000001187,0.0000002026,-0.0000000266,0.0000000482,-0.0000000011,-0.0000000278,0.0000001380,-0.0000001675,0.0000003170,0.0000002400,0.0000002077,-0.0000001733,0.0000000952,-0.0000002170,-0.0000001846,0.0000000127,0.0000002253,0.0000002054,0.0000000496,0.0000001807,0.0000003192,0.0000001253,0.0000000813,0.0000000157,-0.0000000343,-0.0000001054,-0.0000002354,0.0000000289,-0.0000000028,-0.0000000534,0.0000002528,-0.0000002293,0.0000001185,0.0000000670,-0.0000000169,-0.0000001476,0.0000004053,0.0000000719,-0.0000000585,-0.0000000615,0.0000000679,-0.0000002956,-0.0000000892,0.0000000691,-0.0000001275,-0.0000001952,0.0000000316,0.0000001851,0.0000000182,0.0000001158,-0.0000002379,0.0000001066,0.0000000775,0.0000004095,-0.0000002630,0.0000001366,0.0000000260,-0.0000001938,0.0000001358,-0.0000002086,-0.0000001054,-0.0000001109,0.0000000436,0.0000000771,0.0000003219,-0.0000000703,0.0000001848,0.0000002625,-0.0000001518,-0.0000000677,-0.0000001492,-0.0000000886,-0.0000004003,0.0000000793,0.0000000364,-0.0000003149,0.0000000396,0.0000001793,0.0000000990,0.0000001257,-0.0000000111,0.0000000452,0.0000000201,-0.0000003068,0.0000000668,0.0000000571,0.0000002288,0.0000000262,-0.0000001199,0.0000002576,0.0000002001,0.0000000285,-0.0000003249,0.0000000974,0.0000001441,0.0000001503,-0.0000000205,-0.0000000179,0.0000001569,-0.0000000527,-0.0000001153,0.0000000365,-0.0000001563,0.0000001893,-0.0000000095,-0.0000001206,-0.0000001125,-0.0000000582,-0.0000000987,-0.0000000923,0.0000003651,0.0000000325
0.0000000290,-0.0000003920,0.0000006465,0.0000002642,0.0000000796,0.0000002707,-0.0000001112,0.0000000316,0.0000002503,-0.0000004111,-0.0000000783,-0.0000004637,0.0000001783,0.0000002144,0.0000005272,-0.0000001235,-0.0000002685,-0.0000004583,0.0000000601,-0.0000001089,0.0000000025,0.0000000629,-0.0000003123,0.0000003789,-0.0000007171,-0.0000005430,-0.0000004698,0.0000003922,-0.0000002154,0.0000004910,0.0000004177,-0.0000000287,-0.0000005096,-0.0000004648,-0.0000001122,-0.0000004087,-0.0000007222,-0.0000002834,-0.0000001839,-0.0000000355,0.0000000775,0.0000002385,0.0000005326,-0.0000000653,0.0000000063,0.0000001208,-0.0000005718,0.0000005187,-0.0000002680,-0.0000001516,0.0000000382,0.0000003338,-0.0000009170,-0.0000001626,0.0000001322,0.0000001391,-0.0000001536,0.0000006688,0.0000002018,-0.0000001564,0.0000002885,0.0000004417,-0.0000000714,-0.0000004187,-0.0000000411,-0.0000002619,0.0000005382,-0.0000002412,-0.0000001753,-0.0000009265,0.0000005950,-0.0000003091,-0.0000000588,0.0000004384,-0.0000003072,0.0000004719,0.0000002384,0.0000002508,-0.0000000986,-0.0000001745,-0.0000007283,0.0000001589,-0.0000004180,-0.0000005939,0.0000003435,0.0000001532,0.0000003375,0.0000002003,0.0000009056,-0.0000001795,-0.0000000824,0.0000007124,-0.0000000897,-0.0000004056,-0.0000002239,-0.0000002843,0.0000000251,-0.0000001022,-0.0000000455,0.0000006940,-0.0000001511,-0.0000001291,-0.0000005177,-0.0000000594,0.0000002713,-0.0000005828,-0.0000004526,-0.0000000645,0.0000007351,-0.0000002204,-0.0000003260,-0.0000003399,0.0000000465,0.0000000405,-0.0000003550,0.0000001192,0.0000002609,-0.0000000826,0.0000003537,-0.0000004282,0.0000000214,0.0000002729,0.0000002546,0.0000001316,0.0000002232,0.0000002087,-0.0000008259,-0.0000000736
0.0000000211,-0.0000002862,0.0000004721,0.0000001929,0.0000000581,0.0000001977,-0.0000000812,0.0000000231,0.0000001828,-0.0000003002,-0.0000000572,-0.0000003386,0.0000001302,0.0000001566,0.0000003849,-0.0000000902,-0.0000001960,-0.0000003346,0.0000000439,-0.0000000795,0.0000000018,0.0000000459,-0.0000002280,0.0000002767,-0.0000005236,-0.0000003965,-0.0000003430,0.0000002863,-0.0000001572,0.0000003585,0.0000003050,-0.0000000209,-0.0000003721,-0.0000003394,-0.0000000819,-0.0000002984,-0.0000005273,-0.0000002070,-0.0000001343,-0.0000000259,0.0000000566,0.0000001741,0.0000003889,-0.0000000477,0.0000000046,0.0000000882,-0.0000004175,0.0000003788,-0.0000001957,-0.0000001107,0.0000000279,0.0000002437,-0.0000006695,-0.0000001187,0.0000000966,0.0000001016,-0.0000001121,0.0000004883,0.0000001473,-0.0000001142,0.0000002107,0.0000003225,-0.0000000522,-0.0000003057,-0.0000000300,-0.0000001913,0.0000003930,-0.0000001761,-0.0000001280,-0.0000006765,0.0000004344,-0.0000002257,-0.0000000429,0.0000003201,-0.0000002243,0.0000003446,0.0000001741,0.0000001831,-0.0000000720,-0.0000001274,-0.0000005317,0.0000001161,-0.0000003052,-0.0000004336,0.0000002508,0.0000001119,0.0000002465,0.0000001463,0.0000006612,-0.0000001311,-0.0000000602,0.0000005202,-0.0000000655,-0.0000002962,-0.0000001635,-0.0000002076,0.0000000183,-0.0000000746,-0.0000000333,0.0000005067,-0.0000001103,-0.0000000942,-0.0000003780,-0.0000000434,0.0000001981,-0.0000004255,-0.0000003305,-0.0000000471,0.0000005367,-0.0000001609,-0.0000002380,-0.0000002482,0.0000000339,0.0000000296,-0.0000002592,0.0000000870,0.0000001905,-0.0000000603,0.0000002583,-0.0000003127,0.0000000156,0.0000001992,0.0000001859,0.0000000961,0.0000001630,0.0000001524,-0.0000006030,-0.0000000537
-0.0000000102,0.0000001374,-0.0000002266,-0.0000000926,-0.0000000279,-0.0000000949,0.0000000390,-0.0000000111,-0.0000000877,0.0000001441,0.0000000275,0.0000001626,-0.0000000625,-0.0000000752,-0.0000001848,0.0000000433,0.0000000941,0.0000001607,-0.0000000211,0.0000000382,-0.0000000009,-0.0000000221,0.0000001095,-0.0000001328,0.0000002514,0.0000001903,0.0000001647,-0.0000001375,0.0000000755,-0.0000001721,-0.0000001464,0.0000000101,0.0000001786,0.0000001629,0.0000000393,0.0000001433,0.0000002531,0.0000000994,0.0000000645,0.0000000125,-0.0000000272,-0.0000000836,-0.0000001867,0.0000000229,-0.0000000022,-0.0000000423,0.0000002004,-0.0000001818,0.0000000939,0.0000000531,-0.0000000134,-0.0000001170,0.0000003214,0.0000000570,-0.0000000464,-0.0000000488,0.0000000538,-0.0000002344,-0.0000000707,0.0000000548,-0.0000001011,-0.0000001548,0.0000000250,0.0000001468,0.0000000144,0.0000000918,-0.0000001887,0.0000000846,0.0000000614,0.0000003248,-0.0000002086,0.0000001083,0.0000000206,-0.0000001537,0.0000001077,-0.0000001654,-0.0000000836,-0.0000000879,0.0000000346,0.0000000612,0.0000002553,-0.0000000557,0.0000001465,0.0000002082,-0.0000001204,-0.0000000537,-0.0000001183,-0.0000000702,-0.0000003174,0.0000000629,0.0000000289,-0.0000002497,0.0000000314,0.0000001422,0.0000000785,0.0000000996,-0.0000000088,0.0000000358,0.0000000160,-0.0000002433,0.0000000529,0.0000000452,0.0000001815,0.0000000208,-0.0000000951,0.0000002043,0.0000001586,0.0000000226,-0.0000002577,0.0000000773,0.0000001143,0.0000001192,-0.0000000163,-0.0000000142,0.0000001244,-0.0000000418,-0.0000000915,0.0000000290,-0.0000001240,0.0000001501,-0.0000000075,-0.0000000956,-0.0000000893,-0.0000000461,-0.0000000783,-0.0000000732,0.0000002895,0.0000000258
0.0000000117,-0.0000001587,0.0000002618,0.0000001070,0.0000000323,0.0000001096,-0.0000000450,0.0000000128,0.0000001014,-0.0000001665,-0.0000000317,-0.0000001878,0.0000000722,0.0000000868,0.0000002135,-0.0000000500,-0.0000001087,-0.0000001856,0.0000000244,-0.0000000441,0.0000000010,0.0000000255,-0.0000001265,0.0000001535,-0.0000002904,-0.0000002199,-0.0000001902,0.0000001588,-0.0000000872,0.0000001988,0.0000001692,-0.0000000116,-0.0000002064,-0.0000001882,-0.0000000454,-0.0000001655,-0.0000002925,-0.0000001148,-0.0000000745,-0.0000000144,0.0000000314,0.0000000966,0.0000002157,-0.0000000265,0.0000000025,0.0000000489,-0.0000002316,0.0000002101,-0.0000001085,-0.0000000614,0.0000000155,0.0000001352,-0.0000003713,-0.0000000658,0.0000000536,0.0000000563,-0.0000000622,0.0000002708,0.0000000817,-0.0000000633,0.0000001168,0.0000001789,-0.0000000289,-0.0000001695,-0.0000000166,-0.0000001061,0.0000002180,-0.0000000977,-0.0000000710,-0.0000003752,0.0000002409,-0.0000001252,-0.0000000238,0.0000001775,-0.0000001244,0.0000001911,0.0000000965,0.0000001016,-0.0000000399,-0.0000000707,-0.0000002949,0.0000000644,-0.0000001693,-0.0000002405,0.0000001391,0.0000000621,0.0000001367,0.0000000811,0.0000003667,-0.0000000727,-0.0000000334,0.0000002885,-0.0000000363,-0.0000001643,-0.0000000907,-0.0000001151,0.0000000102,-0.0000000414,-0.0000000184,0.0000002811,-0.0000000612,-0.0000000523,-0.0000002096,-0.0000000240,0.0000001099,-0.0000002360,-0.0000001833,-0.0000000261,0.0000002977,-0.0000000893,-0.0000001320,-0.0000001377,0.0000000188,0.0000000164,-0.0000001438,0.0000000483,0.0000001057,-0.0000000335,0.0000001432,-0.0000001734,0.0000000087,0.0000001105,0.0000001031,0.0000000533,0.0000000904,0.0000000845,-0.0000003345,-0.0000000298
-0.0000000042,0.0000000566,-0.0000000934,-0.0000000382,-0.0000000115,-0.0000000391,0.0000000161,-0.0000000046,-0.0000000361,0.0000000594,0.0000000113,0.0000000670,-0.0000000258,-0.0000000310,-0.0000000761,0.0000000178,0.0000000388,0.0000000662,-0.0000000087,0.0000000157,-0.0000000004,-0.0000000091,0.0000000451,-0.0000000547,0.0000001036,0.0000000784,0.0000000678,-0.0000000566,0.0000000311,-0.0000000709,-0.0000000603,0.0000000041,0.0000000736,0.0000000671,0.0000000162,0.0000000590,0.0000001043,0.0000000409,0.0000000266,0.0000000051,-0.0000000112,-0.0000000344,-0.0000000769,0.0000000094,-0.0000000009,-0.0000000174,0.0000000826,-0.0000000749,0.0000000387,0.0000000219,-0.0000000055,-0.0000000482,0.0000001324,0.0000000235,-0.0000000191,-0.0000000201,0.0000000222,-0.0000000966,-0.0000000291,0.0000000226,-0.0000000417,-0.0000000638,0.0000000103,0.0000000605,0.0000000059,0.0000000378,-0.0000000777,0.0000000348,0.0000000253,0.0000001338,-0.0000000859,0.0000000446,0.0000000085,-0.0000000633,0.0000000444,-0.0000000682,-0.0000000344,-0.0000000362,0.0000000142,0.0000000252,0.0000001052,-0.0000000230,0.0000000604,0.0000000858,-0.0000000496,-0.0000000221,-0.0000000487,-0.0000000289,-0.0000001308,0.0000000259,0.0000000119,-0.0000001029,0.0000000129,0.0000000586,0.0000000323,0.0000000411,-0.0000000036,0.0000000148,0.0000000066,-0.0000001002,0.0000000218,0.0000000186,0.0000000748,0.0000000086,-0.0000000392,0.0000000842,0.0000000654,0.0000000093,-0.0000001062,0.0000000318,0.0000000471,0.0000000491,-0.0000000067,-0.0000000059,0.0000000513,-0.0000000172,-0.0000000377,0.0000000119,-0.0000000511,0.0000000619,-0.0000000031,-0.0000000394,-0.0000000368,-0.0000000190,-0.0000000322,-0.0000000301,0.0000001193,0.0000000106
0.0000000357,-0.0000004837,0.0000007979,0.0000003260,0.0000000983,0.0000003341,-0.0000001372,0.0000000390,0.0000003089,-0.0000005074,-0.0000000967,-0.0000005723,0.0000002200,0.0000002646,0.0000006506,-0.0000001525,-0.0000003314,-0.0000005656,0.0000000742,-0.0000001344,0.0000000030,0.0000000777,-0.0000003854,0.0000004677,-0.0000008851,-0.0000006701,-0.0000005798,0.0000004840,-0.0000002658,0.0000006060,0.0000005156,-0.0000000354,-0.0000006290,-0.0000005736,-0.0000001384,-0.0000005044,-0.0000008913,-0.0000003498,-0.0000002270,-0.0000000438,0.0000000957,0.0000002943,0.0000006573,-0.0000000806,0.0000000078,0.0000001490,-0.0000007057,0.0000006402,-0.0000003308,-0.0000001871,0.0000000471,0.0000004120,-0.0000011317,-0.0000002007,0.0000001632,0.0000001717,-0.0000001896,0.0000008254,0.0000002490,-0.0000001930,0.0000003561,0.0000005451,-0.0000000882,-0.0000005167,-0.0000000507,-0.0000003233,0.0000006643,-0.0000002977,-0.0000002163,-0.0000011434,0.0000007343,-0.0000003815,-0.0000000726,0.0000005410,-0.0000003792,0.0000005824,0.0000002942,0.0000003096,-0.0000001216,-0.0000002154,-0.0000008988,0.0000001962,-0.0000005159,-0.0000007329,0.0000004239,0.0000001891,0.0000004166,0.0000002473,0.0000011176,-0.0000002215,-0.0000001017,0.0000008793,-0.0000001107,-0.0000005006,-0.0000002764,-0.0000003509,0.0000000310,-0.0000001262,-0.0000000562,0.0000008565,-0.0000001864,-0.0000001593,-0.0000006389,-0.0000000733,0.0000003349,-0.0000007192,-0.0000005586,-0.0000000796,0.0000009072,-0.0000002720,-0.0000004024,-0.0000004195,0.0000000573,0.0000000500,-0.0000004381,0.0000001471,0.0000003220,-0.0000001019,0.0000004365,-0.0000005285,0.0000000264,0.0000003367,0.0000003142,0.0000001624,0.0000002755,0.0000002576,-0.0000010193,-0.0000000908
-0.0000000027,0.0000000363,-0.0000000598,-0.0000000244,-0.0000000074,-0.0000000250,0.0000000103,-0.0000000029,-0.0000000232,0.0000000380,0.0000000072,0.0000000429,-0.0000000165,-0.0000000198,-0.0000000488,0.0000000114,0.0000000248,0.0000000424,-0.0000000056,0.0000000101,-0.0000000002,-0.0000000058,0.0000000289,-0.0000000350,0.0000000663,0.0000000502,0.0000000435,-0.0000000363,0.0000000199,-0.0000000454,-0.0000000386,0.0000000027,0.0000000471,0.0000000430,0.0000000104,0.0000000378,0.0000000668,0.0000000262,0.0000000170,0.0000000033,-0.0000000072,-0.0000000221,-0.0000000493,0.0000000060,-0.0000000006,-0.0000000112,0.0000000529,-0.0000000480,0.0000000248,0.0000000140,-0.0000000035,-0.0000000309,0.0000000848,0.0000000150,-0.0000000122,-0.0000000129,0.0000000142,-0.0000000619,-0.0000000187,0.0000000145,-0.0000000267,-0.0000000408,0.0000000066,0.0000000387,0.0000000038,0.0000000242,-0.0000000498,0.0000000223,0.0000000162,0.0000000857,-0.0000000550,0.0000000286,0.0000000054,-0.0000000405,0.0000000284,-0.0000000436,-0.0000000220,-0.0000000232,0.0000000091,0.0000000161,0.0000000674,-0.0000000147,0.0000000387,0.0000000549,-0.0000000318,-0.0000000142,-0.0000000312,-0.0000000185,-0.0000000838,0.0000000166,0.0000000076,-0.0000000659,0.0000000083,0.0000000375,0.0000000207,0.0000000263,-0.0000000023,0.0000000095,0.0000000042,-0.0000000642,0.0000000140,0.0000000119,0.0000000479,0.0000000055,-0.0000000251,0.0000000539,0.0000000419,0.0000000060,-0.0000000680,0.0000000204,0.0000000302,0.0000000314,-0.0000000043,-0.0000000037,0.0000000328,-0.0000000110,-0.0000000241,0.0000000076,-0.0000000327,0.0000000396,-0.0000000020,-0.0000000252,-0.0000000235,-0.0000000122,-0.0000000206,-0.0000000193,0.0000000764,0.0000000068
0.0000000079,-0.0000001067,0.0000001760,0.0000000719,0.0000000217,0.0000000737,-0.0000000303,0.0000000086,0.0000000681,-0.0000001119,-0.0000000213,-0.0000001262,0.0000000485,0.0000000584,0.0000001435,-0.0000000336,-0.0000000731,-0.0000001248,0.0000000164,-0.0000000297,0.0000000007,0.0000000171,-0.0000000850,0.0000001032,-0.0000001952,-0.0000001478,-0.0000001279,0.0000001068,-0.0000000586,0.0000001337,0.0000001137,-0.0000000078,-0.0000001387,-0.0000001265,-0.0000000305,-0.0000001113,-0.0000001966,-0.0000000772,-0.0000000501,-0.0000000097,0.0000000211,0.0000000649,0.0000001450,-0.0000000178,0.0000000017,0.0000000329,-0.0000001557,0.0000001412,-0.0000000730,-0.0000000413,0.0000000104,0.0000000909,-0.0000002496,-0.0000000443,0.0000000360,0.0000000379,-0.0000000418,0.0000001821,0.0000000549,-0.0000000426,0.0000000785,0.0000001202,-0.0000000194,-0.0000001140,-0.0000000112,-0.0000000713,0.0000001465,-0.0000000657,-0.0000000477,-0.0000002522,0.0000001620,-0.0000000841,-0.0000000160,0.0000001193,-0.0000000836,0.0000001285,0.0000000649,0.0000000683,-0.0000000268,-0.0000000475,-0.0000001982,0.0000000433,-0.0000001138,-0.0000001617,0.0000000935,0.0000000417,0.0000000919,0.0000000545,0.0000002465,-0.0000000489,-0.0000000224,0.0000001939,-0.0000000244,-0.0000001104,-0.0000000610,-0.0000000774,0.0000000068,-0.0000000278,-0.0000000124,0.0000001889,-0.0000000411,-0.0000000351,-0.0000001409,-0.0000000162,0.0000000739,-0.0000001586,-0.0000001232,-0.0000000176,0.0000002001,-0.0000000600,-0.0000000887,-0.0000000925,0.0000000126,0.0000000110,-0.0000000966,0.0000000324,0.0000000710,-0.0000000225,0.0000000963,-0.0000001166,0.0000000058,0.0000000743,0.0000000693,0.0000000358,0.0000000608,0.0000000568,-0.0000002248,-0.0000000200
0.0000000246,-0.0000003326,0.0000005486,0.0000002242,0.0000000676,0.0000002297,-0.0000000943,0.0000000268,0.0000002124,-0.0000003489,-0.0000000665,-0.0000003935,0.0000001513,0.0000001820,0.0000004473,-0.0000001048,-0.0000002278,-0.0000003889,0.0000000510,-0.0000000924,0.0000000021,0.0000000534,-0.0000002650,0.0000003216,-0.0000006085,-0.0000004608,-0.0000003986,0.0000003328,-0.0000001827,0.0000004166,0.0000003545,-0.0000000243,-0.0000004324,-0.0000003944,-0.0000000952,-0.0000003468,-0.0000006128,-0.0000002405,-0.0000001561,-0.0000000301,0.0000000658,0.0000002024,0.0000004519,-0.0000000554,0.0000000053,0.0000001025,-0.0000004852,0.0000004402,-0.0000002274,-0.0000001287,0.0000000324,0.0000002833,-0.0000007781,-0.0000001380,0.0000001122,0.0000001180,-0.0000001303,0.0000005675,0.0000001712,-0.0000001327,0.0000002448,0.0000003748,-0.0000000606,-0.0000003553,-0.0000000349,-0.0000002223,0.0000004567,-0.0000002047,-0.0000001487,-0.0000007862,0.0000005049,-0.0000002623,-0.0000000499,0.0000003720,-0.0000002607,0.0000004005,0.0000002023,0.0000002128,-0.0000000836,-0.0000001481,-0.0000006180,0.0000001349,-0.0000003547,-0.0000005039,0.0000002915,0.0000001300,0.0000002864,0.0000001700,0.0000007684,-0.0000001523,-0.0000000700,0.0000006045,-0.0000000761,-0.0000003442,-0.0000001900,-0.0000002412,0.0000000213,-0.0000000867,-0.0000000386,0.0000005889,-0.0000001282,-0.0000001095,-0.0000004393,-0.0000000504,0.0000002303,-0.0000004945,-0.0000003841,-0.0000000548,0.0000006238,-0.0000001870,-0.0000002766,-0.0000002884,0.0000000394,0.0000000344,-0.0000003012,0.0000001011,0.0000002214,-0.0000000701,0.0000003001,-0.0000003634,0.0000000181,0.0000002315,0.0000002161,0.0000001117,0.0000001894,0.0000001771,-0.0000007008,-0.0000000624
0.0000000057,-0.0000000765,0.0000001262,0.0000000516,0.0000000156,0.0000000529,-0.0000000217,0.0000000062,0.0000000489,-0.0000000803,-0.0000000153,-0.0000000906,0.0000000348,0.0000000419,0.0000001029,-0.0000000241,-0.0000000524,-0.0000000895,0.0000000117,-0.0000000213,0.0000000005,0.0000000123,-0.0000000610,0.0000000740,-0.0000001400,-0.0000001060,-0.0000000917,0.0000000766,-0.0000000421,0.0000000959,0.0000000816,-0.0000000056,-0.0000000995,-0.0000000908,-0.0000000219,-0.0000000798,-0.0000001410,-0.0000000553,-0.0000000359,-0.0000000069,0.0000000151,0.0000000466,0.0000001040,-0.0000000128,0.0000000012,0.0000000236,-0.0000001117,0.0000001013,-0.0000000523,-0.0000000296,0.0000000075,0.0000000652,-0.0000001791,-0.0000000318,0.0000000258,0.0000000272,-0.0000000300,0.0000001306,0.0000000394,-0.0000000305,0.0000000563,0.0000000862,-0.0000000139,-0.0000000818,-0.0000000080,-0.0000000512,0.0000001051,-0.0000000471,-0.0000000342,-0.0000001809,0.0000001162,-0.0000000604,-0.0000000115,0.0000000856,-0.0000000600,0.0000000922,0.0000000465,0.0000000490,-0.0000000192,-0.0000000341,-0.0000001422,0.0000000310,-0.0000000816,-0.0000001160,0.0000000671,0.0000000299,0.0000000659,0.0000000391,0.0000001768,-0.0000000351,-0.0000000161,0.0000001391,-0.0000000175,-0.0000000792,-0.0000000437,-0.0000000555,0.0000000049,-0.0000000200,-0.0000000089,0.0000001355,-0.0000000295,-0.0000000252,-0.0000001011,-0.0000000116,0.0000000530,-0.0000001138,-0.0000000884,-0.0000000126,0.0000001435,-0.0000000430,-0.0000000637,-0.0000000664,0.0000000091,0.0000000079,-0.0000000693,0.0000000233,0.0000000510,-0.0000000161,0.0000000691,-0.0000000836,0.0000000042,0.0000000533,0.0000000497,0.0000000257,0.0000000436,0.0000000408,-0.0000001613,-0.0000000144
0.0000000271,-0.0000003665,0.0000006045,0.0000002470,0.0000000745,0.0000002531,-0.0000001039,0.0000000295,0.0000002340,-0.0000003844,-0.0000000732,-0.0000004336,0.0000001667,0.0000002005,0.0000004929,-0.0000001155,-0.0000002510,-0.0000004285,0.0000000562,-0.0000001019,0.0000000023,0.0000000588,-0.0000002920,0.0000003543,-0.0000006705,-0.0000005077,-0.0000004393,0.0000003667,-0.0000002014,0.0000004591,0.0000003906,-0.0000000268,-0.0000004765,-0.0000004346,-0.0000001049,-0.0000003822,-0.0000006752,-0.0000002650,-0.0000001720,-0.0000000332,0.0000000725,0.0000002230,0.0000004980,-0.0000000611,0.0000000059,0.0000001129,-0.0000005347,0.0000004850,-0.0000002506,-0.0000001418,0.0000000357,0.0000003121,-0.0000008574,-0.0000001520,0.0000001237,0.0000001301,-0.0000001436,0.0000006253,0.0000001886,-0.0000001462,0.0000002698,0.0000004130,-0.0000000668,-0.0000003915,-0.0000000384,-0.0000002449,0.0000005033,-0.0000002256,-0.0000001639,-0.0000008663,0.0000005563,-0.0000002890,-0.0000000550,0.0000004099,-0.0000002873,0.0000004413,0.0000002229,0.0000002345,-0.0000000922,-0.0000001632,-0.0000006809,0.0000001486,-0.0000003908,-0.0000005553,0.0000003212,0.0000001433,0.0000003156,0.0000001873,0.0000008467,-0.0000001678,-0.0000000771,0.0000006661,-0.0000000838,-0.0000003793,-0.0000002094,-0.0000002658,0.0000000235,-0.0000000956,-0.0000000426,0.0000006489,-0.0000001412,-0.0000001207,-0.0000004840,-0.0000000555,0.0000002537,-0.0000005449,-0.0000004232,-0.0000000603,0.0000006873,-0.0000002061,-0.0000003048,-0.0000003178,0.0000000434,0.0000000379,-0.0000003319,0.0000001114,0.0000002440,-0.0000000772,0.0000003307,-0.0000004004,0.0000000200,0.0000002551,0.0000002381,0.0000001230,0.0000002087,0.0000001952,-0.0000007722,-0.0000000688
0.0000000384,-0.0000005199,0.0000008576,0.0000003504,0.0000001056,0.0000003591,-0.0000001475,0.0000000419,0.0000003320,-0.0000005454,-0.0000001039,-0.0000006152,0.0000002365,0.0000002845,0.0000006993,-0.0000001639,-0.0000003562,-0.0000006080,0.0000000798,-0.0000001445,0.0000000033,0.0000000835,-0.0000004143,0.0000005027,-0.0000009513,-0.0000007203,-0.0000006232,0.0000005202,-0.0000002857,0.0000006513,0.0000005541,-0.0000000380,-0.0000006760,-0.0000006165,-0.0000001488,-0.0000005422,-0.0000009580,-0.0000003760,-0.0000002440,-0.0000000471,0.0000001028,0.0000003164,0.0000007065,-0.0000000867,0.0000000083,0.0000001602,-0.0000007585,0.0000006881,-0.0000003555,-0.0000002011,0.0000000506,0.0000004428,-0.0000012164,-0.0000002157,0.0000001754,0.0000001845,-0.0000002037,0.0000008872,0.0000002676,-0.0000002075,0.0000003827,0.0000005859,-0.0000000948,-0.0000005554,-0.0000000545,-0.0000003475,0.0000007140,-0.0000003200,-0.0000002325,-0.0000012290,0.0000007893,-0.0000004100,-0.0000000780,0.0000005815,-0.0000004076,0.0000006260,0.0000003162,0.0000003327,-0.0000001308,-0.0000002315,-0.0000009661,0.0000002108,-0.0000005545,-0.0000007878,0.0000004557,0.0000002033,0.0000004478,0.0000002658,0.0000012013,-0.0000002381,-0.0000001094,0.0000009451,-0.0000001189,-0.0000005381,-0.0000002971,-0.0000003771,0.0000000333,-0.0000001356,-0.0000000604,0.0000009207,-0.0000002004,-0.0000001712,-0.0000006867,-0.0000000788,0.0000003600,-0.0000007730,-0.0000006004,-0.0000000856,0.0000009751,-0.0000002924,-0.0000004325,-0.0000004509,0.0000000616,0.0000000537,-0.0000004709,0.0000001581,0.0000003461,-0.0000001096,0.0000004692,-0.0000005681,0.0000000284,0.0000003620,0.0000003378,0.0000001745,0.0000002961,0.0000002769,-0.0000010956,-0.0000000976
-0.0000000143,0.0000001932,-0.0000003187,-0.0000001302,-0.0000000393,-0.0000001334,0.0000000548,-0.0000000156,-0.0000001234,0.0000002027,0.0000000386,0.0000002286,-0.0000000879,-0.0000001057,-0.0000002598,0.0000000609,0.0000001323,0.0000002259,-0.0000000296,0.0000000537,-0.0000000012,-0.0000000310,0.0000001539,-0.0000001868,0.0000003535,0.0000002676,0.0000002316,-0.0000001933,0.0000001062,-0.0000002420,-0.0000002059,0.0000000141,0.0000002512,0.0000002291,0.0000000553,0.0000002015,0.0000003560,0.0000001397,0.0000000907,0.0000000175,-0.0000000382,-0.0000001176,-0.0000002625,0.0000000322,-0.0000000031,-0.0000000595,0.0000002819,-0.0000002557,0.0000001321,0.0000000747,-0.0000000188,-0.0000001645,0.0000004520,0.0000000801,-0.0000000652,-0.0000000686,0.0000000757,-0.0000003297,-0.0000000995,0.0000000771,-0.0000001422,-0.0000002177,0.0000000352,0.0000002064,0.0000000202,0.0000001291,-0.0000002653,0.0000001189,0.0000000864,0.0000004567,-0.0000002933,0.0000001524,0.0000000290,-0.0000002161,0.0000001514,-0.0000002326,-0.0000001175,-0.0000001236,0.0000000486,0.0000000860,0.0000003590,-0.0000000783,0.0000002060,0.0000002927,-0.0000001693,-0.0000000755,-0.0000001664,-0.0000000988,-0.0000004464,0.0000000885,0.0000000406,-0.0000003512,0.0000000442,0.0000001999,0.0000001104,0.0000001401,-0.0000000124,0.0000000504,0.0000000224,-0.0000003421,0.0000000745,0.0000000636,0.0000002552,0.0000000293,-0.0000001338,0.0000002872,0.0000002231,0.0000000318,-0.0000003623,0.0000001086,0.0000001607,0.0000001676,-0.0000000229,-0.0000000200,0.0000001750,-0.0000000587,-0.0000001286,0.0000000407,-0.0000001744,0.0000002111,-0.0000000105,-0.0000001345,-0.0000001255,-0.0000000649,-0.0000001100,-0.0000001029,0.0000004071,0.0000000363
-0.0000000339,0.0000004591,-0.0000007573,-0.0000003095,-0.0000000933,-0.0000003171,0.0000001302,-0.0000000370,-0.0000002932,0.0000004816,0.0000000918,0.0000005432,-0.0000002088,-0.0000002512,-0.0000006175,0.0000001447,0.0000003145,0.0000005369,-0.0000000704,0.0000001276,-0.0000000029,-0.0000000737,0.0000003658,-0.0000004439,0.0000008400,0.0000006360,0.0000005503,-0.0000004594,0.0000002523,-0.0000005751,-0.0000004893,0.0000000336,0.0000005970,0.0000005444,0.0000001314,0.0000004788,0.0000008460,0.0000003320,0.0000002154,0.0000000416,-0.0000000908,-0.0000002794,-0.0000006239,0.0000000765,-0.0000000074,-0.0000001415,0.0000006698,-0.0000006076,0.0000003139,0.0000001776,-0.0000000447,-0.0000003910,0.0000010741,0.0000001905,-0.0000001549,-0.0000001629,0.0000001799,-0.0000007834,-0.0000002363,0.0000001832,-0.0000003380,-0.0000005174,0.0000000837,0.0000004904,0.0000000481,0.0000003068,-0.0000006305,0.0000002826,0.0000002053,0.0000010853,-0.0000006970,0.0000003621,0.0000000689,-0.0000005135,0.0000003599,-0.0000005528,-0.0000002792,-0.0000002938,0.0000001155,0.0000002044,0.0000008531,-0.0000001862,0.0000004896,0.0000006956,-0.0000004024,-0.0000001795,-0.0000003954,-0.0000002347,-0.0000010608,0.0000002103,0.0000000966,-0.0000008345,0.0000001050,0.0000004751,0.0000002623,0.0000003330,-0.0000000294,0.0000001197,0.0000000533,-0.0000008130,0.0000001769,0.0000001512,0.0000006064,0.0000000696,-0.0000003178,0.0000006826,0.0000005302,0.0000000756,-0.0000008611,0.0000002582,0.0000003819,0.0000003982,-0.0000000544,-0.0000000475,0.0000004158,-0.0000001396,-0.0000003057,0.0000000968,-0.0000004143,0.0000005016,-0.0000000250,-0.0000003196,-0.0000002983,-0.0000001541,-0.0000002615,-0.0000002445,0.0000009675,0.0000000862
-0.0000000030,0.0000000405,-0.0000000668,-0.0000000273,-0.0000000082,-0.0000000280,0.0000000115,-0.0000000033,-0.0000000259,0.0000000425,0.0000000081,0.0000000479,-0.0000000184,-0.0000000222,-0.0000000545,0.0000000128,0.0000000278,0.0000000474,-0.0000000062,0.0000000113,-0.0000000003,-0.0000000065,0.0000000323,-0.0000000392,0.0000000741,0.0000000561,0.0000000486,-0.0000000405,0.0000000223,-0.0000000508,-0.0000000432,0.0000000030,0.0000000527,0.0000000480,0.0000000116,0.0000000423,0.0000000747,0.0000000293,0.0000000190,0.0000000037,-0.0000000080,-0.0000000247,-0.0000000551,0.0000000068,-0.0000000006,-0.0000000125,0.0000000591,-0.0000000536,0.0000000277,0.0000000157,-0.0000000039,-0.0000000345,0.0000000948,0.0000000168,-0.0000000137,-0.0000000144,0.0000000159,-0.0000000691,-0.0000000209,0.0000000162,-0.0000000298,-0.0000000457,0.0000000074,0.0000000433,0.0000000042,0.0000000271,-0.0000000556,0.0000000249,0.0000000181,0.0000000958,-0.0000000615,0.0000000320,0.0000000061,-0.0000000453,0.0000000318,-0.0000000488,-0.0000000246,-0.0000000259,0.0000000102,0.0000000180,0.0000000753,-0.0000000164,0.0000000432,0.0000000614,-0.0000000355,-0.0000000158,-0.0000000349,-0.0000000207,-0.0000000936,0.0000000186,0.0000000085,-0.0000000737,0.0000000093,0.0000000419,0.0000000232,0.0000000294,-0.0000000026,0.0000000106,0.0000000047,-0.0000000717,0.0000000156,0.0000000133,0.0000000535,0.0000000061,-0.0000000281,0.0000000602,0.0000000468,0.0000000067,-0.0000000760,0.0000000228,0.0000000337,0.0000000351,-0.0000000048,-0.0000000042,0.0000000367,-0.0000000123,-0.0000000270,0.0000000085,-0.0000000366,0.0000000443,-0.0000000022,-0.0000000282,-0.0000000263,-0.0000000136,-0.0000000231,-0.0000000216,0.0000000854,0.0000000076
-0.0000000002,0.0000000031,-0.0000000052,-0.0000000021,-0.0000000006,-0.0000000022,0.0000000009,-0.0000000003,-0.0000000020,0.0000000033,0.0000000006,0.0000000037,-0.0000000014,-0.0000000017,-0.0000000042,0.0000000010,0.0000000022,0.0000000037,-0.0000000005,0.0000000009,-0.0000000000,-0.0000000005,0.0000000025,-0.0000000030,0.0000000057,0.0000000044,0.0000000038,-0.0000000031,0.0000000017,-0.0000000039,-0.0000000033,0.0000000002,0.0000000041,0.0000000037,0.0000000009,0.0000000033,0.0000000058,0.0000000023,0.0000000015,0.0000000003,-0.0000000006,-0.0000000019,-0.0000000043,0.0000000005,-0.0000000001,-0.0000000010,0.0000000046,-0.0000000042,0.0000000021,0.0000000012,-0.0000000003,-0.0000000027,0.0000000073,0.0000000013,-0.0000000011,-0.0000000011,0.0000000012,-0.0000000054,-0.0000000016,0.0000000013,-0.0000000023,-0.0000000035,0.0000000006,0.0000000034,0.0000000003,0.0000000021,-0.0000000043,0.0000000019,0.0000000014,0.0000000074,-0.0000000048,0.0000000025,0.0000000005,-0.0000000035,0.0000000025,-0.0000000038,-0.0000000019,-0.0000000020,0.0000000008,0.0000000014,0.0000000058,-0.0000000013,0.0000000033,0.0000000048,-0.0000000028,-0.0000000012,-0.0000000027,-0.0000000016,-0.0000000073,0.0000000014,0.0000000007,-0.0000000057,0.0000000007,0.0000000033,0.0000000018,0.0000000023,-0.0000000002,0.0000000008,0.0000000004,-0.0000000056,0.0000000012,0.0000000010,0.0000000041,0.0000000005,-0.0000000022,0.0000000047,0.0000000036,0.0000000005,-0.0000000059,0.0000000018,0.0000000026,0.0000000027,-0.0000000004,-0.0000000003,0.0000000028,-0.0000000010,-0.0000000021,0.0000000007,-0.0000000028,0.0000000034,-0.0000000002,-0.0000000022,-0.0000000020,-0.0000000011,-0.0000000018,-0.0000000017,0.0000000066,0.0000000006
-0.0000000017,0.0000000230,-0.0000000380,-0.0000000155,-0.0000000047,-0.0000000159,0.0000000065,-0.0000000019,-0.0000000147,0.0000000241,0.0000000046,0.0000000272,-0.0000000105,-0.0000000126,-0.0000000310,0.0000000073,0.0000000158,0.0000000269,-0.0000000035,0.0000000064,-0.0000000001,-0.0000000037,0.0000000183,-0.0000000222,0.0000000421,0.0000000319,0.0000000276,-0.0000000230,0.0000000126,-0.0000000288,-0.0000000245,0.0000000017,0.0000000299,0.0000000273,0.0000000066,0.0000000240,0.0000000424,0.0000000166,0.0000000108,0.0000000021,-0.0000000046,-0.0000000140,-0.0000000313,0.0000000038,-0.0000000004,-0.0000000071,0.0000000336,-0.0000000305,0.0000000157,0.0000000089,-0.0000000022,-0.0000000196,0.0000000538,0.0000000095,-0.0000000078,-0.0000000082,0.0000000090,-0.0000000393,-0.0000000118,0.0000000092,-0.0000000169,-0.0000000259,0.0000000042,0.0000000246,0.0000000024,0.0000000154,-0.0000000316,0.0000000142,0.0000000103,0.0000000544,-0.0000000349,0.0000000181,0.0000000035,-0.0000000257,0.0000000180,-0.0000000277,-0.0000000140,-0.0000000147,0.0000000058,0.0000000102,0.0000000428,-0.0000000093,0.0000000245,0.0000000349,-0.0000000202,-0.0000000090,-0.0000000198,-0.0000000118,-0.0000000532,0.0000000105,0.0000000048,-0.0000000418,0.0000000053,0.0000000238,0.0000000131,0.0000000167,-0.0000000015,0.0000000060,0.0000000027,-0.0000000407,0.0000000089,0.0000000076,0.0000000304,0.0000000035,-0.0000000159,0.0000000342,0.0000000266,0.0000000038,-0.0000000432,0.0000000129,0.0000000191,0.0000000200,-0.0000000027,-0.0000000024,0.0000000208,-0.0000000070,-0.0000000153,0.0000000048,-0.0000000208,0.0000000251,-0.0000000013,-0.0000000160,-0.0000000149,-0.0000000077,-0.0000000131,-0.0000000123,0.0000000485,0.0000000043
