-0.0000003556,0.0000023001,0.0000007914,0.0000017542,-0.0000010753,-0.0000000624,0.0000022825,-0.0000029087,0.0000012104,-0.0000037376,-0.0000020569,-0.0000005745,-0.0000054146,0.0000021173,0.0000007553,0.0000027989,-0.0000012920,0.0000037855,-0.0000004094,-0.0000000580,0.0000021843,0.0000041015,0.0000011522,-0.0000005862,0.0000070097,-0.0000050905,0.0000021046,-0.0000005044,-0.0000030368,0.0000016825,-0.0000067085,0.0000046723,0.0000009030,0.0000023708,-0.0000033492,-0.0000013768,-0.0000034240,-0.0000041530,0.0000012524,0.0000040315,0.0000005245,0.0000043483,0.0000019622,0.0000047265,-0.0000019105,-0.0000005687,-0.0000018394,0.0000113052,-0.0000049064,-0.0000020918,0.0000025704,-0.0000019639,-0.0000023252,-0.0000037394,0.0000036517,-0.0000049381,0.0000025515,-0.0000034551,0.0000009344,0.0000008351,-0.0000050034,-0.0000000420,0.0000003909,-0.0000013406,0.0000027802,-0.0000041171,0.0000006827,-0.0000060499,0.0000002461,-0.0000000527,-0.0000040794,-0.0000011827,0.0000050188,-0.0000005159,0.0000031426,-0.0000073372,0.0000050497,0.0000048007,0.0000006049,0.0000067175,0.0000049127,-0.0000006403,0.0000004822,-0.0000011720,0.0000039248,-0.0000017609,-0.0000009937,-0.0000023039,-0.0000046371,0.0000008727,0.0000005670,-0.0000002887,0.0000073601,-0.0000014875,-0.0000090464,-0.0000003207,0.0000000746,-0.0000008146,0.0000006945,-0.0000005479,-0.0000049527,0.0000008849,0.0000053558,-0.0000001596,0.0000038487,-0.0000006352,0.0000030251,0.0000002334,0.0000012883,-0.0000005296,-0.0000019201,0.0000004008,-0.0000002916,0.0000051903,-0.0000023046,0.0000017541,0.0000007727,-0.0000025957,0.0000038773,-0.0000022585,0.0000050800,0.0000022706,-0.0000039033,-0.0000019569,0.0000062066,0.0000009349,0.0000053465,-0.0000013301
