-0.0000002318,0.0000000511,0.0000001272,-0.0000002468,-0.0000001613,0.0000004906,-0.0000003308,-0.0000000294,-0.0000003899,0.0000001723,0.0000000698,0.0000007314,-0.0000002077,-0.0000001178,0.0000004917,-0.0000000744,0.0000001354,-0.0000001401,0.0000009551,0.0000001990,-0.0000000908,-0.0000002029,0.0000008048,0.0000007699,-0.0000003504,-0.0000000626,0.0000001121,-0.0000000890,0.0000010505,0.0000002165,-0.0000006565,-0.0000006490,-0.0000008391,-0.0000005634,-0.0000001399,0.0000004028,-0.0000000323,-0.0000001363,-0.0000009220,-0.0000000331,0.0000001240,-0.0000000160,0.0000001692,-0.0000000230,0.0000000677,-0.0000005303,0.0000003428,0.0000007872,0.0000001262,0.0000001855,0.0000000521,0.0000009687,0.0000001888,0.0000001534,0.0000004375,0.0000002888,-0.0000008831,0.0000008423,-0.0000001156,-0.0000001308,0.0000000799,0.0000001082,-0.0000003736,-0.0000000468,0.0000008925,-0.0000006759,0.0000000504,-0.0000006234,0.0000000553,0.0000000059,0.0000006265,0.0000005454,-0.0000001422,-0.0000000331,0.0000002560,0.0000000247,0.0000003574,-0.0000008234,-0.0000004751,-0.0000000927,-0.0000000489,0.0000004706,0.0000004468,0.0000005199,0.0000005980,-0.0000003650,0.0000001885,-0.0000001489,0.0000002702,0.0000005923,0.0000001499,0.0000000394,-0.0000000498,0.0000007059,0.0000003562,0.0000004304,-0.0000001377,0.0000001618,0.0000007572,0.0000006227,-0.0000006323,-0.0000003725,-0.0000005572,-0.0000000611,0.0000007873,0.0000004161,0.0000001381,0.0000000349,0.0000002335,0.0000002488,0.0000002338,-0.0000001541,-0.0000004649,-0.0000003859,0.0000003684,-0.0000003379,-0.0000001512,0.0000006187,0.0000003067,0.0000012892,-0.0000004574,-0.0000003903,0.0000003451,0.0000004375,0.0000002619,-0.0000000413,-0.0000006429,-0.0000002790
-0.0000001704,0.0000000376,0.0000000935,-0.0000001814,-0.0000001186,0.0000003606,-0.0000002431,-0.0000000216,-0.0000002866,0.0000001266,0.0000000513,0.0000005375,-0.0000001526,-0.0000000865,0.0000003614,-0.0000000547,0.0000000995,-0.0000001030,0.0000007020,0.0000001463,-0.0000000667,-0.0000001491,0.0000005915,0.0000005659,-0.0000002576,-0.0000000460,0.0000000824,-0.0000000654,0.0000007721,0.0000001591,-0.0000004825,-0.0000004770,-0.0000006168,-0.0000004141,-0.0000001028,0.0000002961,-0.0000000238,-0.0000001002,-0.0000006777,-0.0000000243,0.0000000911,-0.0000000118,0.0000001243,-0.0000000169,0.0000000498,-0.0000003898,0.0000002519,0.0000005786,0.0000000927,0.0000001364,0.0000000383,0.0000007120,0.0000001388,0.0000001127,0.0000003215,0.0000002123,-0.0000006491,0.0000006191,-0.0000000850,-0.0000000961,0.0000000588,0.0000000796,-0.0000002746,-0.0000000344,0.0000006560,-0.0000004968,0.0000000371,-0.0000004582,0.0000000406,0.0000000043,0.0000004605,0.0000004009,-0.0000001045,-0.0000000244,0.0000001881,0.0000000181,0.0000002627,-0.0000006052,-0.0000003492,-0.0000000681,-0.0000000359,0.0000003459,0.0000003284,0.0000003821,0.0000004395,-0.0000002683,0.0000001385,-0.0000001095,0.0000001986,0.0000004354,0.0000001102,0.0000000290,-0.0000000366,0.0000005189,0.0000002618,0.0000003163,-0.0000001012,0.0000001189,0.0000005565,0.0000004577,-0.0000004647,-0.0000002738,-0.0000004096,-0.0000000449,0.0000005787,0.0000003058,0.0000001015,0.0000000257,0.0000001716,0.0000001828,0.0000001719,-0.0000001132,-0.0000003417,-0.0000002837,0.0000002708,-0.0000002484,-0.0000001112,0.0000004547,0.0000002254,0.0000009476,-0.0000003362,-0.0000002868,0.0000002536,0.0000003215,0.0000001925,-0.0000000304,-0.0000004725,-0.0000002050
-0.0000001308,0.0000000289,0.0000000718,-0.0000001393,-0.0000000911,0.0000002769,-0.0000001867,-0.0000000166,-0.0000002201,0.0000000972,0.0000000394,0.0000004128,-0.0000001172,-0.0000000665,0.0000002776,-0.0000000420,0.0000000764,-0.0000000791,0.0000005391,0.0000001123,-0.0000000512,-0.0000001145,0.0000004543,0.0000004346,-0.0000001978,-0.0000000353,0.0000000633,-0.0000000502,0.0000005930,0.0000001222,-0.0000003706,-0.0000003663,-0.0000004737,-0.0000003180,-0.0000000789,0.0000002274,-0.0000000183,-0.0000000769,-0.0000005204,-0.0000000187,0.0000000700,-0.0000000090,0.0000000955,-0.0000000130,0.0000000382,-0.0000002993,0.0000001935,0.0000004444,0.0000000712,0.0000001047,0.0000000294,0.0000005468,0.0000001066,0.0000000866,0.0000002469,0.0000001630,-0.0000004985,0.0000004755,-0.0000000653,-0.0000000738,0.0000000451,0.0000000611,-0.0000002109,-0.0000000264,0.0000005038,-0.0000003815,0.0000000285,-0.0000003519,0.0000000312,0.0000000033,0.0000003537,0.0000003079,-0.0000000803,-0.0000000187,0.0000001445,0.0000000139,0.0000002017,-0.0000004648,-0.0000002682,-0.0000000523,-0.0000000276,0.0000002656,0.0000002522,0.0000002935,0.0000003375,-0.0000002060,0.0000001064,-0.0000000841,0.0000001525,0.0000003344,0.0000000846,0.0000000222,-0.0000000281,0.0000003985,0.0000002010,0.0000002429,-0.0000000777,0.0000000913,0.0000004274,0.0000003515,-0.0000003569,-0.0000002102,-0.0000003145,-0.0000000345,0.0000004444,0.0000002349,0.0000000780,0.0000000197,0.0000001318,0.0000001404,0.0000001320,-0.0000000870,-0.0000002624,-0.0000002178,0.0000002079,-0.0000001907,-0.0000000854,0.0000003492,0.0000001731,0.0000007277,-0.0000002582,-0.0000002203,0.0000001948,0.0000002469,0.0000001478,-0.0000000233,-0.0000003629,-0.0000001575
-0.0000000519,0.0000000115,0.0000000285,-0.0000000553,-0.0000000362,0.0000001099,-0.0000000741,-0.0000000066,-0.0000000874,0.0000000386,0.0000000156,0.0000001639,-0.0000000465,-0.0000000264,0.0000001102,-0.0000000167,0.0000000303,-0.0000000314,0.0000002140,0.0000000446,-0.0000000203,-0.0000000455,0.0000001803,0.0000001725,-0.0000000785,-0.0000000140,0.0000000251,-0.0000000199,0.0000002354,0.0000000485,-0.0000001471,-0.0000001454,-0.0000001880,-0.0000001262,-0.0000000313,0.0000000903,-0.0000000072,-0.0000000305,-0.0000002066,-0.0000000074,0.0000000278,-0.0000000036,0.0000000379,-0.0000000052,0.0000000152,-0.0000001188,0.0000000768,0.0000001764,0.0000000283,0.0000000416,0.0000000117,0.0000002171,0.0000000423,0.0000000344,0.0000000980,0.0000000647,-0.0000001979,0.0000001887,-0.0000000259,-0.0000000293,0.0000000179,0.0000000243,-0.0000000837,-0.0000000105,0.0000002000,-0.0000001515,0.0000000113,-0.0000001397,0.0000000124,0.0000000013,0.0000001404,0.0000001222,-0.0000000319,-0.0000000074,0.0000000574,0.0000000055,0.0000000801,-0.0000001845,-0.0000001065,-0.0000000208,-0.0000000110,0.0000001055,0.0000001001,0.0000001165,0.0000001340,-0.0000000818,0.0000000422,-0.0000000334,0.0000000605,0.0000001327,0.0000000336,0.0000000088,-0.0000000111,0.0000001582,0.0000000798,0.0000000964,-0.0000000309,0.0000000363,0.0000001697,0.0000001395,-0.0000001417,-0.0000000835,-0.0000001249,-0.0000000137,0.0000001764,0.0000000932,0.0000000309,0.0000000078,0.0000000523,0.0000000557,0.0000000524,-0.0000000345,-0.0000001042,-0.0000000865,0.0000000825,-0.0000000757,-0.0000000339,0.0000001386,0.0000000687,0.0000002889,-0.0000001025,-0.0000000874,0.0000000773,0.0000000980,0.0000000587,-0.0000000093,-0.0000001440,-0.0000000625
-0.0000000596,0.0000000131,0.0000000327,-0.0000000634,-0.0000000414,0.0000001260,-0.0000000850,-0.0000000076,-0.0000001002,0.0000000443,0.0000000179,0.0000001879,-0.0000000534,-0.0000000303,0.0000001263,-0.0000000191,0.0000000348,-0.0000000360,0.0000002454,0.0000000511,-0.0000000233,-0.0000000521,0.0000002068,0.0000001978,-0.0000000900,-0.0000000161,0.0000000288,-0.0000000229,0.0000002699,0.0000000556,-0.0000001687,-0.0000001667,-0.0000002156,-0.0000001448,-0.0000000359,0.0000001035,-0.0000000083,-0.0000000350,-0.0000002369,-0.0000000085,0.0000000319,-0.0000000041,0.0000000435,-0.0000000059,0.0000000174,-0.0000001362,0.0000000881,0.0000002022,0.0000000324,0.0000000477,0.0000000134,0.0000002489,0.0000000485,0.0000000394,0.0000001124,0.0000000742,-0.0000002269,0.0000002164,-0.0000000297,-0.0000000336,0.0000000205,0.0000000278,-0.0000000960,-0.0000000120,0.0000002293,-0.0000001737,0.0000000130,-0.0000001601,0.0000000142,0.0000000015,0.0000001610,0.0000001401,-0.0000000365,-0.0000000085,0.0000000658,0.0000000063,0.0000000918,-0.0000002115,-0.0000001221,-0.0000000238,-0.0000000126,0.0000001209,0.0000001148,0.0000001336,0.0000001536,-0.0000000938,0.0000000484,-0.0000000383,0.0000000694,0.0000001522,0.0000000385,0.0000000101,-0.0000000128,0.0000001814,0.0000000915,0.0000001106,-0.0000000354,0.0000000416,0.0000001945,0.0000001600,-0.0000001624,-0.0000000957,-0.0000001432,-0.0000000157,0.0000002023,0.0000001069,0.0000000355,0.0000000090,0.0000000600,0.0000000639,0.0000000601,-0.0000000396,-0.0000001194,-0.0000000991,0.0000000946,-0.0000000868,-0.0000000389,0.0000001589,0.0000000788,0.0000003312,-0.0000001175,-0.0000001003,0.0000000886,0.0000001124,0.0000000673,-0.0000000106,-0.0000001652,-0.0000000717
-0.0000000497,0.0000000110,0.0000000273,-0.0000000530,-0.0000000346,0.0000001053,-0.0000000710,-0.0000000063,-0.0000000837,0.0000000370,0.0000000150,0.0000001570,-0.0000000446,-0.0000000253,0.0000001055,-0.0000000160,0.0000000291,-0.0000000301,0.0000002050,0.0000000427,-0.0000000195,-0.0000000435,0.0000001727,0.0000001652,-0.0000000752,-0.0000000134,0.0000000241,-0.0000000191,0.0000002254,0.0000000465,-0.0000001409,-0.0000001393,-0.0000001801,-0.0000001209,-0.0000000300,0.0000000864,-0.0000000069,-0.0000000293,-0.0000001979,-0.0000000071,0.0000000266,-0.0000000034,0.0000000363,-0.0000000049,0.0000000145,-0.0000001138,0.0000000736,0.0000001689,0.0000000271,0.0000000398,0.0000000112,0.0000002079,0.0000000405,0.0000000329,0.0000000939,0.0000000620,-0.0000001895,0.0000001808,-0.0000000248,-0.0000000281,0.0000000172,0.0000000232,-0.0000000802,-0.0000000100,0.0000001915,-0.0000001451,0.0000000108,-0.0000001338,0.0000000119,0.0000000013,0.0000001345,0.0000001171,-0.0000000305,-0.0000000071,0.0000000549,0.0000000053,0.0000000767,-0.0000001767,-0.0000001020,-0.0000000199,-0.0000000105,0.0000001010,0.0000000959,0.0000001116,0.0000001283,-0.0000000783,0.0000000404,-0.0000000320,0.0000000580,0.0000001271,0.0000000322,0.0000000085,-0.0000000107,0.0000001515,0.0000000764,0.0000000924,-0.0000000296,0.0000000347,0.0000001625,0.0000001336,-0.0000001357,-0.0000000799,-0.0000001196,-0.0000000131,0.0000001690,0.0000000893,0.0000000296,0.0000000075,0.0000000501,0.0000000534,0.0000000502,-0.0000000331,-0.0000000998,-0.0000000828,0.0000000791,-0.0000000725,-0.0000000325,0.0000001328,0.0000000658,0.0000002767,-0.0000000982,-0.0000000838,0.0000000741,0.0000000939,0.0000000562,-0.0000000089,-0.0000001380,-0.0000000599
0.0000002197,-0.0000000485,-0.0000001206,0.0000002339,0.0000001529,-0.0000004649,0.0000003135,0.0000000279,0.0000003695,-0.0000001633,-0.0000000661,-0.0000006931,0.0000001968,0.0000001116,-0.0000004660,0.0000000705,-0.0000001283,0.0000001328,-0.0000009052,-0.0000001886,0.0000000860,0.0000001923,-0.0000007627,-0.0000007296,0.0000003321,0.0000000593,-0.0000001062,0.0000000843,-0.0000009956,-0.0000002051,0.0000006222,0.0000006150,0.0000007952,0.0000005340,0.0000001325,-0.0000003817,0.0000000306,0.0000001292,0.0000008738,0.0000000314,-0.0000001175,0.0000000152,-0.0000001603,0.0000000218,-0.0000000642,0.0000005025,-0.0000003249,-0.0000007460,-0.0000001196,-0.0000001758,-0.0000000493,-0.0000009181,-0.0000001789,-0.0000001453,-0.0000004146,-0.0000002737,0.0000008369,-0.0000007983,0.0000001096,0.0000001240,-0.0000000758,-0.0000001026,0.0000003540,0.0000000443,-0.0000008459,0.0000006406,-0.0000000478,0.0000005908,-0.0000000524,-0.0000000056,-0.0000005938,-0.0000005169,0.0000001348,0.0000000314,-0.0000002426,-0.0000000234,-0.0000003387,0.0000007803,0.0000004502,0.0000000878,0.0000000463,-0.0000004460,-0.0000004235,-0.0000004927,-0.0000005667,0.0000003459,-0.0000001786,0.0000001411,-0.0000002561,-0.0000005614,-0.0000001420,-0.0000000373,0.0000000472,-0.0000006690,-0.0000003375,-0.0000004079,0.0000001305,-0.0000001534,-0.0000007176,-0.0000005902,0.0000005992,0.0000003530,0.0000005281,0.0000000579,-0.0000007461,-0.0000003943,-0.0000001309,-0.0000000331,-0.0000002213,-0.0000002357,-0.0000002216,0.0000001460,0.0000004406,0.0000003657,-0.0000003491,0.0000003202,0.0000001433,-0.0000005863,-0.0000002906,-0.0000012218,0.0000004335,0.0000003699,-0.0000003270,-0.0000004146,-0.0000002482,0.0000000391,0.0000006092,0.0000002644
-0.0000000277,0.0000000061,0.0000000152,-0.0000000294,-0.0000000192,0.0000000585,-0.0000000395,-0.0000000035,-0.0000000465,0.0000000206,0.0000000083,0.0000000873,-0.0000000248,-0.0000000140,0.0000000587,-0.0000000089,0.0000000162,-0.0000000167,0.0000001139,0.0000000237,-0.0000000108,-0.0000000242,0.0000000960,0.0000000918,-0.0000000418,-0.0000000075,0.0000000134,-0.0000000106,0.0000001253,0.0000000258,-0.0000000783,-0.0000000774,-0.0000001001,-0.0000000672,-0.0000000167,0.0000000481,-0.0000000039,-0.0000000163,-0.0000001100,-0.0000000040,0.0000000148,-0.0000000019,0.0000000202,-0.0000000027,0.0000000081,-0.0000000633,0.0000000409,0.0000000939,0.0000000151,0.0000000221,0.0000000062,0.0000001156,0.0000000225,0.0000000183,0.0000000522,0.0000000345,-0.0000001054,0.0000001005,-0.0000000138,-0.0000000156,0.0000000095,0.0000000129,-0.0000000446,-0.0000000056,0.0000001065,-0.0000000806,0.0000000060,-0.0000000744,0.0000000066,0.0000000007,0.0000000747,0.0000000651,-0.0000000170,-0.0000000040,0.0000000305,0.0000000029,0.0000000426,-0.0000000982,-0.0000000567,-0.0000000111,-0.0000000058,0.0000000561,0.0000000533,0.0000000620,0.0000000713,-0.0000000435,0.0000000225,-0.0000000178,0.0000000322,0.0000000707,0.0000000179,0.0000000047,-0.0000000059,0.0000000842,0.0000000425,0.0000000513,-0.0000000164,0.0000000193,0.0000000903,0.0000000743,-0.0000000754,-0.0000000444,-0.0000000665,-0.0000000073,0.0000000939,0.0000000496,0.0000000165,0.0000000042,0.0000000279,0.0000000297,0.0000000279,-0.0000000184,-0.0000000555,-0.0000000460,0.0000000439,-0.0000000403,-0.0000000180,0.0000000738,0.0000000366,0.0000001538,-0.0000000546,-0.0000000466,0.0000000412,0.0000000522,0.0000000312,-0.0000000049,-0.0000000767,-0.0000000333
-0.0000002884,0.0000000636,0.0000001583,-0.0000003070,-0.0000002007,0.0000006103,-0.0000004115,-0.0000000366,-0.0000004851,0.0000002143,0.0000000868,0.0000009098,-0.0000002583,-0.0000001465,0.0000006117,-0.0000000926,0.0000001684,-0.0000001743,0.0000011882,0.0000002476,-0.0000001129,-0.0000002524,0.0000010011,0.0000009577,-0.0000004360,-0.0000000778,0.0000001394,-0.0000001107,0.0000013068,0.0000002693,-0.0000008167,-0.0000008074,-0.0000010439,-0.0000007009,-0.0000001740,0.0000005011,-0.0000000402,-0.0000001696,-0.0000011470,-0.0000000412,0.0000001543,-0.0000000199,0.0000002104,-0.0000000286,0.0000000843,-0.0000006597,0.0000004264,0.0000009793,0.0000001570,0.0000002308,0.0000000648,0.0000012051,0.0000002349,0.0000001908,0.0000005442,0.0000003592,-0.0000010986,0.0000010479,-0.0000001438,-0.0000001627,0.0000000994,0.0000001347,-0.0000004647,-0.0000000582,0.0000011103,-0.0000008408,0.0000000627,-0.0000007755,0.0000000688,0.0000000074,0.0000007794,0.0000006785,-0.0000001769,-0.0000000412,0.0000003184,0.0000000307,0.0000004446,-0.0000010243,-0.0000005910,-0.0000001153,-0.0000000608,0.0000005855,0.0000005559,0.0000006467,0.0000007439,-0.0000004541,0.0000002345,-0.0000001853,0.0000003361,0.0000007369,0.0000001864,0.0000000490,-0.0000000619,0.0000008782,0.0000004431,0.0000005354,-0.0000001713,0.0000002013,0.0000009419,0.0000007747,-0.0000007866,-0.0000004634,-0.0000006932,-0.0000000760,0.0000009794,0.0000005176,0.0000001718,0.0000000434,0.0000002905,0.0000003095,0.0000002909,-0.0000001917,-0.0000005783,-0.0000004801,0.0000004583,-0.0000004204,-0.0000001881,0.0000007696,0.0000003815,0.0000016038,-0.0000005690,-0.0000004855,0.0000004293,0.0000005442,0.0000003258,-0.0000000514,-0.0000007997,-0.0000003470
-0.0000001812,0.0000000400,0.0000000995,-0.0000001930,-0.0000001261,0.0000003836,-0.0000002587,-0.0000000230,-0.0000003049,0.0000001347,0.0000000546,0.0000005719,-0.0000001624,-0.0000000921,0.0000003845,-0.0000000582,0.0000001059,-0.0000001096,0.0000007468,0.0000001556,-0.0000000710,-0.0000001587,0.0000006292,0.0000006020,-0.0000002740,-0.0000000489,0.0000000876,-0.0000000696,0.0000008214,0.0000001693,-0.0000005134,-0.0000005075,-0.0000006561,-0.0000004406,-0.0000001094,0.0000003150,-0.0000000253,-0.0000001066,-0.0000007209,-0.0000000259,0.0000000970,-0.0000000125,0.0000001323,-0.0000000180,0.0000000530,-0.0000004146,0.0000002680,0.0000006155,0.0000000987,0.0000001451,0.0000000407,0.0000007575,0.0000001476,0.0000001199,0.0000003421,0.0000002258,-0.0000006905,0.0000006586,-0.0000000904,-0.0000001023,0.0000000625,0.0000000846,-0.0000002921,-0.0000000366,0.0000006979,-0.0000005285,0.0000000394,-0.0000004874,0.0000000432,0.0000000046,0.0000004899,0.0000004265,-0.0000001112,-0.0000000259,0.0000002001,0.0000000193,0.0000002794,-0.0000006438,-0.0000003715,-0.0000000725,-0.0000000382,0.0000003680,0.0000003494,0.0000004065,0.0000004676,-0.0000002854,0.0000001474,-0.0000001164,0.0000002113,0.0000004632,0.0000001172,0.0000000308,-0.0000000389,0.0000005520,0.0000002785,0.0000003365,-0.0000001077,0.0000001265,0.0000005920,0.0000004869,-0.0000004944,-0.0000002912,-0.0000004357,-0.0000000478,0.0000006156,0.0000003253,0.0000001080,0.0000000273,0.0000001826,0.0000001945,0.0000001828,-0.0000001205,-0.0000003635,-0.0000003018,0.0000002880,-0.0000002642,-0.0000001182,0.0000004837,0.0000002398,0.0000010081,-0.0000003576,-0.0000003052,0.0000002698,0.0000003421,0.0000002048,-0.0000000323,-0.0000005027,-0.0000002181
0.0000000769,-0.0000000170,-0.0000000422,0.0000000818,0.0000000535,-0.0000001627,0.0000001097,0.0000000098,0.0000001293,-0.0000000571,-0.0000000231,-0.0000002425,0.0000000689,0.0000000390,-0.0000001630,0.0000000247,-0.0000000449,0.0000000465,-0.0000003167,-0.0000000660,0.0000000301,0.0000000673,-0.0000002668,-0.0000002553,0.0000001162,0.0000000207,-0.0000000372,0.0000000295,-0.0000003483,-0.0000000718,0.0000002177,0.0000002152,0.0000002782,0.0000001868,0.0000000464,-0.0000001336,0.0000000107,0.0000000452,0.0000003057,0.0000000110,-0.0000000411,0.0000000053,-0.0000000561,0.0000000076,-0.0000000225,0.0000001758,-0.0000001137,-0.0000002610,-0.0000000418,-0.0000000615,-0.0000000173,-0.0000003212,-0.0000000626,-0.0000000508,-0.0000001451,-0.0000000957,0.0000002928,-0.0000002793,0.0000000383,0.0000000434,-0.0000000265,-0.0000000359,0.0000001239,0.0000000155,-0.0000002959,0.0000002241,-0.0000000167,0.0000002067,-0.0000000183,-0.0000000020,-0.0000002077,-0.0000001808,0.0000000472,0.0000000110,-0.0000000849,-0.0000000082,-0.0000001185,0.0000002730,0.0000001575,0.0000000307,0.0000000162,-0.0000001560,-0.0000001482,-0.0000001724,-0.0000001983,0.0000001210,-0.0000000625,0.0000000494,-0.0000000896,-0.0000001964,-0.0000000497,-0.0000000131,0.0000000165,-0.0000002341,-0.0000001181,-0.0000001427,0.0000000457,-0.0000000537,-0.0000002510,-0.0000002065,0.0000002096,0.0000001235,0.0000001848,0.0000000202,-0.0000002610,-0.0000001380,-0.0000000458,-0.0000000116,-0.0000000774,-0.0000000825,-0.0000000775,0.0000000511,0.0000001541,0.0000001280,-0.0000001221,0.0000001120,0.0000000501,-0.0000002051,-0.0000001017,-0.0000004275,0.0000001517,0.0000001294,-0.0000001144,-0.0000001450,-0.0000000868,0.0000000137,0.0000002132,0.0000000925
-0.0000004570,0.0000001008,0.0000002508,-0.0000004866,-0.0000003181,0.0000009672,-0.0000006522,-0.0000000580,-0.0000007688,0.0000003397,0.0000001376,0.0000014420,-0.0000004094,-0.0000002322,0.0000009695,-0.0000001467,0.0000002670,-0.0000002763,0.0000018832,0.0000003924,-0.0000001790,-0.0000004001,0.0000015867,0.0000015179,-0.0000006909,-0.0000001234,0.0000002210,-0.0000001754,0.0000020712,0.0000004268,-0.0000012944,-0.0000012796,-0.0000016544,-0.0000011109,-0.0000002758,0.0000007942,-0.0000000638,-0.0000002688,-0.0000018178,-0.0000000653,0.0000002445,-0.0000000316,0.0000003335,-0.0000000454,0.0000001335,-0.0000010455,0.0000006758,0.0000015521,0.0000002488,0.0000003658,0.0000001026,0.0000019099,0.0000003722,0.0000003024,0.0000008625,0.0000005694,-0.0000017412,0.0000016608,-0.0000002279,-0.0000002579,0.0000001576,0.0000002134,-0.0000007365,-0.0000000922,0.0000017598,-0.0000013326,0.0000000994,-0.0000012290,0.0000001090,0.0000000116,0.0000012353,0.0000010754,-0.0000002804,-0.0000000654,0.0000005047,0.0000000487,0.0000007046,-0.0000016234,-0.0000009367,-0.0000001827,-0.0000000964,0.0000009279,0.0000008810,0.0000010250,0.0000011789,-0.0000007196,0.0000003716,-0.0000002936,0.0000005327,0.0000011679,0.0000002955,0.0000000777,-0.0000000981,0.0000013918,0.0000007022,0.0000008486,-0.0000002715,0.0000003190,0.0000014928,0.0000012278,-0.0000012466,-0.0000007344,-0.0000010986,-0.0000001204,0.0000015523,0.0000008203,0.0000002723,0.0000000688,0.0000004604,0.0000004904,0.0000004610,-0.0000003038,-0.0000009166,-0.0000007609,0.0000007263,-0.0000006662,-0.0000002982,0.0000012198,0.0000006046,0.0000025419,-0.0000009018,-0.0000007695,0.0000006803,0.0000008625,0.0000005163,-0.0000000814,-0.0000012675,-0.0000005500
0.0000001026,-0.0000000226,-0.0000000563,0.0000001092,0.0000000714,-0.0000002171,0.0000001464,0.0000000130,0.0000001725,-0.0000000762,-0.0000000309,-0.0000003236,0.0000000919,0.0000000521,-0.0000002176,0.0000000329,-0.0000000599,0.0000000620,-0.0000004226,-0.0000000881,0.0000000402,0.0000000898,-0.0000003561,-0.0000003406,0.0000001551,0.0000000277,-0.0000000496,0.0000000394,-0.0000004648,-0.0000000958,0.0000002905,0.0000002872,0.0000003713,0.0000002493,0.0000000619,-0.0000001782,0.0000000143,0.0000000603,0.0000004080,0.0000000147,-0.0000000549,0.0000000071,-0.0000000749,0.0000000102,-0.0000000300,0.0000002346,-0.0000001517,-0.0000003483,-0.0000000558,-0.0000000821,-0.0000000230,-0.0000004286,-0.0000000835,-0.0000000679,-0.0000001936,-0.0000001278,0.0000003908,-0.0000003727,0.0000000512,0.0000000579,-0.0000000354,-0.0000000479,0.0000001653,0.0000000207,-0.0000003949,0.0000002991,-0.0000000223,0.0000002758,-0.0000000245,-0.0000000026,-0.0000002772,-0.0000002413,0.0000000629,0.0000000147,-0.0000001133,-0.0000000109,-0.0000001581,0.0000003643,0.0000002102,0.0000000410,0.0000000216,-0.0000002082,-0.0000001977,-0.0000002300,-0.0000002646,0.0000001615,-0.0000000834,0.0000000659,-0.0000001196,-0.0000002621,-0.0000000663,-0.0000000174,0.0000000220,-0.0000003124,-0.0000001576,-0.0000001904,0.0000000609,-0.0000000716,-0.0000003350,-0.0000002756,0.0000002798,0.0000001648,0.0000002466,0.0000000270,-0.0000003484,-0.0000001841,-0.0000000611,-0.0000000154,-0.0000001033,-0.0000001101,-0.0000001035,0.0000000682,0.0000002057,0.0000001708,-0.0000001630,0.0000001495,0.0000000669,-0.0000002737,-0.0000001357,-0.0000005705,0.0000002024,0.0000001727,-0.0000001527,-0.0000001936,-0.0000001159,0.0000000183,0.0000002845,0.0000001234
0.0000000766,-0.0000000169,-0.0000000420,0.0000000816,0.0000000533,-0.0000001621,0.0000001093,0.0000000097,0.0000001289,-0.0000000569,-0.0000000231,-0.0000002417,0.0000000686,0.0000000389,-0.0000001625,0.0000000246,-0.0000000447,0.0000000463,-0.0000003156,-0.0000000658,0.0000000300,0.0000000671,-0.0000002659,-0.0000002544,0.0000001158,0.0000000207,-0.0000000370,0.0000000294,-0.0000003472,-0.0000000715,0.0000002170,0.0000002145,0.0000002773,0.0000001862,0.0000000462,-0.0000001331,0.0000000107,0.0000000450,0.0000003047,0.0000000109,-0.0000000410,0.0000000053,-0.0000000559,0.0000000076,-0.0000000224,0.0000001752,-0.0000001133,-0.0000002601,-0.0000000417,-0.0000000613,-0.0000000172,-0.0000003201,-0.0000000624,-0.0000000507,-0.0000001446,-0.0000000954,0.0000002918,-0.0000002784,0.0000000382,0.0000000432,-0.0000000264,-0.0000000358,0.0000001234,0.0000000155,-0.0000002950,0.0000002234,-0.0000000167,0.0000002060,-0.0000000183,-0.0000000020,-0.0000002071,-0.0000001803,0.0000000470,0.0000000110,-0.0000000846,-0.0000000082,-0.0000001181,0.0000002721,0.0000001570,0.0000000306,0.0000000162,-0.0000001555,-0.0000001477,-0.0000001718,-0.0000001976,0.0000001206,-0.0000000623,0.0000000492,-0.0000000893,-0.0000001957,-0.0000000495,-0.0000000130,0.0000000164,-0.0000002333,-0.0000001177,-0.0000001422,0.0000000455,-0.0000000535,-0.0000002502,-0.0000002058,0.0000002090,0.0000001231,0.0000001841,0.0000000202,-0.0000002602,-0.0000001375,-0.0000000456,-0.0000000115,-0.0000000772,-0.0000000822,-0.0000000773,0.0000000509,0.0000001536,0.0000001275,-0.0000001217,0.0000001117,0.0000000500,-0.0000002045,-0.0000001013,-0.0000004261,0.0000001512,0.0000001290,-0.0000001140,-0.0000001446,-0.0000000865,0.0000000137,0.0000002124,0.0000000922
-0.0000000778,0.0000000172,0.0000000427,-0.0000000828,-0.0000000541,0.0000001646,-0.0000001110,-0.0000000099,-0.0000001308,0.0000000578,0.0000000234,0.0000002454,-0.0000000697,-0.0000000395,0.0000001650,-0.0000000250,0.0000000454,-0.0000000470,0.0000003205,0.0000000668,-0.0000000305,-0.0000000681,0.0000002700,0.0000002583,-0.0000001176,-0.0000000210,0.0000000376,-0.0000000299,0.0000003525,0.0000000726,-0.0000002203,-0.0000002178,-0.0000002816,-0.0000001890,-0.0000000469,0.0000001352,-0.0000000108,-0.0000000457,-0.0000003094,-0.0000000111,0.0000000416,-0.0000000054,0.0000000568,-0.0000000077,0.0000000227,-0.0000001779,0.0000001150,0.0000002641,0.0000000423,0.0000000622,0.0000000175,0.0000003250,0.0000000633,0.0000000515,0.0000001468,0.0000000969,-0.0000002963,0.0000002826,-0.0000000388,-0.0000000439,0.0000000268,0.0000000363,-0.0000001253,-0.0000000157,0.0000002995,-0.0000002268,0.0000000169,-0.0000002092,0.0000000186,0.0000000020,0.0000002102,0.0000001830,-0.0000000477,-0.0000000111,0.0000000859,0.0000000083,0.0000001199,-0.0000002763,-0.0000001594,-0.0000000311,-0.0000000164,0.0000001579,0.0000001499,0.0000001744,0.0000002006,-0.0000001225,0.0000000632,-0.0000000500,0.0000000907,0.0000001987,0.0000000503,0.0000000132,-0.0000000167,0.0000002369,0.0000001195,0.0000001444,-0.0000000462,0.0000000543,0.0000002540,0.0000002090,-0.0000002122,-0.0000001250,-0.0000001870,-0.0000000205,0.0000002642,0.0000001396,0.0000000463,0.0000000117,0.0000000783,0.0000000835,0.0000000785,-0.0000000517,-0.0000001560,-0.0000001295,0.0000001236,-0.0000001134,-0.0000000507,0.0000002076,0.0000001029,0.0000004326,-0.0000001535,-0.0000001309,0.0000001158,0.0000001468,0.0000000879,-0.0000000139,-0.0000002157,-0.0000000936
0.0000000387,-0.0000000085,-0.0000000213,0.0000000412,0.0000000270,-0.0000000820,0.0000000553,0.0000000049,0.0000000651,-0.0000000288,-0.0000000117,-0.0000001222,0.0000000347,0.0000000197,-0.0000000822,0.0000000124,-0.0000000226,0.0000000234,-0.0000001596,-0.0000000333,0.0000000152,0.0000000339,-0.0000001345,-0.0000001286,0.0000000585,0.0000000105,-0.0000000187,0.0000000149,-0.0000001755,-0.0000000362,0.0000001097,0.0000001084,0.0000001402,0.0000000941,0.0000000234,-0.0000000673,0.0000000054,0.0000000228,0.0000001540,0.0000000055,-0.0000000207,0.0000000027,-0.0000000283,0.0000000038,-0.0000000113,0.0000000886,-0.0000000573,-0.0000001315,-0.0000000211,-0.0000000310,-0.0000000087,-0.0000001618,-0.0000000315,-0.0000000256,-0.0000000731,-0.0000000482,0.0000001475,-0.0000001407,0.0000000193,0.0000000219,-0.0000000134,-0.0000000181,0.0000000624,0.0000000078,-0.0000001491,0.0000001129,-0.0000000084,0.0000001041,-0.0000000092,-0.0000000010,-0.0000001047,-0.0000000911,0.0000000238,0.0000000055,-0.0000000428,-0.0000000041,-0.0000000597,0.0000001376,0.0000000794,0.0000000155,0.0000000082,-0.0000000786,-0.0000000747,-0.0000000869,-0.0000000999,0.0000000610,-0.0000000315,0.0000000249,-0.0000000451,-0.0000000990,-0.0000000250,-0.0000000066,0.0000000083,-0.0000001179,-0.0000000595,-0.0000000719,0.0000000230,-0.0000000270,-0.0000001265,-0.0000001040,0.0000001056,0.0000000622,0.0000000931,0.0000000102,-0.0000001315,-0.0000000695,-0.0000000231,-0.0000000058,-0.0000000390,-0.0000000416,-0.0000000391,0.0000000257,0.0000000777,0.0000000645,-0.0000000615,0.0000000565,0.0000000253,-0.0000001034,-0.0000000512,-0.0000002154,0.0000000764,0.0000000652,-0.0000000576,-0.0000000731,-0.0000000438,0.0000000069,0.0000001074,0.0000000466
0.0000005037,-0.0000001111,-0.0000002764,0.0000005363,0.0000003506,-0.0000010659,0.0000007188,0.0000000639,0.0000008473,-0.0000003743,-0.0000001516,-0.0000015891,0.0000004512,0.0000002559,-0.0000010685,0.0000001617,-0.0000002942,0.0000003045,-0.0000020754,-0.0000004325,0.0000001973,0.0000004409,-0.0000017486,-0.0000016728,0.0000007615,0.0000001360,-0.0000002436,0.0000001933,-0.0000022826,-0.0000004704,0.0000014265,0.0000014102,0.0000018233,0.0000012243,0.0000003039,-0.0000008753,0.0000000703,0.0000002962,0.0000020034,0.0000000720,-0.0000002694,0.0000000348,-0.0000003676,0.0000000500,-0.0000001472,0.0000011522,-0.0000007448,-0.0000017105,-0.0000002742,-0.0000004031,-0.0000001131,-0.0000021049,-0.0000004102,-0.0000003332,-0.0000009506,-0.0000006275,0.0000019189,-0.0000018303,0.0000002512,0.0000002842,-0.0000001737,-0.0000002352,0.0000008117,0.0000001016,-0.0000019394,0.0000014687,-0.0000001096,0.0000013545,-0.0000001201,-0.0000000128,-0.0000013614,-0.0000011852,0.0000003090,0.0000000720,-0.0000005562,-0.0000000536,-0.0000007765,0.0000017891,0.0000010323,0.0000002014,0.0000001063,-0.0000010226,-0.0000009709,-0.0000011296,-0.0000012993,0.0000007931,-0.0000004095,0.0000003236,-0.0000005871,-0.0000012871,-0.0000003256,-0.0000000856,0.0000001081,-0.0000015339,-0.0000007739,-0.0000009352,0.0000002992,-0.0000003516,-0.0000016452,-0.0000013531,0.0000013739,0.0000008093,0.0000012108,0.0000001327,-0.0000017107,-0.0000009040,-0.0000003001,-0.0000000759,-0.0000005074,-0.0000005405,-0.0000005080,0.0000003348,0.0000010101,0.0000008386,-0.0000008004,0.0000007342,0.0000003286,-0.0000013443,-0.0000006664,-0.0000028014,0.0000009939,0.0000008480,-0.0000007498,-0.0000009506,-0.0000005690,0.0000000898,0.0000013969,0.0000006062
-0.0000003940,0.0000000869,0.0000002162,-0.0000004195,-0.0000002742,0.0000008338,-0.0000005622,-0.0000000500,-0.0000006627,0.0000002928,0.0000001186,0.0000012430,-0.0000003529,-0.0000002001,0.0000008358,-0.0000001265,0.0000002301,-0.0000002381,0.0000016233,0.0000003383,-0.0000001543,-0.0000003449,0.0000013677,0.0000013085,-0.0000005956,-0.0000001064,0.0000001905,-0.0000001512,0.0000017854,0.0000003679,-0.0000011158,-0.0000011030,-0.0000014262,-0.0000009576,-0.0000002377,0.0000006846,-0.0000000550,-0.0000002317,-0.0000015670,-0.0000000563,0.0000002107,-0.0000000272,0.0000002875,-0.0000000391,0.0000001151,-0.0000009013,0.0000005826,0.0000013379,0.0000002144,0.0000003153,0.0000000885,0.0000016464,0.0000003209,0.0000002606,0.0000007435,0.0000004908,-0.0000015009,0.0000014316,-0.0000001965,-0.0000002223,0.0000001359,0.0000001840,-0.0000006349,-0.0000000795,0.0000015169,-0.0000011488,0.0000000857,-0.0000010594,0.0000000940,0.0000000100,0.0000010649,0.0000009270,-0.0000002417,-0.0000000563,0.0000004350,0.0000000420,0.0000006074,-0.0000013994,-0.0000008075,-0.0000001575,-0.0000000831,0.0000007999,0.0000007595,0.0000008836,0.0000010163,-0.0000006203,0.0000003203,-0.0000002531,0.0000004592,0.0000010067,0.0000002547,0.0000000670,-0.0000000846,0.0000011998,0.0000006053,0.0000007315,-0.0000002341,0.0000002750,0.0000012868,0.0000010584,-0.0000010746,-0.0000006330,-0.0000009470,-0.0000001038,0.0000013381,0.0000007071,0.0000002347,0.0000000593,0.0000003969,0.0000004228,0.0000003974,-0.0000002619,-0.0000007901,-0.0000006559,0.0000006261,-0.0000005743,-0.0000002570,0.0000010515,0.0000005212,0.0000021912,-0.0000007774,-0.0000006633,0.0000005864,0.0000007435,0.0000004451,-0.0000000702,-0.0000010926,-0.0000004741
0.0000002453,-0.0000000541,-0.0000001346,0.0000002612,0.0000001707,-0.0000005191,0.0000003500,0.0000000311,0.0000004126,-0.0000001823,-0.0000000738,-0.0000007739,0.0000002198,0.0000001246,-0.0000005204,0.0000000787,-0.0000001433,0.0000001483,-0.0000010107,-0.0000002106,0.0000000961,0.0000002147,-0.0000008516,-0.0000008147,0.0000003708,0.0000000662,-0.0000001186,0.0000000942,-0.0000011116,-0.0000002291,0.0000006947,0.0000006868,0.0000008880,0.0000005962,0.0000001480,-0.0000004263,0.0000000342,0.0000001443,0.0000009757,0.0000000350,-0.0000001312,0.0000000169,-0.0000001790,0.0000000244,-0.0000000717,0.0000005611,-0.0000003627,-0.0000008330,-0.0000001335,-0.0000001963,-0.0000000551,-0.0000010251,-0.0000001998,-0.0000001623,-0.0000004629,-0.0000003056,0.0000009345,-0.0000008914,0.0000001223,0.0000001384,-0.0000000846,-0.0000001145,0.0000003953,0.0000000495,-0.0000009445,0.0000007152,-0.0000000534,0.0000006596,-0.0000000585,-0.0000000063,-0.0000006630,-0.0000005772,0.0000001505,0.0000000351,-0.0000002709,-0.0000000261,-0.0000003782,0.0000008713,0.0000005027,0.0000000981,0.0000000517,-0.0000004980,-0.0000004729,-0.0000005501,-0.0000006328,0.0000003862,-0.0000001995,0.0000001576,-0.0000002859,-0.0000006268,-0.0000001586,-0.0000000417,0.0000000527,-0.0000007470,-0.0000003769,-0.0000004554,0.0000001457,-0.0000001712,-0.0000008012,-0.0000006590,0.0000006691,0.0000003941,0.0000005897,0.0000000646,-0.0000008331,-0.0000004403,-0.0000001461,-0.0000000369,-0.0000002471,-0.0000002632,-0.0000002474,0.0000001630,0.0000004919,0.0000004084,-0.0000003898,0.0000003576,0.0000001600,-0.0000006547,-0.0000003245,-0.0000013643,0.0000004840,0.0000004130,-0.0000003651,-0.0000004629,-0.0000002771,0.0000000437,0.0000006803,0.0000002952
0.0000000712,-0.0000000157,-0.0000000391,0.0000000758,0.0000000496,-0.0000001507,0.0000001016,0.0000000090,0.0000001198,-0.0000000529,-0.0000000214,-0.0000002247,0.0000000638,0.0000000362,-0.0000001511,0.0000000229,-0.0000000416,0.0000000431,-0.0000002935,-0.0000000612,0.0000000279,0.0000000623,-0.0000002473,-0.0000002366,0.0000001077,0.0000000192,-0.0000000344,0.0000000273,-0.0000003228,-0.0000000665,0.0000002017,0.0000001994,0.0000002578,0.0000001731,0.0000000430,-0.0000001238,0.0000000099,0.0000000419,0.0000002833,0.0000000102,-0.0000000381,0.0000000049,-0.0000000520,0.0000000071,-0.0000000208,0.0000001629,-0.0000001053,-0.0000002419,-0.0000000388,-0.0000000570,-0.0000000160,-0.0000002977,-0.0000000580,-0.0000000471,-0.0000001344,-0.0000000887,0.0000002713,-0.0000002588,0.0000000355,0.0000000402,-0.0000000246,-0.0000000333,0.0000001148,0.0000000144,-0.0000002742,0.0000002077,-0.0000000155,0.0000001915,-0.0000000170,-0.0000000018,-0.0000001925,-0.0000001676,0.0000000437,0.0000000102,-0.0000000786,-0.0000000076,-0.0000001098,0.0000002530,0.0000001460,0.0000000285,0.0000000150,-0.0000001446,-0.0000001373,-0.0000001597,-0.0000001837,0.0000001121,-0.0000000579,0.0000000458,-0.0000000830,-0.0000001820,-0.0000000460,-0.0000000121,0.0000000153,-0.0000002169,-0.0000001094,-0.0000001322,0.0000000423,-0.0000000497,-0.0000002326,-0.0000001913,0.0000001943,0.0000001144,0.0000001712,0.0000000188,-0.0000002419,-0.0000001278,-0.0000000424,-0.0000000107,-0.0000000717,-0.0000000764,-0.0000000718,0.0000000473,0.0000001428,0.0000001186,-0.0000001132,0.0000001038,0.0000000465,-0.0000001901,-0.0000000942,-0.0000003961,0.0000001405,0.0000001199,-0.0000001060,-0.0000001344,-0.0000000805,0.0000000127,0.0000001975,0.0000000857
-0.0000004175,0.0000000921,0.0000002292,-0.0000004446,-0.0000002906,0.0000008836,-0.0000005958,-0.0000000530,-0.0000007024,0.0000003103,0.0000001257,0.0000013173,-0.0000003740,-0.0000002121,0.0000008857,-0.0000001340,0.0000002439,-0.0000002524,0.0000017204,0.0000003585,-0.0000001635,-0.0000003655,0.0000014495,0.0000013867,-0.0000006312,-0.0000001127,0.0000002019,-0.0000001603,0.0000018921,0.0000003899,-0.0000011825,-0.0000011689,-0.0000015114,-0.0000010148,-0.0000002519,0.0000007255,-0.0000000582,-0.0000002455,-0.0000016607,-0.0000000596,0.0000002233,-0.0000000288,0.0000003047,-0.0000000415,0.0000001220,-0.0000009551,0.0000006174,0.0000014179,0.0000002273,0.0000003341,0.0000000938,0.0000017448,0.0000003401,0.0000002762,0.0000007880,0.0000005201,-0.0000015907,0.0000015172,-0.0000002082,-0.0000002356,0.0000001440,0.0000001950,-0.0000006728,-0.0000000842,0.0000016076,-0.0000012174,0.0000000908,-0.0000011228,0.0000000996,0.0000000106,0.0000011285,0.0000009824,-0.0000002562,-0.0000000597,0.0000004610,0.0000000445,0.0000006437,-0.0000014830,-0.0000008557,-0.0000001669,-0.0000000881,0.0000008477,0.0000008049,0.0000009364,0.0000010770,-0.0000006574,0.0000003395,-0.0000002682,0.0000004867,0.0000010669,0.0000002699,0.0000000710,-0.0000000896,0.0000012715,0.0000006415,0.0000007752,-0.0000002480,0.0000002915,0.0000013638,0.0000011217,-0.0000011389,-0.0000006709,-0.0000010037,-0.0000001100,0.0000014181,0.0000007494,0.0000002488,0.0000000629,0.0000004206,0.0000004480,0.0000004211,-0.0000002775,-0.0000008374,-0.0000006951,0.0000006635,-0.0000006086,-0.0000002724,0.0000011143,0.0000005524,0.0000023222,-0.0000008239,-0.0000007029,0.0000006215,0.0000007880,0.0000004717,-0.0000000744,-0.0000011579,-0.0000005025
-0.0000002443,0.0000000539,0.0000001341,-0.0000002602,-0.0000001701,0.0000005171,-0.0000003487,-0.0000000310,-0.0000004111,0.0000001816,0.0000000735,0.0000007710,-0.0000002189,-0.0000001241,0.0000005184,-0.0000000784,0.0000001427,-0.0000001477,0.0000010069,0.0000002098,-0.0000000957,-0.0000002139,0.0000008483,0.0000008116,-0.0000003694,-0.0000000660,0.0000001182,-0.0000000938,0.0000011074,0.0000002282,-0.0000006921,-0.0000006841,-0.0000008846,-0.0000005940,-0.0000001474,0.0000004246,-0.0000000341,-0.0000001437,-0.0000009719,-0.0000000349,0.0000001307,-0.0000000169,0.0000001783,-0.0000000243,0.0000000714,-0.0000005590,0.0000003613,0.0000008298,0.0000001330,0.0000001956,0.0000000549,0.0000010212,0.0000001990,0.0000001617,0.0000004612,0.0000003044,-0.0000009309,0.0000008880,-0.0000001219,-0.0000001379,0.0000000843,0.0000001141,-0.0000003938,-0.0000000493,0.0000009409,-0.0000007125,0.0000000532,-0.0000006571,0.0000000583,0.0000000062,0.0000006605,0.0000005750,-0.0000001499,-0.0000000349,0.0000002698,0.0000000260,0.0000003767,-0.0000008680,-0.0000005008,-0.0000000977,-0.0000000515,0.0000004961,0.0000004711,0.0000005480,0.0000006303,-0.0000003848,0.0000001987,-0.0000001570,0.0000002848,0.0000006244,0.0000001580,0.0000000415,-0.0000000525,0.0000007442,0.0000003754,0.0000004537,-0.0000001452,0.0000001706,0.0000007982,0.0000006565,-0.0000006665,-0.0000003926,-0.0000005874,-0.0000000644,0.0000008299,0.0000004386,0.0000001456,0.0000000368,0.0000002462,0.0000002622,0.0000002465,-0.0000001624,-0.0000004901,-0.0000004068,0.0000003883,-0.0000003562,-0.0000001594,0.0000006522,0.0000003233,0.0000013591,-0.0000004822,-0.0000004114,0.0000003637,0.0000004612,0.0000002761,-0.0000000435,-0.0000006777,-0.0000002941
-0.0000002239,0.0000000494,0.0000001229,-0.0000002384,-0.0000001558,0.0000004738,-0.0000003195,-0.0000000284,-0.0000003766,0.0000001664,0.0000000674,0.0000007063,-0.0000002006,-0.0000001137,0.0000004749,-0.0000000719,0.0000001308,-0.0000001353,0.0000009224,0.0000001922,-0.0000000877,-0.0000001960,0.0000007772,0.0000007435,-0.0000003384,-0.0000000604,0.0000001083,-0.0000000859,0.0000010145,0.0000002091,-0.0000006341,-0.0000006268,-0.0000008104,-0.0000005441,-0.0000001351,0.0000003890,-0.0000000312,-0.0000001317,-0.0000008904,-0.0000000320,0.0000001198,-0.0000000155,0.0000001634,-0.0000000222,0.0000000654,-0.0000005121,0.0000003310,0.0000007603,0.0000001219,0.0000001792,0.0000000503,0.0000009356,0.0000001823,0.0000001481,0.0000004225,0.0000002789,-0.0000008529,0.0000008135,-0.0000001116,-0.0000001263,0.0000000772,0.0000001045,-0.0000003608,-0.0000000452,0.0000008620,-0.0000006528,0.0000000487,-0.0000006020,0.0000000534,0.0000000057,0.0000006051,0.0000005268,-0.0000001373,-0.0000000320,0.0000002472,0.0000000238,0.0000003451,-0.0000007952,-0.0000004588,-0.0000000895,-0.0000000472,0.0000004545,0.0000004316,0.0000005021,0.0000005775,-0.0000003525,0.0000001820,-0.0000001438,0.0000002610,0.0000005721,0.0000001447,0.0000000381,-0.0000000481,0.0000006818,0.0000003440,0.0000004157,-0.0000001330,0.0000001563,0.0000007312,0.0000006014,-0.0000006106,-0.0000003597,-0.0000005382,-0.0000000590,0.0000007603,0.0000004018,0.0000001334,0.0000000337,0.0000002255,0.0000002402,0.0000002258,-0.0000001488,-0.0000004490,-0.0000003727,0.0000003558,-0.0000003263,-0.0000001461,0.0000005975,0.0000002962,0.0000012451,-0.0000004417,-0.0000003769,0.0000003332,0.0000004225,0.0000002529,-0.0000000399,-0.0000006209,-0.0000002694
0.0000001332,-0.0000000294,-0.0000000731,0.0000001419,0.0000000927,-0.0000002820,0.0000001901,0.0000000169,0.0000002241,-0.0000000990,-0.0000000401,-0.0000004204,0.0000001194,0.0000000677,-0.0000002827,0.0000000428,-0.0000000778,0.0000000805,-0.0000005490,-0.0000001144,0.0000000522,0.0000001166,-0.0000004626,-0.0000004425,0.0000002014,0.0000000360,-0.0000000644,0.0000000511,-0.0000006038,-0.0000001244,0.0000003774,0.0000003730,0.0000004823,0.0000003239,0.0000000804,-0.0000002315,0.0000000186,0.0000000784,0.0000005300,0.0000000190,-0.0000000713,0.0000000092,-0.0000000972,0.0000000132,-0.0000000389,0.0000003048,-0.0000001970,-0.0000004525,-0.0000000725,-0.0000001066,-0.0000000299,-0.0000005568,-0.0000001085,-0.0000000881,-0.0000002515,-0.0000001660,0.0000005076,-0.0000004842,0.0000000665,0.0000000752,-0.0000000459,-0.0000000622,0.0000002147,0.0000000269,-0.0000005130,0.0000003885,-0.0000000290,0.0000003583,-0.0000000318,-0.0000000034,-0.0000003601,-0.0000003135,0.0000000817,0.0000000191,-0.0000001471,-0.0000000142,-0.0000002054,0.0000004733,0.0000002731,0.0000000533,0.0000000281,-0.0000002705,-0.0000002569,-0.0000002988,-0.0000003437,0.0000002098,-0.0000001083,0.0000000856,-0.0000001553,-0.0000003405,-0.0000000861,-0.0000000227,0.0000000286,-0.0000004058,-0.0000002047,-0.0000002474,0.0000000792,-0.0000000930,-0.0000004352,-0.0000003580,0.0000003634,0.0000002141,0.0000003203,0.0000000351,-0.0000004526,-0.0000002392,-0.0000000794,-0.0000000201,-0.0000001342,-0.0000001430,-0.0000001344,0.0000000886,0.0000002672,0.0000002218,-0.0000002118,0.0000001942,0.0000000869,-0.0000003556,-0.0000001763,-0.0000007411,0.0000002629,0.0000002243,-0.0000001983,-0.0000002515,-0.0000001505,0.0000000237,0.0000003695,0.0000001604
0.0000000259,-0.0000000057,-0.0000000142,0.0000000276,0.0000000180,-0.0000000548,0.0000000369,0.0000000033,0.0000000435,-0.0000000192,-0.0000000078,-0.0000000817,0.0000000232,0.0000000131,-0.0000000549,0.0000000083,-0.0000000151,0.0000000156,-0.0000001066,-0.0000000222,0.0000000101,0.0000000227,-0.0000000898,-0.0000000860,0.0000000391,0.0000000070,-0.0000000125,0.0000000099,-0.0000001173,-0.0000000242,0.0000000733,0.0000000725,0.0000000937,0.0000000629,0.0000000156,-0.0000000450,0.0000000036,0.0000000152,0.0000001029,0.0000000037,-0.0000000138,0.0000000018,-0.0000000189,0.0000000026,-0.0000000076,0.0000000592,-0.0000000383,-0.0000000879,-0.0000000141,-0.0000000207,-0.0000000058,-0.0000001082,-0.0000000211,-0.0000000171,-0.0000000488,-0.0000000322,0.0000000986,-0.0000000940,0.0000000129,0.0000000146,-0.0000000089,-0.0000000121,0.0000000417,0.0000000052,-0.0000000997,0.0000000755,-0.0000000056,0.0000000696,-0.0000000062,-0.0000000007,-0.0000000700,-0.0000000609,0.0000000159,0.0000000037,-0.0000000286,-0.0000000028,-0.0000000399,0.0000000919,0.0000000530,0.0000000103,0.0000000055,-0.0000000525,-0.0000000499,-0.0000000580,-0.0000000668,0.0000000408,-0.0000000210,0.0000000166,-0.0000000302,-0.0000000661,-0.0000000167,-0.0000000044,0.0000000056,-0.0000000788,-0.0000000398,-0.0000000481,0.0000000154,-0.0000000181,-0.0000000845,-0.0000000695,0.0000000706,0.0000000416,0.0000000622,0.0000000068,-0.0000000879,-0.0000000465,-0.0000000154,-0.0000000039,-0.0000000261,-0.0000000278,-0.0000000261,0.0000000172,0.0000000519,0.0000000431,-0.0000000411,0.0000000377,0.0000000169,-0.0000000691,-0.0000000342,-0.0000001439,0.0000000511,0.0000000436,-0.0000000385,-0.0000000488,-0.0000000292,0.0000000046,0.0000000718,0.0000000311
-0.0000001986,0.0000000438,0.0000001090,-0.0000002114,-0.0000001382,0.0000004202,-0.0000002834,-0.0000000252,-0.0000003340,0.0000001476,0.0000000598,0.0000006265,-0.0000001779,-0.0000001009,0.0000004213,-0.0000000637,0.0000001160,-0.0000001200,0.0000008182,0.0000001705,-0.0000000778,-0.0000001738,0.0000006894,0.0000006595,-0.0000003002,-0.0000000536,0.0000000960,-0.0000000762,0.0000008999,0.0000001854,-0.0000005624,-0.0000005560,-0.0000007189,-0.0000004827,-0.0000001198,0.0000003451,-0.0000000277,-0.0000001168,-0.0000007899,-0.0000000284,0.0000001062,-0.0000000137,0.0000001449,-0.0000000197,0.0000000580,-0.0000004543,0.0000002936,0.0000006744,0.0000001081,0.0000001589,0.0000000446,0.0000008299,0.0000001617,0.0000001314,0.0000003748,0.0000002474,-0.0000007565,0.0000007216,-0.0000000990,-0.0000001121,0.0000000685,0.0000000927,-0.0000003200,-0.0000000401,0.0000007646,-0.0000005790,0.0000000432,-0.0000005340,0.0000000474,0.0000000051,0.0000005367,0.0000004673,-0.0000001218,-0.0000000284,0.0000002193,0.0000000211,0.0000003061,-0.0000007053,-0.0000004070,-0.0000000794,-0.0000000419,0.0000004032,0.0000003828,0.0000004454,0.0000005123,-0.0000003127,0.0000001615,-0.0000001276,0.0000002315,0.0000005074,0.0000001284,0.0000000338,-0.0000000426,0.0000006047,0.0000003051,0.0000003687,-0.0000001180,0.0000001386,0.0000006486,0.0000005335,-0.0000005417,-0.0000003191,-0.0000004774,-0.0000000523,0.0000006745,0.0000003564,0.0000001183,0.0000000299,0.0000002000,0.0000002131,0.0000002003,-0.0000001320,-0.0000003983,-0.0000003306,0.0000003156,-0.0000002895,-0.0000001296,0.0000005300,0.0000002627,0.0000011045,-0.0000003918,-0.0000003343,0.0000002956,0.0000003748,0.0000002243,-0.0000000354,-0.0000005507,-0.0000002390
-0.0000000748,0.0000000165,0.0000000411,-0.0000000797,-0.0000000521,0.0000001584,-0.0000001068,-0.0000000095,-0.0000001259,0.0000000556,0.0000000225,0.0000002361,-0.0000000670,-0.0000000380,0.0000001588,-0.0000000240,0.0000000437,-0.0000000452,0.0000003084,0.0000000643,-0.0000000293,-0.0000000655,0.0000002598,0.0000002486,-0.0000001131,-0.0000000202,0.0000000362,-0.0000000287,0.0000003392,0.0000000699,-0.0000002120,-0.0000002095,-0.0000002709,-0.0000001819,-0.0000000452,0.0000001301,-0.0000000104,-0.0000000440,-0.0000002977,-0.0000000107,0.0000000400,-0.0000000052,0.0000000546,-0.0000000074,0.0000000219,-0.0000001712,0.0000001107,0.0000002542,0.0000000407,0.0000000599,0.0000000168,0.0000003128,0.0000000610,0.0000000495,0.0000001412,0.0000000932,-0.0000002851,0.0000002720,-0.0000000373,-0.0000000422,0.0000000258,0.0000000349,-0.0000001206,-0.0000000151,0.0000002882,-0.0000002182,0.0000000163,-0.0000002013,0.0000000179,0.0000000019,0.0000002023,0.0000001761,-0.0000000459,-0.0000000107,0.0000000826,0.0000000080,0.0000001154,-0.0000002658,-0.0000001534,-0.0000000299,-0.0000000158,0.0000001519,0.0000001443,0.0000001679,0.0000001931,-0.0000001178,0.0000000609,-0.0000000481,0.0000000872,0.0000001912,0.0000000484,0.0000000127,-0.0000000161,0.0000002279,0.0000001150,0.0000001390,-0.0000000445,0.0000000522,0.0000002445,0.0000002011,-0.0000002041,-0.0000001203,-0.0000001799,-0.0000000197,0.0000002542,0.0000001343,0.0000000446,0.0000000113,0.0000000754,0.0000000803,0.0000000755,-0.0000000497,-0.0000001501,-0.0000001246,0.0000001189,-0.0000001091,-0.0000000488,0.0000001997,0.0000000990,0.0000004163,-0.0000001477,-0.0000001260,0.0000001114,0.0000001412,0.0000000846,-0.0000000133,-0.0000002076,-0.0000000901
0.0000002062,-0.0000000455,-0.0000001132,0.0000002195,0.0000001435,-0.0000004363,0.0000002942,0.0000000262,0.0000003468,-0.0000001532,-0.0000000621,-0.0000006505,0.0000001847,0.0000001047,-0.0000004374,0.0000000662,-0.0000001204,0.0000001246,-0.0000008495,-0.0000001770,0.0000000807,0.0000001805,-0.0000007157,-0.0000006847,0.0000003117,0.0000000557,-0.0000000997,0.0000000791,-0.0000009343,-0.0000001925,0.0000005839,0.0000005772,0.0000007463,0.0000005011,0.0000001244,-0.0000003583,0.0000000288,0.0000001212,0.0000008200,0.0000000295,-0.0000001103,0.0000000142,-0.0000001505,0.0000000205,-0.0000000602,0.0000004716,-0.0000003049,-0.0000007001,-0.0000001122,-0.0000001650,-0.0000000463,-0.0000008616,-0.0000001679,-0.0000001364,-0.0000003891,-0.0000002568,0.0000007854,-0.0000007492,0.0000001028,0.0000001163,-0.0000000711,-0.0000000963,0.0000003322,0.0000000416,-0.0000007938,0.0000006012,-0.0000000448,0.0000005544,-0.0000000492,-0.0000000053,-0.0000005573,-0.0000004851,0.0000001265,0.0000000295,-0.0000002276,-0.0000000220,-0.0000003178,0.0000007323,0.0000004225,0.0000000824,0.0000000435,-0.0000004186,-0.0000003974,-0.0000004624,-0.0000005318,0.0000003246,-0.0000001676,0.0000001324,-0.0000002403,-0.0000005268,-0.0000001333,-0.0000000350,0.0000000443,-0.0000006279,-0.0000003168,-0.0000003828,0.0000001225,-0.0000001439,-0.0000006734,-0.0000005539,0.0000005624,0.0000003313,0.0000004956,0.0000000543,-0.0000007002,-0.0000003700,-0.0000001228,-0.0000000310,-0.0000002077,-0.0000002212,-0.0000002080,0.0000001370,0.0000004135,0.0000003432,-0.0000003276,0.0000003005,0.0000001345,-0.0000005502,-0.0000002728,-0.0000011467,0.0000004068,0.0000003471,-0.0000003069,-0.0000003891,-0.0000002329,0.0000000367,0.0000005718,0.0000002481
0.0000000617,-0.0000000136,-0.0000000339,0.0000000657,0.0000000429,-0.0000001306,0.0000000881,0.0000000078,0.0000001038,-0.0000000459,-0.0000000186,-0.0000001947,0.0000000553,0.0000000313,-0.0000001309,0.0000000198,-0.0000000360,0.0000000373,-0.0000002543,-0.0000000530,0.0000000242,0.0000000540,-0.0000002142,-0.0000002050,0.0000000933,0.0000000167,-0.0000000298,0.0000000237,-0.0000002797,-0.0000000576,0.0000001748,0.0000001728,0.0000002234,0.0000001500,0.0000000372,-0.0000001072,0.0000000086,0.0000000363,0.0000002455,0.0000000088,-0.0000000330,0.0000000043,-0.0000000450,0.0000000061,-0.0000000180,0.0000001412,-0.0000000913,-0.0000002096,-0.0000000336,-0.0000000494,-0.0000000139,-0.0000002579,-0.0000000503,-0.0000000408,-0.0000001165,-0.0000000769,0.0000002351,-0.0000002242,0.0000000308,0.0000000348,-0.0000000213,-0.0000000288,0.0000000994,0.0000000125,-0.0000002376,0.0000001799,-0.0000000134,0.0000001659,-0.0000000147,-0.0000000016,-0.0000001668,-0.0000001452,0.0000000379,0.0000000088,-0.0000000681,-0.0000000066,-0.0000000951,0.0000002192,0.0000001265,0.0000000247,0.0000000130,-0.0000001253,-0.0000001190,-0.0000001384,-0.0000001592,0.0000000972,-0.0000000502,0.0000000396,-0.0000000719,-0.0000001577,-0.0000000399,-0.0000000105,0.0000000132,-0.0000001879,-0.0000000948,-0.0000001146,0.0000000367,-0.0000000431,-0.0000002016,-0.0000001658,0.0000001683,0.0000000992,0.0000001483,0.0000000163,-0.0000002096,-0.0000001108,-0.0000000368,-0.0000000093,-0.0000000622,-0.0000000662,-0.0000000622,0.0000000410,0.0000001238,0.0000001027,-0.0000000981,0.0000000900,0.0000000403,-0.0000001647,-0.0000000816,-0.0000003432,0.0000001218,0.0000001039,-0.0000000919,-0.0000001165,-0.0000000697,0.0000000110,0.0000001711,0.0000000743
-0.0000000560,0.0000000124,0.0000000307,-0.0000000596,-0.0000000390,0.0000001185,-0.0000000799,-0.0000000071,-0.0000000942,0.0000000416,0.0000000169,0.0000001767,-0.0000000502,-0.0000000284,0.0000001188,-0.0000000180,0.0000000327,-0.0000000338,0.0000002307,0.0000000481,-0.0000000219,-0.0000000490,0.0000001944,0.0000001860,-0.0000000847,-0.0000000151,0.0000000271,-0.0000000215,0.0000002538,0.0000000523,-0.0000001586,-0.0000001568,-0.0000002027,-0.0000001361,-0.0000000338,0.0000000973,-0.0000000078,-0.0000000329,-0.0000002227,-0.0000000080,0.0000000300,-0.0000000039,0.0000000409,-0.0000000056,0.0000000164,-0.0000001281,0.0000000828,0.0000001902,0.0000000305,0.0000000448,0.0000000126,0.0000002340,0.0000000456,0.0000000370,0.0000001057,0.0000000698,-0.0000002133,0.0000002035,-0.0000000279,-0.0000000316,0.0000000193,0.0000000261,-0.0000000902,-0.0000000113,0.0000002156,-0.0000001633,0.0000000122,-0.0000001506,0.0000000134,0.0000000014,0.0000001514,0.0000001318,-0.0000000344,-0.0000000080,0.0000000618,0.0000000060,0.0000000863,-0.0000001989,-0.0000001148,-0.0000000224,-0.0000000118,0.0000001137,0.0000001079,0.0000001256,0.0000001444,-0.0000000882,0.0000000455,-0.0000000360,0.0000000653,0.0000001431,0.0000000362,0.0000000095,-0.0000000120,0.0000001705,0.0000000860,0.0000001040,-0.0000000333,0.0000000391,0.0000001829,0.0000001504,-0.0000001527,-0.0000000900,-0.0000001346,-0.0000000148,0.0000001902,0.0000001005,0.0000000334,0.0000000084,0.0000000564,0.0000000601,0.0000000565,-0.0000000372,-0.0000001123,-0.0000000932,0.0000000890,-0.0000000816,-0.0000000365,0.0000001494,0.0000000741,0.0000003114,-0.0000001105,-0.0000000943,0.0000000834,0.0000001057,0.0000000633,-0.0000000100,-0.0000001553,-0.0000000674
0.0000000543,-0.0000000120,-0.0000000298,0.0000000578,0.0000000378,-0.0000001149,0.0000000775,0.0000000069,0.0000000913,-0.0000000403,-0.0000000163,-0.0000001713,0.0000000486,0.0000000276,-0.0000001151,0.0000000174,-0.0000000317,0.0000000328,-0.0000002237,-0.0000000466,0.0000000213,0.0000000475,-0.0000001884,-0.0000001803,0.0000000821,0.0000000147,-0.0000000262,0.0000000208,-0.0000002460,-0.0000000507,0.0000001537,0.0000001520,0.0000001965,0.0000001319,0.0000000328,-0.0000000943,0.0000000076,0.0000000319,0.0000002159,0.0000000078,-0.0000000290,0.0000000037,-0.0000000396,0.0000000054,-0.0000000159,0.0000001242,-0.0000000803,-0.0000001843,-0.0000000295,-0.0000000434,-0.0000000122,-0.0000002268,-0.0000000442,-0.0000000359,-0.0000001024,-0.0000000676,0.0000002068,-0.0000001972,0.0000000271,0.0000000306,-0.0000000187,-0.0000000253,0.0000000875,0.0000000110,-0.0000002090,0.0000001583,-0.0000000118,0.0000001460,-0.0000000129,-0.0000000014,-0.0000001467,-0.0000001277,0.0000000333,0.0000000078,-0.0000000599,-0.0000000058,-0.0000000837,0.0000001928,0.0000001112,0.0000000217,0.0000000115,-0.0000001102,-0.0000001046,-0.0000001217,-0.0000001400,0.0000000855,-0.0000000441,0.0000000349,-0.0000000633,-0.0000001387,-0.0000000351,-0.0000000092,0.0000000117,-0.0000001653,-0.0000000834,-0.0000001008,0.0000000322,-0.0000000379,-0.0000001773,-0.0000001458,0.0000001481,0.0000000872,0.0000001305,0.0000000143,-0.0000001844,-0.0000000974,-0.0000000323,-0.0000000082,-0.0000000547,-0.0000000582,-0.0000000547,0.0000000361,0.0000001089,0.0000000904,-0.0000000863,0.0000000791,0.0000000354,-0.0000001449,-0.0000000718,-0.0000003019,0.0000001071,0.0000000914,-0.0000000808,-0.0000001024,-0.0000000613,0.0000000097,0.0000001505,0.0000000653
0.0000004618,-0.0000001019,-0.0000002535,0.0000004918,0.0000003215,-0.0000009774,0.0000006591,0.0000000586,0.0000007769,-0.0000003432,-0.0000001390,-0.0000014572,0.0000004138,0.0000002346,-0.0000009798,0.0000001482,-0.0000002698,0.0000002792,-0.0000019031,-0.0000003966,0.0000001809,0.0000004043,-0.0000016035,-0.0000015340,0.0000006982,0.0000001247,-0.0000002233,0.0000001773,-0.0000020931,-0.0000004313,0.0000013081,0.0000012931,0.0000016720,0.0000011226,0.0000002787,-0.0000008026,0.0000000644,0.0000002716,0.0000018371,0.0000000660,-0.0000002471,0.0000000319,-0.0000003371,0.0000000459,-0.0000001349,0.0000010566,-0.0000006830,-0.0000015685,-0.0000002514,-0.0000003696,-0.0000001037,-0.0000019302,-0.0000003762,-0.0000003056,-0.0000008717,-0.0000005754,0.0000017596,-0.0000016784,0.0000002303,0.0000002606,-0.0000001593,-0.0000002157,0.0000007443,0.0000000932,-0.0000017784,0.0000013467,-0.0000001005,0.0000012420,-0.0000001102,-0.0000000118,-0.0000012484,-0.0000010868,0.0000002834,0.0000000660,-0.0000005100,-0.0000000492,-0.0000007120,0.0000016405,0.0000009466,0.0000001847,0.0000000974,-0.0000009377,-0.0000008903,-0.0000010358,-0.0000011914,0.0000007272,-0.0000003755,0.0000002967,-0.0000005384,-0.0000011802,-0.0000002986,-0.0000000785,0.0000000991,-0.0000014065,-0.0000007096,-0.0000008576,0.0000002744,-0.0000003224,-0.0000015086,-0.0000012408,0.0000012598,0.0000007421,0.0000011103,0.0000001217,-0.0000015687,-0.0000008290,-0.0000002752,-0.0000000696,-0.0000004653,-0.0000004956,-0.0000004659,0.0000003070,0.0000009263,0.0000007689,-0.0000007340,0.0000006733,0.0000003013,-0.0000012327,-0.0000006110,-0.0000025688,0.0000009114,0.0000007776,-0.0000006875,-0.0000008717,-0.0000005218,0.0000000823,0.0000012809,0.0000005558
-0.0000000268,0.0000000059,0.0000000147,-0.0000000286,-0.0000000187,0.0000000568,-0.0000000383,-0.0000000034,-0.0000000451,0.0000000199,0.0000000081,0.0000000846,-0.0000000240,-0.0000000136,0.0000000569,-0.0000000086,0.0000000157,-0.0000000162,0.0000001105,0.0000000230,-0.0000000105,-0.0000000235,0.0000000931,0.0000000891,-0.0000000406,-0.0000000072,0.0000000130,-0.0000000103,0.0000001216,0.0000000251,-0.0000000760,-0.0000000751,-0.0000000971,-0.0000000652,-0.0000000162,0.0000000466,-0.0000000037,-0.0000000158,-0.0000001067,-0.0000000038,0.0000000144,-0.0000000019,0.0000000196,-0.0000000027,0.0000000078,-0.0000000614,0.0000000397,0.0000000911,0.0000000146,0.0000000215,0.0000000060,0.0000001121,0.0000000219,0.0000000177,0.0000000506,0.0000000334,-0.0000001022,0.0000000975,-0.0000000134,-0.0000000151,0.0000000093,0.0000000125,-0.0000000432,-0.0000000054,0.0000001033,-0.0000000782,0.0000000058,-0.0000000721,0.0000000064,0.0000000007,0.0000000725,0.0000000631,-0.0000000165,-0.0000000038,0.0000000296,0.0000000029,0.0000000414,-0.0000000953,-0.0000000550,-0.0000000107,-0.0000000057,0.0000000545,0.0000000517,0.0000000602,0.0000000692,-0.0000000422,0.0000000218,-0.0000000172,0.0000000313,0.0000000686,0.0000000173,0.0000000046,-0.0000000058,0.0000000817,0.0000000412,0.0000000498,-0.0000000159,0.0000000187,0.0000000876,0.0000000721,-0.0000000732,-0.0000000431,-0.0000000645,-0.0000000071,0.0000000911,0.0000000482,0.0000000160,0.0000000040,0.0000000270,0.0000000288,0.0000000271,-0.0000000178,-0.0000000538,-0.0000000447,0.0000000426,-0.0000000391,-0.0000000175,0.0000000716,0.0000000355,0.0000001492,-0.0000000529,-0.0000000452,0.0000000399,0.0000000506,0.0000000303,-0.0000000048,-0.0000000744,-0.0000000323
0.0000001063,-0.0000000235,-0.0000000584,0.0000001132,0.0000000740,-0.0000002250,0.0000001517,0.0000000135,0.0000001789,-0.0000000790,-0.0000000320,-0.0000003355,0.0000000953,0.0000000540,-0.0000002256,0.0000000341,-0.0000000621,0.0000000643,-0.0000004381,-0.0000000913,0.0000000416,0.0000000931,-0.0000003691,-0.0000003531,0.0000001607,0.0000000287,-0.0000000514,0.0000000408,-0.0000004818,-0.0000000993,0.0000003011,0.0000002977,0.0000003849,0.0000002584,0.0000000642,-0.0000001848,0.0000000148,0.0000000625,0.0000004229,0.0000000152,-0.0000000569,0.0000000073,-0.0000000776,0.0000000106,-0.0000000311,0.0000002432,-0.0000001572,-0.0000003611,-0.0000000579,-0.0000000851,-0.0000000239,-0.0000004443,-0.0000000866,-0.0000000703,-0.0000002007,-0.0000001325,0.0000004051,-0.0000003864,0.0000000530,0.0000000600,-0.0000000367,-0.0000000496,0.0000001713,0.0000000215,-0.0000004094,0.0000003100,-0.0000000231,0.0000002859,-0.0000000254,-0.0000000027,-0.0000002874,-0.0000002502,0.0000000652,0.0000000152,-0.0000001174,-0.0000000113,-0.0000001639,0.0000003777,0.0000002179,0.0000000425,0.0000000224,-0.0000002159,-0.0000002050,-0.0000002385,-0.0000002743,0.0000001674,-0.0000000865,0.0000000683,-0.0000001239,-0.0000002717,-0.0000000687,-0.0000000181,0.0000000228,-0.0000003238,-0.0000001634,-0.0000001974,0.0000000632,-0.0000000742,-0.0000003473,-0.0000002856,0.0000002900,0.0000001708,0.0000002556,0.0000000280,-0.0000003611,-0.0000001908,-0.0000000633,-0.0000000160,-0.0000001071,-0.0000001141,-0.0000001072,0.0000000707,0.0000002132,0.0000001770,-0.0000001690,0.0000001550,0.0000000694,-0.0000002838,-0.0000001407,-0.0000005913,0.0000002098,0.0000001790,-0.0000001583,-0.0000002007,-0.0000001201,0.0000000189,0.0000002949,0.0000001280
-0.0000001951,0.0000000430,0.0000001071,-0.0000002077,-0.0000001358,0.0000004129,-0.0000002784,-0.0000000248,-0.0000003282,0.0000001450,0.0000000587,0.0000006156,-0.0000001748,-0.0000000991,0.0000004139,-0.0000000626,0.0000001140,-0.0000001179,0.0000008039,0.0000001675,-0.0000000764,-0.0000001708,0.0000006774,0.0000006480,-0.0000002950,-0.0000000527,0.0000000943,-0.0000000749,0.0000008842,0.0000001822,-0.0000005526,-0.0000005463,-0.0000007063,-0.0000004742,-0.0000001177,0.0000003390,-0.0000000272,-0.0000001147,-0.0000007761,-0.0000000279,0.0000001044,-0.0000000135,0.0000001424,-0.0000000194,0.0000000570,-0.0000004463,0.0000002885,0.0000006626,0.0000001062,0.0000001561,0.0000000438,0.0000008154,0.0000001589,0.0000001291,0.0000003682,0.0000002431,-0.0000007433,0.0000007090,-0.0000000973,-0.0000001101,0.0000000673,0.0000000911,-0.0000003144,-0.0000000394,0.0000007513,-0.0000005689,0.0000000424,-0.0000005247,0.0000000465,0.0000000050,0.0000005274,0.0000004591,-0.0000001197,-0.0000000279,0.0000002154,0.0000000208,0.0000003008,-0.0000006930,-0.0000003999,-0.0000000780,-0.0000000412,0.0000003961,0.0000003761,0.0000004376,0.0000005033,-0.0000003072,0.0000001586,-0.0000001253,0.0000002274,0.0000004986,0.0000001261,0.0000000332,-0.0000000419,0.0000005942,0.0000002998,0.0000003623,-0.0000001159,0.0000001362,0.0000006373,0.0000005242,-0.0000005322,-0.0000003135,-0.0000004690,-0.0000000514,0.0000006627,0.0000003502,0.0000001162,0.0000000294,0.0000001965,0.0000002094,0.0000001968,-0.0000001297,-0.0000003913,-0.0000003248,0.0000003101,-0.0000002844,-0.0000001273,0.0000005207,0.0000002581,0.0000010852,-0.0000003850,-0.0000003285,0.0000002904,0.0000003682,0.0000002204,-0.0000000348,-0.0000005411,-0.0000002348
0.0000002226,-0.0000000491,-0.0000001222,0.0000002371,0.0000001550,-0.0000004712,0.0000003177,0.0000000283,0.0000003745,-0.0000001655,-0.0000000670,-0.0000007024,0.0000001995,0.0000001131,-0.0000004723,0.0000000715,-0.0000001301,0.0000001346,-0.0000009174,-0.0000001912,0.0000000872,0.0000001949,-0.0000007729,-0.0000007394,0.0000003366,0.0000000601,-0.0000001077,0.0000000855,-0.0000010089,-0.0000002079,0.0000006306,0.0000006233,0.0000008059,0.0000005412,0.0000001343,-0.0000003869,0.0000000311,0.0000001309,0.0000008855,0.0000000318,-0.0000001191,0.0000000154,-0.0000001625,0.0000000221,-0.0000000650,0.0000005093,-0.0000003292,-0.0000007561,-0.0000001212,-0.0000001782,-0.0000000500,-0.0000009304,-0.0000001813,-0.0000001473,-0.0000004202,-0.0000002774,0.0000008482,-0.0000008090,0.0000001110,0.0000001256,-0.0000000768,-0.0000001040,0.0000003588,0.0000000449,-0.0000008572,0.0000006492,-0.0000000484,0.0000005987,-0.0000000531,-0.0000000057,-0.0000006018,-0.0000005239,0.0000001366,0.0000000318,-0.0000002458,-0.0000000237,-0.0000003432,0.0000007908,0.0000004563,0.0000000890,0.0000000470,-0.0000004520,-0.0000004292,-0.0000004993,-0.0000005743,0.0000003506,-0.0000001810,0.0000001430,-0.0000002595,-0.0000005689,-0.0000001439,-0.0000000378,0.0000000478,-0.0000006780,-0.0000003421,-0.0000004134,0.0000001323,-0.0000001554,-0.0000007272,-0.0000005981,0.0000006073,0.0000003577,0.0000005352,0.0000000587,-0.0000007562,-0.0000003996,-0.0000001326,-0.0000000335,-0.0000002243,-0.0000002389,-0.0000002246,0.0000001480,0.0000004465,0.0000003707,-0.0000003538,0.0000003245,0.0000001452,-0.0000005942,-0.0000002945,-0.0000012383,0.0000004393,0.0000003748,-0.0000003314,-0.0000004202,-0.0000002515,0.0000000397,0.0000006174,0.0000002679
-0.0000000734,0.0000000162,0.0000000403,-0.0000000782,-0.0000000511,0.0000001554,-0.0000001048,-0.0000000093,-0.0000001235,0.0000000546,0.0000000221,0.0000002317,-0.0000000658,-0.0000000373,0.0000001558,-0.0000000236,0.0000000429,-0.0000000444,0.0000003026,0.0000000630,-0.0000000288,-0.0000000643,0.0000002549,0.0000002439,-0.0000001110,-0.0000000198,0.0000000355,-0.0000000282,0.0000003328,0.0000000686,-0.0000002080,-0.0000002056,-0.0000002658,-0.0000001785,-0.0000000443,0.0000001276,-0.0000000102,-0.0000000432,-0.0000002921,-0.0000000105,0.0000000393,-0.0000000051,0.0000000536,-0.0000000073,0.0000000215,-0.0000001680,0.0000001086,0.0000002494,0.0000000400,0.0000000588,0.0000000165,0.0000003069,0.0000000598,0.0000000486,0.0000001386,0.0000000915,-0.0000002798,0.0000002668,-0.0000000366,-0.0000000414,0.0000000253,0.0000000343,-0.0000001183,-0.0000000148,0.0000002827,-0.0000002141,0.0000000160,-0.0000001975,0.0000000175,0.0000000019,0.0000001985,0.0000001728,-0.0000000451,-0.0000000105,0.0000000811,0.0000000078,0.0000001132,-0.0000002608,-0.0000001505,-0.0000000294,-0.0000000155,0.0000001491,0.0000001416,0.0000001647,0.0000001894,-0.0000001156,0.0000000597,-0.0000000472,0.0000000856,0.0000001876,0.0000000475,0.0000000125,-0.0000000158,0.0000002236,0.0000001128,0.0000001363,-0.0000000436,0.0000000513,0.0000002399,0.0000001973,-0.0000002003,-0.0000001180,-0.0000001765,-0.0000000193,0.0000002494,0.0000001318,0.0000000437,0.0000000111,0.0000000740,0.0000000788,0.0000000741,-0.0000000488,-0.0000001473,-0.0000001223,0.0000001167,-0.0000001070,-0.0000000479,0.0000001960,0.0000000971,0.0000004084,-0.0000001449,-0.0000001236,0.0000001093,0.0000001386,0.0000000830,-0.0000000131,-0.0000002036,-0.0000000884
-0.0000002164,0.0000000477,0.0000001188,-0.0000002304,-0.0000001506,0.0000004580,-0.0000003089,-0.0000000275,-0.0000003641,0.0000001608,0.0000000651,0.0000006828,-0.0000001939,-0.0000001099,0.0000004591,-0.0000000695,0.0000001264,-0.0000001308,0.0000008918,0.0000001858,-0.0000000848,-0.0000001895,0.0000007514,0.0000007188,-0.0000003272,-0.0000000584,0.0000001047,-0.0000000831,0.0000009808,0.0000002021,-0.0000006130,-0.0000006059,-0.0000007835,-0.0000005261,-0.0000001306,0.0000003761,-0.0000000302,-0.0000001273,-0.0000008609,-0.0000000309,0.0000001158,-0.0000000149,0.0000001579,-0.0000000215,0.0000000632,-0.0000004951,0.0000003200,0.0000007350,0.0000001178,0.0000001732,0.0000000486,0.0000009045,0.0000001763,0.0000001432,0.0000004085,0.0000002696,-0.0000008245,0.0000007865,-0.0000001079,-0.0000001221,0.0000000746,0.0000001011,-0.0000003488,-0.0000000437,0.0000008333,-0.0000006311,0.0000000471,-0.0000005820,0.0000000516,0.0000000055,0.0000005850,0.0000005093,-0.0000001328,-0.0000000309,0.0000002390,0.0000000230,0.0000003337,-0.0000007688,-0.0000004436,-0.0000000865,-0.0000000457,0.0000004394,0.0000004172,0.0000004854,0.0000005583,-0.0000003408,0.0000001760,-0.0000001390,0.0000002523,0.0000005530,0.0000001399,0.0000000368,-0.0000000465,0.0000006591,0.0000003325,0.0000004018,-0.0000001286,0.0000001511,0.0000007069,0.0000005814,-0.0000005903,-0.0000003478,-0.0000005203,-0.0000000570,0.0000007351,0.0000003885,0.0000001289,0.0000000326,0.0000002180,0.0000002323,0.0000002183,-0.0000001439,-0.0000004341,-0.0000003603,0.0000003439,-0.0000003155,-0.0000001412,0.0000005776,0.0000002863,0.0000012037,-0.0000004271,-0.0000003644,0.0000003222,0.0000004085,0.0000002445,-0.0000000386,-0.0000006002,-0.0000002605
0.0000000079,-0.0000000017,-0.0000000043,0.0000000084,0.0000000055,-0.0000000167,0.0000000113,0.0000000010,0.0000000133,-0.0000000059,-0.0000000024,-0.0000000249,0.0000000071,0.0000000040,-0.0000000167,0.0000000025,-0.0000000046,0.0000000048,-0.0000000325,-0.0000000068,0.0000000031,0.0000000069,-0.0000000274,-0.0000000262,0.0000000119,0.0000000021,-0.0000000038,0.0000000030,-0.0000000357,-0.0000000074,0.0000000223,0.0000000221,0.0000000286,0.0000000192,0.0000000048,-0.0000000137,0.0000000011,0.0000000046,0.0000000314,0.0000000011,-0.0000000042,0.0000000005,-0.0000000058,0.0000000008,-0.0000000023,0.0000000180,-0.0000000117,-0.0000000268,-0.0000000043,-0.0000000063,-0.0000000018,-0.0000000330,-0.0000000064,-0.0000000052,-0.0000000149,-0.0000000098,0.0000000300,-0.0000000287,0.0000000039,0.0000000045,-0.0000000027,-0.0000000037,0.0000000127,0.0000000016,-0.0000000304,0.0000000230,-0.0000000017,0.0000000212,-0.0000000019,-0.0000000002,-0.0000000213,-0.0000000186,0.0000000048,0.0000000011,-0.0000000087,-0.0000000008,-0.0000000122,0.0000000280,0.0000000162,0.0000000032,0.0000000017,-0.0000000160,-0.0000000152,-0.0000000177,-0.0000000203,0.0000000124,-0.0000000064,0.0000000051,-0.0000000092,-0.0000000202,-0.0000000051,-0.0000000013,0.0000000017,-0.0000000240,-0.0000000121,-0.0000000146,0.0000000047,-0.0000000055,-0.0000000258,-0.0000000212,0.0000000215,0.0000000127,0.0000000190,0.0000000021,-0.0000000268,-0.0000000142,-0.0000000047,-0.0000000012,-0.0000000079,-0.0000000085,-0.0000000080,0.0000000052,0.0000000158,0.0000000131,-0.0000000125,0.0000000115,0.0000000051,-0.0000000210,-0.0000000104,-0.0000000439,0.0000000156,0.0000000133,-0.0000000117,-0.0000000149,-0.0000000089,0.0000000014,0.0000000219,0.0000000095
-0.0000000690,0.0000000152,0.0000000378,-0.0000000734,-0.0000000480,0.0000001459,-0.0000000984,-0.0000000088,-0.0000001160,0.0000000512,0.0000000208,0.0000002176,-0.0000000618,-0.0000000350,0.0000001463,-0.0000000221,0.0000000403,-0.0000000417,0.0000002841,0.0000000592,-0.0000000270,-0.0000000604,0.0000002394,0.0000002290,-0.0000001043,-0.0000000186,0.0000000333,-0.0000000265,0.0000003125,0.0000000644,-0.0000001953,-0.0000001931,-0.0000002496,-0.0000001676,-0.0000000416,0.0000001198,-0.0000000096,-0.0000000406,-0.0000002743,-0.0000000099,0.0000000369,-0.0000000048,0.0000000503,-0.0000000068,0.0000000201,-0.0000001578,0.0000001020,0.0000002342,0.0000000375,0.0000000552,0.0000000155,0.0000002882,0.0000000562,0.0000000456,0.0000001301,0.0000000859,-0.0000002627,0.0000002506,-0.0000000344,-0.0000000389,0.0000000238,0.0000000322,-0.0000001111,-0.0000000139,0.0000002655,-0.0000002011,0.0000000150,-0.0000001854,0.0000000164,0.0000000018,0.0000001864,0.0000001623,-0.0000000423,-0.0000000099,0.0000000761,0.0000000073,0.0000001063,-0.0000002449,-0.0000001413,-0.0000000276,-0.0000000145,0.0000001400,0.0000001329,0.0000001547,0.0000001779,-0.0000001086,0.0000000561,-0.0000000443,0.0000000804,0.0000001762,0.0000000446,0.0000000117,-0.0000000148,0.0000002100,0.0000001060,0.0000001280,-0.0000000410,0.0000000481,0.0000002252,0.0000001853,-0.0000001881,-0.0000001108,-0.0000001658,-0.0000000182,0.0000002342,0.0000001238,0.0000000411,0.0000000104,0.0000000695,0.0000000740,0.0000000696,-0.0000000458,-0.0000001383,-0.0000001148,0.0000001096,-0.0000001005,-0.0000000450,0.0000001840,0.0000000912,0.0000003835,-0.0000001361,-0.0000001161,0.0000001027,0.0000001301,0.0000000779,-0.0000000123,-0.0000001912,-0.0000000830
0.0000001378,-0.0000000304,-0.0000000756,0.0000001467,0.0000000959,-0.0000002917,0.0000001967,0.0000000175,0.0000002318,-0.0000001024,-0.0000000415,-0.0000004348,0.0000001235,0.0000000700,-0.0000002924,0.0000000442,-0.0000000805,0.0000000833,-0.0000005679,-0.0000001183,0.0000000540,0.0000001206,-0.0000004785,-0.0000004577,0.0000002083,0.0000000372,-0.0000000666,0.0000000529,-0.0000006246,-0.0000001287,0.0000003903,0.0000003858,0.0000004989,0.0000003350,0.0000000832,-0.0000002395,0.0000000192,0.0000000810,0.0000005482,0.0000000197,-0.0000000737,0.0000000095,-0.0000001006,0.0000000137,-0.0000000403,0.0000003153,-0.0000002038,-0.0000004680,-0.0000000750,-0.0000001103,-0.0000000310,-0.0000005759,-0.0000001122,-0.0000000912,-0.0000002601,-0.0000001717,0.0000005250,-0.0000005008,0.0000000687,0.0000000778,-0.0000000475,-0.0000000644,0.0000002221,0.0000000278,-0.0000005307,0.0000004019,-0.0000000300,0.0000003706,-0.0000000329,-0.0000000035,-0.0000003725,-0.0000003243,0.0000000846,0.0000000197,-0.0000001522,-0.0000000147,-0.0000002125,0.0000004895,0.0000002825,0.0000000551,0.0000000291,-0.0000002798,-0.0000002657,-0.0000003091,-0.0000003555,0.0000002170,-0.0000001121,0.0000000885,-0.0000001606,-0.0000003522,-0.0000000891,-0.0000000234,0.0000000296,-0.0000004197,-0.0000002117,-0.0000002559,0.0000000819,-0.0000000962,-0.0000004502,-0.0000003702,0.0000003759,0.0000002214,0.0000003313,0.0000000363,-0.0000004681,-0.0000002474,-0.0000000821,-0.0000000208,-0.0000001388,-0.0000001479,-0.0000001390,0.0000000916,0.0000002764,0.0000002294,-0.0000002190,0.0000002009,0.0000000899,-0.0000003678,-0.0000001823,-0.0000007665,0.0000002719,0.0000002320,-0.0000002051,-0.0000002601,-0.0000001557,0.0000000246,0.0000003822,0.0000001659
0.0000002591,-0.0000000572,-0.0000001422,0.0000002759,0.0000001804,-0.0000005484,0.0000003698,0.0000000329,0.0000004359,-0.0000001926,-0.0000000780,-0.0000008176,0.0000002322,0.0000001316,-0.0000005497,0.0000000832,-0.0000001514,0.0000001566,-0.0000010678,-0.0000002225,0.0000001015,0.0000002268,-0.0000008997,-0.0000008607,0.0000003918,0.0000000700,-0.0000001253,0.0000000995,-0.0000011744,-0.0000002420,0.0000007340,0.0000007255,0.0000009381,0.0000006299,0.0000001564,-0.0000004503,0.0000000361,0.0000001524,0.0000010308,0.0000000370,-0.0000001386,0.0000000179,-0.0000001891,0.0000000257,-0.0000000757,0.0000005928,-0.0000003832,-0.0000008801,-0.0000001411,-0.0000002074,-0.0000000582,-0.0000010830,-0.0000002111,-0.0000001714,-0.0000004891,-0.0000003228,0.0000009873,-0.0000009417,0.0000001292,0.0000001462,-0.0000000894,-0.0000001210,0.0000004176,0.0000000523,-0.0000009978,0.0000007556,-0.0000000564,0.0000006969,-0.0000000618,-0.0000000066,-0.0000007004,-0.0000006098,0.0000001590,0.0000000371,-0.0000002861,-0.0000000276,-0.0000003995,0.0000009205,0.0000005311,0.0000001036,0.0000000547,-0.0000005261,-0.0000004996,-0.0000005812,-0.0000006685,0.0000004080,-0.0000002107,0.0000001665,-0.0000003021,-0.0000006622,-0.0000001675,-0.0000000441,0.0000000556,-0.0000007892,-0.0000003982,-0.0000004812,0.0000001540,-0.0000001809,-0.0000008465,-0.0000006962,0.0000007069,0.0000004164,0.0000006229,0.0000000683,-0.0000008802,-0.0000004651,-0.0000001544,-0.0000000390,-0.0000002610,-0.0000002781,-0.0000002614,0.0000001722,0.0000005197,0.0000004314,-0.0000004118,0.0000003778,0.0000001691,-0.0000006916,-0.0000003428,-0.0000014413,0.0000005113,0.0000004363,-0.0000003858,-0.0000004891,-0.0000002928,0.0000000462,0.0000007187,0.0000003119
-0.0000000006,0.0000000001,0.0000000003,-0.0000000006,-0.0000000004,0.0000000012,-0.0000000008,-0.0000000001,-0.0000000010,0.0000000004,0.0000000002,0.0000000018,-0.0000000005,-0.0000000003,0.0000000012,-0.0000000002,0.0000000003,-0.0000000004,0.0000000024,0.0000000005,-0.0000000002,-0.0000000005,0.0000000020,0.0000000019,-0.0000000009,-0.0000000002,0.0000000003,-0.0000000002,0.0000000026,0.0000000005,-0.0000000017,-0.0000000016,-0.0000000021,-0.0000000014,-0.0000000004,0.0000000010,-0.0000000001,-0.0000000003,-0.0000000023,-0.0000000001,0.0000000003,-0.0000000000,0.0000000004,-0.0000000001,0.0000000002,-0.0000000013,0.0000000009,0.0000000020,0.0000000003,0.0000000005,0.0000000001,0.0000000024,0.0000000005,0.0000000004,0.0000000011,0.0000000007,-0.0000000022,0.0000000021,-0.0000000003,-0.0000000003,0.0000000002,0.0000000003,-0.0000000009,-0.0000000001,0.0000000022,-0.0000000017,0.0000000001,-0.0000000016,0.0000000001,0.0000000000,0.0000000016,0.0000000014,-0.0000000004,-0.0000000001,0.0000000006,0.0000000001,0.0000000009,-0.0000000021,-0.0000000012,-0.0000000002,-0.0000000001,0.0000000012,0.0000000011,0.0000000013,0.0000000015,-0.0000000009,0.0000000005,-0.0000000004,0.0000000007,0.0000000015,0.0000000004,0.0000000001,-0.0000000001,0.0000000018,0.0000000009,0.0000000011,-0.0000000003,0.0000000004,0.0000000019,0.0000000016,-0.0000000016,-0.0000000009,-0.0000000014,-0.0000000002,0.0000000020,0.0000000010,0.0000000003,0.0000000001,0.0000000006,0.0000000006,0.0000000006,-0.0000000004,-0.0000000012,-0.0000000010,0.0000000009,-0.0000000009,-0.0000000004,0.0000000016,0.0000000008,0.0000000032,-0.0000000012,-0.0000000010,0.0000000009,0.0000000011,0.0000000007,-0.0000000001,-0.0000000016,-0.0000000007
0.0000001578,-0.0000000348,-0.0000000866,0.0000001680,0.0000001098,-0.0000003340,0.0000002252,0.0000000200,0.0000002655,-0.0000001173,-0.0000000475,-0.0000004980,0.0000001414,0.0000000802,-0.0000003348,0.0000000507,-0.0000000922,0.0000000954,-0.0000006503,-0.0000001355,0.0000000618,0.0000001382,-0.0000005479,-0.0000005242,0.0000002386,0.0000000426,-0.0000000763,0.0000000606,-0.0000007152,-0.0000001474,0.0000004470,0.0000004419,0.0000005713,0.0000003836,0.0000000952,-0.0000002743,0.0000000220,0.0000000928,0.0000006278,0.0000000225,-0.0000000844,0.0000000109,-0.0000001152,0.0000000157,-0.0000000461,0.0000003611,-0.0000002334,-0.0000005360,-0.0000000859,-0.0000001263,-0.0000000354,-0.0000006596,-0.0000001285,-0.0000001044,-0.0000002979,-0.0000001966,0.0000006013,-0.0000005735,0.0000000787,0.0000000891,-0.0000000544,-0.0000000737,0.0000002543,0.0000000318,-0.0000006077,0.0000004602,-0.0000000343,0.0000004244,-0.0000000376,-0.0000000040,-0.0000004266,-0.0000003714,0.0000000968,0.0000000226,-0.0000001743,-0.0000000168,-0.0000002433,0.0000005606,0.0000003235,0.0000000631,0.0000000333,-0.0000003204,-0.0000003042,-0.0000003540,-0.0000004071,0.0000002485,-0.0000001283,0.0000001014,-0.0000001840,-0.0000004033,-0.0000001020,-0.0000000268,0.0000000339,-0.0000004806,-0.0000002425,-0.0000002930,0.0000000938,-0.0000001102,-0.0000005155,-0.0000004240,0.0000004305,0.0000002536,0.0000003794,0.0000000416,-0.0000005360,-0.0000002833,-0.0000000940,-0.0000000238,-0.0000001590,-0.0000001694,-0.0000001592,0.0000001049,0.0000003165,0.0000002628,-0.0000002508,0.0000002301,0.0000001030,-0.0000004212,-0.0000002088,-0.0000008778,0.0000003114,0.0000002657,-0.0000002349,-0.0000002979,-0.0000001783,0.0000000281,0.0000004377,0.0000001899
0.0000000998,-0.0000000220,-0.0000000548,0.0000001062,0.0000000694,-0.0000002112,0.0000001424,0.0000000127,0.0000001679,-0.0000000742,-0.0000000300,-0.0000003148,0.0000000894,0.0000000507,-0.0000002117,0.0000000320,-0.0000000583,0.0000000603,-0.0000004111,-0.0000000857,0.0000000391,0.0000000873,-0.0000003464,-0.0000003314,0.0000001508,0.0000000269,-0.0000000482,0.0000000383,-0.0000004522,-0.0000000932,0.0000002826,0.0000002794,0.0000003612,0.0000002425,0.0000000602,-0.0000001734,0.0000000139,0.0000000587,0.0000003969,0.0000000143,-0.0000000534,0.0000000069,-0.0000000728,0.0000000099,-0.0000000292,0.0000002283,-0.0000001476,-0.0000003389,-0.0000000543,-0.0000000799,-0.0000000224,-0.0000004170,-0.0000000813,-0.0000000660,-0.0000001883,-0.0000001243,0.0000003801,-0.0000003626,0.0000000498,0.0000000563,-0.0000000344,-0.0000000466,0.0000001608,0.0000000201,-0.0000003842,0.0000002909,-0.0000000217,0.0000002683,-0.0000000238,-0.0000000025,-0.0000002697,-0.0000002348,0.0000000612,0.0000000143,-0.0000001102,-0.0000000106,-0.0000001538,0.0000003544,0.0000002045,0.0000000399,0.0000000210,-0.0000002026,-0.0000001923,-0.0000002238,-0.0000002574,0.0000001571,-0.0000000811,0.0000000641,-0.0000001163,-0.0000002550,-0.0000000645,-0.0000000170,0.0000000214,-0.0000003039,-0.0000001533,-0.0000001853,0.0000000593,-0.0000000697,-0.0000003259,-0.0000002681,0.0000002722,0.0000001603,0.0000002399,0.0000000263,-0.0000003389,-0.0000001791,-0.0000000594,-0.0000000150,-0.0000001005,-0.0000001071,-0.0000001006,0.0000000663,0.0000002001,0.0000001661,-0.0000001586,0.0000001455,0.0000000651,-0.0000002663,-0.0000001320,-0.0000005550,0.0000001969,0.0000001680,-0.0000001485,-0.0000001883,-0.0000001127,0.0000000178,0.0000002767,0.0000001201
-0.0000000207,0.0000000046,0.0000000113,-0.0000000220,-0.0000000144,0.0000000437,-0.0000000295,-0.0000000026,-0.0000000348,0.0000000154,0.0000000062,0.0000000652,-0.0000000185,-0.0000000105,0.0000000438,-0.0000000066,0.0000000121,-0.0000000125,0.0000000851,0.0000000177,-0.0000000081,-0.0000000181,0.0000000717,0.0000000686,-0.0000000312,-0.0000000056,0.0000000100,-0.0000000079,0.0000000936,0.0000000193,-0.0000000585,-0.0000000579,-0.0000000748,-0.0000000502,-0.0000000125,0.0000000359,-0.0000000029,-0.0000000122,-0.0000000822,-0.0000000030,0.0000000111,-0.0000000014,0.0000000151,-0.0000000021,0.0000000060,-0.0000000473,0.0000000306,0.0000000702,0.0000000112,0.0000000165,0.0000000046,0.0000000864,0.0000000168,0.0000000137,0.0000000390,0.0000000257,-0.0000000787,0.0000000751,-0.0000000103,-0.0000000117,0.0000000071,0.0000000096,-0.0000000333,-0.0000000042,0.0000000796,-0.0000000603,0.0000000045,-0.0000000556,0.0000000049,0.0000000005,0.0000000559,0.0000000486,-0.0000000127,-0.0000000030,0.0000000228,0.0000000022,0.0000000319,-0.0000000734,-0.0000000424,-0.0000000083,-0.0000000044,0.0000000420,0.0000000398,0.0000000463,0.0000000533,-0.0000000325,0.0000000168,-0.0000000133,0.0000000241,0.0000000528,0.0000000134,0.0000000035,-0.0000000044,0.0000000629,0.0000000317,0.0000000384,-0.0000000123,0.0000000144,0.0000000675,0.0000000555,-0.0000000564,-0.0000000332,-0.0000000497,-0.0000000054,0.0000000702,0.0000000371,0.0000000123,0.0000000031,0.0000000208,0.0000000222,0.0000000208,-0.0000000137,-0.0000000414,-0.0000000344,0.0000000328,-0.0000000301,-0.0000000135,0.0000000551,0.0000000273,0.0000001149,-0.0000000408,-0.0000000348,0.0000000308,0.0000000390,0.0000000233,-0.0000000037,-0.0000000573,-0.0000000249
-0.0000001626,0.0000000359,0.0000000892,-0.0000001731,-0.0000001131,0.0000003440,-0.0000002320,-0.0000000206,-0.0000002735,0.0000001208,0.0000000489,0.0000005129,-0.0000001456,-0.0000000826,0.0000003449,-0.0000000522,0.0000000950,-0.0000000983,0.0000006699,0.0000001396,-0.0000000637,-0.0000001423,0.0000005644,0.0000005399,-0.0000002458,-0.0000000439,0.0000000786,-0.0000000624,0.0000007367,0.0000001518,-0.0000004604,-0.0000004552,-0.0000005885,-0.0000003952,-0.0000000981,0.0000002825,-0.0000000227,-0.0000000956,-0.0000006466,-0.0000000232,0.0000000870,-0.0000000112,0.0000001186,-0.0000000161,0.0000000475,-0.0000003719,0.0000002404,0.0000005521,0.0000000885,0.0000001301,0.0000000365,0.0000006794,0.0000001324,0.0000001076,0.0000003068,0.0000002025,-0.0000006194,0.0000005908,-0.0000000811,-0.0000000917,0.0000000561,0.0000000759,-0.0000002620,-0.0000000328,0.0000006260,-0.0000004740,0.0000000354,-0.0000004372,0.0000000388,0.0000000041,0.0000004394,0.0000003825,-0.0000000997,-0.0000000232,0.0000001795,0.0000000173,0.0000002506,-0.0000005774,-0.0000003332,-0.0000000650,-0.0000000343,0.0000003301,0.0000003134,0.0000003646,0.0000004194,-0.0000002560,0.0000001322,-0.0000001044,0.0000001895,0.0000004154,0.0000001051,0.0000000276,-0.0000000349,0.0000004951,0.0000002498,0.0000003018,-0.0000000966,0.0000001135,0.0000005310,0.0000004367,-0.0000004434,-0.0000002612,-0.0000003908,-0.0000000428,0.0000005522,0.0000002918,0.0000000969,0.0000000245,0.0000001638,0.0000001745,0.0000001640,-0.0000001081,-0.0000003260,-0.0000002707,0.0000002584,-0.0000002370,-0.0000001061,0.0000004339,0.0000002151,0.0000009042,-0.0000003208,-0.0000002737,0.0000002420,0.0000003068,0.0000001837,-0.0000000290,-0.0000004509,-0.0000001956
-0.0000000027,0.0000000006,0.0000000015,-0.0000000028,-0.0000000019,0.0000000056,-0.0000000038,-0.0000000003,-0.0000000045,0.0000000020,0.0000000008,0.0000000084,-0.0000000024,-0.0000000014,0.0000000057,-0.0000000009,0.0000000016,-0.0000000016,0.0000000110,0.0000000023,-0.0000000010,-0.0000000023,0.0000000092,0.0000000088,-0.0000000040,-0.0000000007,0.0000000013,-0.0000000010,0.0000000121,0.0000000025,-0.0000000075,-0.0000000075,-0.0000000096,-0.0000000065,-0.0000000016,0.0000000046,-0.0000000004,-0.0000000016,-0.0000000106,-0.0000000004,0.0000000014,-0.0000000002,0.0000000019,-0.0000000003,0.0000000008,-0.0000000061,0.0000000039,0.0000000090,0.0000000014,0.0000000021,0.0000000006,0.0000000111,0.0000000022,0.0000000018,0.0000000050,0.0000000033,-0.0000000101,0.0000000097,-0.0000000013,-0.0000000015,0.0000000009,0.0000000012,-0.0000000043,-0.0000000005,0.0000000103,-0.0000000078,0.0000000006,-0.0000000072,0.0000000006,0.0000000001,0.0000000072,0.0000000063,-0.0000000016,-0.0000000004,0.0000000029,0.0000000003,0.0000000041,-0.0000000095,-0.0000000055,-0.0000000011,-0.0000000006,0.0000000054,0.0000000051,0.0000000060,0.0000000069,-0.0000000042,0.0000000022,-0.0000000017,0.0000000031,0.0000000068,0.0000000017,0.0000000005,-0.0000000006,0.0000000081,0.0000000041,0.0000000049,-0.0000000016,0.0000000019,0.0000000087,0.0000000072,-0.0000000073,-0.0000000043,-0.0000000064,-0.0000000007,0.0000000090,0.0000000048,0.0000000016,0.0000000004,0.0000000027,0.0000000029,0.0000000027,-0.0000000018,-0.0000000053,-0.0000000044,0.0000000042,-0.0000000039,-0.0000000017,0.0000000071,0.0000000035,0.0000000148,-0.0000000053,-0.0000000045,0.0000000040,0.0000000050,0.0000000030,-0.0000000005,-0.0000000074,-0.0000000032
-0.0000000364,0.0000000080,0.0000000200,-0.0000000388,-0.0000000254,0.0000000771,-0.0000000520,-0.0000000046,-0.0000000613,0.0000000271,0.0000000110,0.0000001149,-0.0000000326,-0.0000000185,0.0000000773,-0.0000000117,0.0000000213,-0.0000000220,0.0000001501,0.0000000313,-0.0000000143,-0.0000000319,0.0000001265,0.0000001210,-0.0000000551,-0.0000000098,0.0000000176,-0.0000000140,0.0000001651,0.0000000340,-0.0000001032,-0.0000001020,-0.0000001319,-0.0000000886,-0.0000000220,0.0000000633,-0.0000000051,-0.0000000214,-0.0000001449,-0.0000000052,0.0000000195,-0.0000000025,0.0000000266,-0.0000000036,0.0000000106,-0.0000000833,0.0000000539,0.0000001237,0.0000000198,0.0000000292,0.0000000082,0.0000001523,0.0000000297,0.0000000241,0.0000000688,0.0000000454,-0.0000001388,0.0000001324,-0.0000000182,-0.0000000206,0.0000000126,0.0000000170,-0.0000000587,-0.0000000074,0.0000001403,-0.0000001062,0.0000000079,-0.0000000980,0.0000000087,0.0000000009,0.0000000985,0.0000000857,-0.0000000224,-0.0000000052,0.0000000402,0.0000000039,0.0000000562,-0.0000001294,-0.0000000747,-0.0000000146,-0.0000000077,0.0000000740,0.0000000702,0.0000000817,0.0000000940,-0.0000000574,0.0000000296,-0.0000000234,0.0000000425,0.0000000931,0.0000000236,0.0000000062,-0.0000000078,0.0000001110,0.0000000560,0.0000000676,-0.0000000216,0.0000000254,0.0000001190,0.0000000979,-0.0000000994,-0.0000000585,-0.0000000876,-0.0000000096,0.0000001237,0.0000000654,0.0000000217,0.0000000055,0.0000000367,0.0000000391,0.0000000367,-0.0000000242,-0.0000000731,-0.0000000607,0.0000000579,-0.0000000531,-0.0000000238,0.0000000972,0.0000000482,0.0000002026,-0.0000000719,-0.0000000613,0.0000000542,0.0000000688,0.0000000412,-0.0000000065,-0.0000001010,-0.0000000438
0.0000000706,-0.0000000156,-0.0000000387,0.0000000751,0.0000000491,-0.0000001494,0.0000001007,0.0000000090,0.0000001187,-0.0000000525,-0.0000000212,-0.0000002227,0.0000000632,0.0000000359,-0.0000001497,0.0000000227,-0.0000000412,0.0000000427,-0.0000002908,-0.0000000606,0.0000000276,0.0000000618,-0.0000002450,-0.0000002344,0.0000001067,0.0000000191,-0.0000000341,0.0000000271,-0.0000003198,-0.0000000659,0.0000001999,0.0000001976,0.0000002555,0.0000001715,0.0000000426,-0.0000001226,0.0000000098,0.0000000415,0.0000002807,0.0000000101,-0.0000000378,0.0000000049,-0.0000000515,0.0000000070,-0.0000000206,0.0000001615,-0.0000001044,-0.0000002397,-0.0000000384,-0.0000000565,-0.0000000159,-0.0000002949,-0.0000000575,-0.0000000467,-0.0000001332,-0.0000000879,0.0000002689,-0.0000002565,0.0000000352,0.0000000398,-0.0000000243,-0.0000000330,0.0000001137,0.0000000142,-0.0000002717,0.0000002058,-0.0000000154,0.0000001898,-0.0000000168,-0.0000000018,-0.0000001908,-0.0000001661,0.0000000433,0.0000000101,-0.0000000779,-0.0000000075,-0.0000001088,0.0000002507,0.0000001446,0.0000000282,0.0000000149,-0.0000001433,-0.0000001360,-0.0000001583,-0.0000001821,0.0000001111,-0.0000000574,0.0000000453,-0.0000000823,-0.0000001803,-0.0000000456,-0.0000000120,0.0000000151,-0.0000002149,-0.0000001084,-0.0000001310,0.0000000419,-0.0000000493,-0.0000002305,-0.0000001896,0.0000001925,0.0000001134,0.0000001697,0.0000000186,-0.0000002397,-0.0000001267,-0.0000000420,-0.0000000106,-0.0000000711,-0.0000000757,-0.0000000712,0.0000000469,0.0000001415,0.0000001175,-0.0000001122,0.0000001029,0.0000000460,-0.0000001884,-0.0000000934,-0.0000003925,0.0000001393,0.0000001188,-0.0000001051,-0.0000001332,-0.0000000797,0.0000000126,0.0000001957,0.0000000849
-0.0000000881,0.0000000194,0.0000000483,-0.0000000938,-0.0000000613,0.0000001864,-0.0000001257,-0.0000000112,-0.0000001481,0.0000000654,0.0000000265,0.0000002779,-0.0000000789,-0.0000000447,0.0000001868,-0.0000000283,0.0000000514,-0.0000000532,0.0000003629,0.0000000756,-0.0000000345,-0.0000000771,0.0000003057,0.0000002925,-0.0000001331,-0.0000000238,0.0000000426,-0.0000000338,0.0000003991,0.0000000822,-0.0000002494,-0.0000002466,-0.0000003188,-0.0000002141,-0.0000000531,0.0000001530,-0.0000000123,-0.0000000518,-0.0000003503,-0.0000000126,0.0000000471,-0.0000000061,0.0000000643,-0.0000000087,0.0000000257,-0.0000002015,0.0000001302,0.0000002991,0.0000000479,0.0000000705,0.0000000198,0.0000003680,0.0000000717,0.0000000583,0.0000001662,0.0000001097,-0.0000003355,0.0000003200,-0.0000000439,-0.0000000497,0.0000000304,0.0000000411,-0.0000001419,-0.0000000178,0.0000003391,-0.0000002568,0.0000000192,-0.0000002368,0.0000000210,0.0000000022,0.0000002380,0.0000002072,-0.0000000540,-0.0000000126,0.0000000972,0.0000000094,0.0000001358,-0.0000003128,-0.0000001805,-0.0000000352,-0.0000000186,0.0000001788,0.0000001698,0.0000001975,0.0000002272,-0.0000001387,0.0000000716,-0.0000000566,0.0000001027,0.0000002250,0.0000000569,0.0000000150,-0.0000000189,0.0000002682,0.0000001353,0.0000001635,-0.0000000523,0.0000000615,0.0000002877,0.0000002366,-0.0000002402,-0.0000001415,-0.0000002117,-0.0000000232,0.0000002991,0.0000001581,0.0000000525,0.0000000133,0.0000000887,0.0000000945,0.0000000888,-0.0000000585,-0.0000001766,-0.0000001466,0.0000001400,-0.0000001284,-0.0000000575,0.0000002350,0.0000001165,0.0000004898,-0.0000001738,-0.0000001483,0.0000001311,0.0000001662,0.0000000995,-0.0000000157,-0.0000002442,-0.0000001060
-0.0000002993,0.0000000660,0.0000001643,-0.0000003187,-0.0000002083,0.0000006334,-0.0000004271,-0.0000000380,-0.0000005035,0.0000002224,0.0000000901,0.0000009443,-0.0000002681,-0.0000001520,0.0000006350,-0.0000000961,0.0000001748,-0.0000001809,0.0000012333,0.0000002570,-0.0000001172,-0.0000002620,0.0000010391,0.0000009941,-0.0000004525,-0.0000000808,0.0000001447,-0.0000001149,0.0000013564,0.0000002795,-0.0000008477,-0.0000008380,-0.0000010835,-0.0000007275,-0.0000001806,0.0000005201,-0.0000000418,-0.0000001760,-0.0000011905,-0.0000000428,0.0000001601,-0.0000000207,0.0000002184,-0.0000000297,0.0000000874,-0.0000006847,0.0000004426,0.0000010165,0.0000001629,0.0000002395,0.0000000672,0.0000012508,0.0000002438,0.0000001980,0.0000005649,0.0000003729,-0.0000011403,0.0000010877,-0.0000001493,-0.0000001689,0.0000001032,0.0000001398,-0.0000004823,-0.0000000604,0.0000011525,-0.0000008728,0.0000000651,-0.0000008049,0.0000000714,0.0000000076,0.0000008090,0.0000007043,-0.0000001836,-0.0000000428,0.0000003305,0.0000000319,0.0000004614,-0.0000010631,-0.0000006135,-0.0000001197,-0.0000000631,0.0000006077,0.0000005770,0.0000006713,0.0000007721,-0.0000004713,0.0000002434,-0.0000001923,0.0000003489,0.0000007648,0.0000001935,0.0000000509,-0.0000000642,0.0000009115,0.0000004599,0.0000005557,-0.0000001778,0.0000002089,0.0000009777,0.0000008041,-0.0000008164,-0.0000004809,-0.0000007195,-0.0000000789,0.0000010166,0.0000005372,0.0000001783,0.0000000451,0.0000003015,0.0000003212,0.0000003019,-0.0000001989,-0.0000006003,-0.0000004983,0.0000004757,-0.0000004363,-0.0000001953,0.0000007988,0.0000003960,0.0000016647,-0.0000005906,-0.0000005039,0.0000004455,0.0000005649,0.0000003382,-0.0000000533,-0.0000008301,-0.0000003602
0.0000000639,-0.0000000141,-0.0000000351,0.0000000681,0.0000000445,-0.0000001353,0.0000000912,0.0000000081,0.0000001075,-0.0000000475,-0.0000000192,-0.0000002017,0.0000000573,0.0000000325,-0.0000001356,0.0000000205,-0.0000000373,0.0000000386,-0.0000002634,-0.0000000549,0.0000000250,0.0000000560,-0.0000002219,-0.0000002123,0.0000000966,0.0000000173,-0.0000000309,0.0000000245,-0.0000002897,-0.0000000597,0.0000001810,0.0000001790,0.0000002314,0.0000001554,0.0000000386,-0.0000001111,0.0000000089,0.0000000376,0.0000002542,0.0000000091,-0.0000000342,0.0000000044,-0.0000000466,0.0000000063,-0.0000000187,0.0000001462,-0.0000000945,-0.0000002171,-0.0000000348,-0.0000000512,-0.0000000144,-0.0000002671,-0.0000000521,-0.0000000423,-0.0000001206,-0.0000000796,0.0000002435,-0.0000002323,0.0000000319,0.0000000361,-0.0000000220,-0.0000000298,0.0000001030,0.0000000129,-0.0000002461,0.0000001864,-0.0000000139,0.0000001719,-0.0000000152,-0.0000000016,-0.0000001728,-0.0000001504,0.0000000392,0.0000000091,-0.0000000706,-0.0000000068,-0.0000000985,0.0000002270,0.0000001310,0.0000000256,0.0000000135,-0.0000001298,-0.0000001232,-0.0000001434,-0.0000001649,0.0000001006,-0.0000000520,0.0000000411,-0.0000000745,-0.0000001633,-0.0000000413,-0.0000000109,0.0000000137,-0.0000001947,-0.0000000982,-0.0000001187,0.0000000380,-0.0000000446,-0.0000002088,-0.0000001717,0.0000001743,0.0000001027,0.0000001536,0.0000000168,-0.0000002171,-0.0000001147,-0.0000000381,-0.0000000096,-0.0000000644,-0.0000000686,-0.0000000645,0.0000000425,0.0000001282,0.0000001064,-0.0000001016,0.0000000932,0.0000000417,-0.0000001706,-0.0000000846,-0.0000003555,0.0000001261,0.0000001076,-0.0000000951,-0.0000001206,-0.0000000722,0.0000000114,0.0000001773,0.0000000769
0.0000002293,-0.0000000506,-0.0000001258,0.0000002441,0.0000001596,-0.0000004852,0.0000003272,0.0000000291,0.0000003857,-0.0000001704,-0.0000000690,-0.0000007234,0.0000002054,0.0000001165,-0.0000004864,0.0000000736,-0.0000001339,0.0000001386,-0.0000009447,-0.0000001969,0.0000000898,0.0000002007,-0.0000007960,-0.0000007615,0.0000003466,0.0000000619,-0.0000001109,0.0000000880,-0.0000010391,-0.0000002141,0.0000006494,0.0000006419,0.0000008300,0.0000005573,0.0000001383,-0.0000003984,0.0000000320,0.0000001348,0.0000009120,0.0000000328,-0.0000001227,0.0000000158,-0.0000001673,0.0000000228,-0.0000000670,0.0000005245,-0.0000003391,-0.0000007786,-0.0000001248,-0.0000001835,-0.0000000515,-0.0000009582,-0.0000001867,-0.0000001517,-0.0000004327,-0.0000002856,0.0000008735,-0.0000008332,0.0000001143,0.0000001294,-0.0000000791,-0.0000001071,0.0000003695,0.0000000463,-0.0000008828,0.0000006686,-0.0000000499,0.0000006166,-0.0000000547,-0.0000000058,-0.0000006197,-0.0000005395,0.0000001407,0.0000000328,-0.0000002532,-0.0000000244,-0.0000003535,0.0000008144,0.0000004699,0.0000000917,0.0000000484,-0.0000004655,-0.0000004420,-0.0000005142,-0.0000005915,0.0000003610,-0.0000001864,0.0000001473,-0.0000002673,-0.0000005859,-0.0000001482,-0.0000000390,0.0000000492,-0.0000006982,-0.0000003523,-0.0000004257,0.0000001362,-0.0000001601,-0.0000007489,-0.0000006160,0.0000006254,0.0000003684,0.0000005512,0.0000000604,-0.0000007787,-0.0000004115,-0.0000001366,-0.0000000345,-0.0000002310,-0.0000002460,-0.0000002313,0.0000001524,0.0000004598,0.0000003817,-0.0000003644,0.0000003342,0.0000001496,-0.0000006119,-0.0000003033,-0.0000012752,0.0000004524,0.0000003860,-0.0000003413,-0.0000004327,-0.0000002590,0.0000000409,0.0000006359,0.0000002759
0.0000002618,-0.0000000578,-0.0000001437,0.0000002788,0.0000001822,-0.0000005541,0.0000003736,0.0000000332,0.0000004405,-0.0000001946,-0.0000000788,-0.0000008261,0.0000002346,0.0000001330,-0.0000005554,0.0000000840,-0.0000001529,0.0000001583,-0.0000010789,-0.0000002248,0.0000001025,0.0000002292,-0.0000009090,-0.0000008696,0.0000003958,0.0000000707,-0.0000001266,0.0000001005,-0.0000011866,-0.0000002445,0.0000007416,0.0000007331,0.0000009478,0.0000006364,0.0000001580,-0.0000004550,0.0000000365,0.0000001540,0.0000010414,0.0000000374,-0.0000001401,0.0000000181,-0.0000001911,0.0000000260,-0.0000000765,0.0000005990,-0.0000003872,-0.0000008892,-0.0000001425,-0.0000002095,-0.0000000588,-0.0000010942,-0.0000002133,-0.0000001732,-0.0000004941,-0.0000003262,0.0000009975,-0.0000009515,0.0000001306,0.0000001477,-0.0000000903,-0.0000001223,0.0000004220,0.0000000528,-0.0000010082,0.0000007635,-0.0000000570,0.0000007041,-0.0000000625,-0.0000000067,-0.0000007077,-0.0000006161,0.0000001606,0.0000000374,-0.0000002891,-0.0000000279,-0.0000004037,0.0000009300,0.0000005366,0.0000001047,0.0000000552,-0.0000005316,-0.0000005047,-0.0000005872,-0.0000006754,0.0000004123,-0.0000002129,0.0000001682,-0.0000003052,-0.0000006691,-0.0000001693,-0.0000000445,0.0000000562,-0.0000007974,-0.0000004023,-0.0000004861,0.0000001556,-0.0000001828,-0.0000008552,-0.0000007034,0.0000007142,0.0000004207,0.0000006294,0.0000000690,-0.0000008893,-0.0000004700,-0.0000001560,-0.0000000394,-0.0000002638,-0.0000002810,-0.0000002641,0.0000001740,0.0000005251,0.0000004359,-0.0000004161,0.0000003817,0.0000001708,-0.0000006988,-0.0000003464,-0.0000014563,0.0000005167,0.0000004408,-0.0000003898,-0.0000004941,-0.0000002958,0.0000000467,0.0000007261,0.0000003151
0.0000000102,-0.0000000023,-0.0000000056,0.0000000109,0.0000000071,-0.0000000216,0.0000000146,0.0000000013,0.0000000172,-0.0000000076,-0.0000000031,-0.0000000322,0.0000000091,0.0000000052,-0.0000000217,0.0000000033,-0.0000000060,0.0000000062,-0.0000000421,-0.0000000088,0.0000000040,0.0000000089,-0.0000000354,-0.0000000339,0.0000000154,0.0000000028,-0.0000000049,0.0000000039,-0.0000000463,-0.0000000095,0.0000000289,0.0000000286,0.0000000370,0.0000000248,0.0000000062,-0.0000000177,0.0000000014,0.0000000060,0.0000000406,0.0000000015,-0.0000000055,0.0000000007,-0.0000000075,0.0000000010,-0.0000000030,0.0000000234,-0.0000000151,-0.0000000347,-0.0000000056,-0.0000000082,-0.0000000023,-0.0000000427,-0.0000000083,-0.0000000068,-0.0000000193,-0.0000000127,0.0000000389,-0.0000000371,0.0000000051,0.0000000058,-0.0000000035,-0.0000000048,0.0000000165,0.0000000021,-0.0000000393,0.0000000298,-0.0000000022,0.0000000275,-0.0000000024,-0.0000000003,-0.0000000276,-0.0000000240,0.0000000063,0.0000000015,-0.0000000113,-0.0000000011,-0.0000000157,0.0000000363,0.0000000209,0.0000000041,0.0000000022,-0.0000000207,-0.0000000197,-0.0000000229,-0.0000000263,0.0000000161,-0.0000000083,0.0000000066,-0.0000000119,-0.0000000261,-0.0000000066,-0.0000000017,0.0000000022,-0.0000000311,-0.0000000157,-0.0000000190,0.0000000061,-0.0000000071,-0.0000000333,-0.0000000274,0.0000000278,0.0000000164,0.0000000245,0.0000000027,-0.0000000347,-0.0000000183,-0.0000000061,-0.0000000015,-0.0000000103,-0.0000000110,-0.0000000103,0.0000000068,0.0000000205,0.0000000170,-0.0000000162,0.0000000149,0.0000000067,-0.0000000272,-0.0000000135,-0.0000000568,0.0000000201,0.0000000172,-0.0000000152,-0.0000000193,-0.0000000115,0.0000000018,0.0000000283,0.0000000123
-0.0000002117,0.0000000467,0.0000001162,-0.0000002254,-0.0000001473,0.0000004480,-0.0000003021,-0.0000000269,-0.0000003561,0.0000001573,0.0000000637,0.0000006679,-0.0000001897,-0.0000001075,0.0000004491,-0.0000000680,0.0000001237,-0.0000001280,0.0000008723,0.0000001818,-0.0000000829,-0.0000001853,0.0000007350,0.0000007031,-0.0000003200,-0.0000000571,0.0000001024,-0.0000000813,0.0000009594,0.0000001977,-0.0000005996,-0.0000005927,-0.0000007663,-0.0000005146,-0.0000001277,0.0000003679,-0.0000000295,-0.0000001245,-0.0000008420,-0.0000000302,0.0000001132,-0.0000000146,0.0000001545,-0.0000000210,0.0000000619,-0.0000004843,0.0000003130,0.0000007189,0.0000001152,0.0000001694,0.0000000475,0.0000008847,0.0000001724,0.0000001401,0.0000003995,0.0000002637,-0.0000008065,0.0000007693,-0.0000001056,-0.0000001195,0.0000000730,0.0000000989,-0.0000003412,-0.0000000427,0.0000008151,-0.0000006173,0.0000000461,-0.0000005693,0.0000000505,0.0000000054,0.0000005722,0.0000004981,-0.0000001299,-0.0000000303,0.0000002338,0.0000000225,0.0000003264,-0.0000007520,-0.0000004339,-0.0000000846,-0.0000000447,0.0000004298,0.0000004081,0.0000004748,0.0000005461,-0.0000003333,0.0000001721,-0.0000001360,0.0000002468,0.0000005410,0.0000001369,0.0000000360,-0.0000000454,0.0000006447,0.0000003253,0.0000003931,-0.0000001258,0.0000001478,0.0000006915,0.0000005687,-0.0000005774,-0.0000003402,-0.0000005089,-0.0000000558,0.0000007190,0.0000003800,0.0000001261,0.0000000319,0.0000002133,0.0000002272,0.0000002135,-0.0000001407,-0.0000004246,-0.0000003525,0.0000003364,-0.0000003086,-0.0000001381,0.0000005650,0.0000002801,0.0000011774,-0.0000004177,-0.0000003564,0.0000003151,0.0000003995,0.0000002392,-0.0000000377,-0.0000005871,-0.0000002548
