0.0000000144,0.0000000064,-0.0000000040,-0.0000000119,-0.0000000009,-0.0000000059,0.0000000166,-0.0000000117,0.0000000051,0.0000000014,0.0000000169,-0.0000000216,-0.0000000005,-0.0000000201,0.0000000119,-0.0000000183,-0.0000000123,0.0000000074,0.0000000016,-0.0000000214,0.0000000190,-0.0000000194,0.0000000193,0.0000000028,-0.0000000088,0.0000000125,0.0000000147,0.0000000055,-0.0000000018,0.0000000041,0.0000000203,0.0000000064,-0.0000000025,0.0000000085,-0.0000000254,-0.0000000171,0.0000000228,-0.0000000144,0.0000000196,-0.0000000046,0.0000000037,0.0000000121,-0.0000000175,-0.0000000026,0.0000000131,0.0000000343,0.0000000113,-0.0000000143,0.0000000026,-0.0000000207,-0.0000000274,0.0000000025,-0.0000000008,-0.0000000032,-0.0000000090,0.0000000036,-0.0000000382,-0.0000000125,-0.0000000266,0.0000000092,-0.0000000040,-0.0000000118,0.0000000009,-0.0000000252,0.0000000054,-0.0000000052,0.0000000145,-0.0000000110,0.0000000145,0.0000000137,0.0000000040,-0.0000000081,0.0000000109,0.0000000352,0.0000000025,0.0000000155,-0.0000000005,-0.0000000228,0.0000000094,-0.0000000087,0.0000000110,0.0000000056,-0.0000000051,0.0000000110,-0.0000000151,-0.0000000278,0.0000000086,0.0000000064,-0.0000000078,0.0000000015,0.0000000266,0.0000000009,0.0000000216,-0.0000000109,-0.0000000015,-0.0000000077,-0.0000000141,0.0000000169,-0.0000000196,0.0000000227,-0.0000000152,0.0000000008,-0.0000000224,0.0000000052,-0.0000000242,-0.0000000048,-0.0000000145,-0.0000000292,0.0000000093,0.0000000077,0.0000000039,-0.0000000143,0.0000000108,0.0000000050,-0.0000000044,0.0000000020,0.0000000086,0.0000000088,0.0000000010,0.0000000250,-0.0000000028,-0.0000000081,0.0000000015,0.0000000207,0.0000000058,0.0000000023,-0.0000000091,0.0000000039,-0.0000000122,-0.0000000019,0.0000000022,0.0000000046,0.0000000265,-0.0000000181,0.0000000029,-0.0000000019,0.0000000190,-0.0000000036,0.0000000003,-0.0000000225,0.0000000024,0.0000000056,0.0000000028,0.0000000056,-0.0000000113,0.0000000012,-0.0000000073,0.0000000087,0.0000000216,-0.0000000146,-0.0000000215,-0.0000000070,0.0000000031,-0.0000000060,-0.0000000114,0.0000000174,-0.0000000061,0.0000000060,-0.0000000065,-0.0000000059,-0.0000000049,-0.0000000150,-0.0000000018,0.0000000025,-0.0000000064,-0.0000000090,-0.0000000073,-0.0000000050,-0.0000000108,-0.0000000258,-0.0000000212,0.0000000107,0.0000000084,-0.0000000031,0.0000000016,0.0000000157,-0.0000000183,-0.0000000014,0.0000000142,0.0000000062,0.0000000022,0.0000000014,0.0000000104,0.0000000228,0.0000000219,0.0000000233,0.0000000043,0.0000000072,0.0000000086,-0.0000000005,0.0000000381,-0.0000000009,0.0000000074,0.0000000117,-0.0000000156,0.0000000094,0.0000000305,0.0000000223,-0.0000000150,0.0000000113,-0.0000000014,-0.0000000059,0.0000000136,0.0000000083,-0.0000000224,0.0000000192,0.0000000035,-0.0000000285,0.0000000136,-0.0000000042,-0.0000000031,0.0000000025,0.0000000273,-0.0000000177,0.0000000057,-0.0000000042,0.0000000126,-0.0000000090,-0.0000000123,0.0000000064,0.0000000027,0.0000000021,0.0000000041,-0.0000000076,-0.0000000015,0.0000000275,-0.0000000156,-0.0000000236,0.0000000043,0.0000000072,-0.0000000045,-0.0000000098,0.0000000051,0.0000000163,0.0000000104,0.0000000283,-0.0000000060,0.0000000081,-0.0000000003,0.0000000206,0.0000000181,0.0000000022,0.0000000012,0.0000000045,0.0000000099,0.0000000070,0.0000000047,-0.0000000107,-0.0000000068,-0.0000000029,0.0000000101,0.0000000026,-0.0000000284,-0.0000000022,0.0000000001,0.0000000119,-0.0000000168,-0.0000000071,-0.0000000050,-0.0000000026,0.0000000095,-0.0000000104,0.0000000128,-0.0000000008,-0.0000000026,-0.0000000176,-0.0000000305,0.0000000142,0.0000000158,0.0000000003,0.0000000078,-0.0000000035,0.0000000054,-0.0000000010,-0.0000000110,0.0000000054,-0.0000000232,-0.0000000077,0.0000000108,0.0000000017,-0.0000000210,0.0000000081,-0.0000000027,-0.0000000052,-0.0000000054,0.0000000039,0.0000000173,-0.0000000117,0.0000000082,-0.0000000008,-0.0000000006,-0.0000000051,-0.0000000211,0.0000000100,-0.0000000162,-0.0000000018,-0.0000000040,0.0000000008,-0.0000000051,-0.0000000076,-0.0000000154,-0.0000000107,0.0000000136,0.0000000033,0.0000000202,-0.0000000118,-0.0000000031,-0.0000000089,0.0000000025,0.0000000202,-0.0000000223,-0.0000000258,0.0000000078,-0.0000000069,-0.0000000269,0.0000000049,-0.0000000035,-0.0000000164,0.0000000116,-0.0000000152,-0.0000000146,0.0000000006,0.0000000101,0.0000000052,-0.0000000122,-0.0000000042,-0.0000000120,0.0000000145,0.0000000307,-0.0000000047,0.0000000126,-0.0000000002,0.0000000087,0.0000000263,0.0000000292,0.0000000175,-0.0000000130,0.0000000330,0.0000000369,-0.0000000038,-0.0000000287,0.0000000081,0.0000000142,0.0000000111,0.0000000301,-0.0000000086,-0.0000000018,0.0000000278,0.0000000001,-0.0000000066,0.0000000010,-0.0000000018,-0.0000000029,-0.0000000056,0.0000000025,-0.0000000038,0.0000000140,0.0000000074,-0.0000000364,0.0000000272,-0.0000000143,-0.0000000038,0.0000000225,0.0000000032,0.0000000454,0.0000000045,-0.0000000138,-0.0000000051,0.0000000103,-0.0000000259,-0.0000000052,0.0000000233,0.0000000113,0.0000000054,-0.0000000122,-0.0000000125,0.0000000107,-0.0000000187,0.0000000131,0.0000000022,0.0000000025,0.0000000165,0.0000000107,0.0000000058,0.0000000116,0.0000000058,-0.0000000126,0.0000000177,-0.0000000063,0.0000000098,0.0000000137,0.0000000148,-0.0000000015,-0.0000000068,-0.0000000053,-0.0000000044,0.0000000202,-0.0000000199,0.0000000178,-0.0000000043,0.0000000135,-0.0000000148,0.0000000031,-0.0000000277,-0.0000000103,-0.0000000099,0.0000000017,-0.0000000006,0.0000000138,0.0000000005,-0.0000000103,0.0000000302,0.0000000070,-0.0000000083,0.0000000010,0.0000000048,0.0000000116,-0.0000000147,-0.0000000129,0.0000000129,-0.0000000110,0.0000000115,-0.0000000113,0.0000000030,-0.0000000103,-0.0000000166,0.0000000115,0.0000000043,0.0000000079,0.0000000052,0.0000000014,-0.0000000093,-0.0000000230,-0.0000000215,0.0000000070,0.0000000139,0.0000000270,-0.0000000078,-0.0000000022,-0.0000000074,-0.0000000131,0.0000000112,0.0000000106,-0.0000000237,-0.0000000106,-0.0000000133,-0.0000000538,-0.0000000222,-0.0000000033,0.0000000121,0.0000000155,-0.0000000357,0.0000000079,-0.0000000077,0.0000000035,-0.0000000190,-0.0000000208,0.0000000137,-0.0000000155,-0.0000000042,0.0000000270,0.0000000140,-0.0000000142,0.0000000132,-0.0000000086,-0.0000000042,-0.0000000448,0.0000000212,0.0000000154,0.0000000216,0.0000000190,-0.0000000225,-0.0000000213,-0.0000000013,0.0000000046,0.0000000044,-0.0000000009,0.0000000033,-0.0000000012,-0.0000000073,0.0000000128,0.0000000019,-0.0000000214,0.0000000109,0.0000000253,0.0000000091,0.0000000153,-0.0000000193,0.0000000243,-0.0000000249,0.0000000105,-0.0000000207,0.0000000021,-0.0000000132,0.0000000129,-0.0000000233,-0.0000000073,-0.0000000091,0.0000000111,0.0000000188,0.0000000048,0.0000000074,-0.0000000009,-0.0000000031,-0.0000000061,-0.0000000120,0.0000000135,0.0000000218,0.0000000054,-0.0000000335,-0.0000000058,-0.0000000188
