-0.0000000861,-0.0000001029,-0.0000001837,-0.0000000790,0.0000001655,0.0000000437,-0.0000001677,-0.0000003080,0.0000000022,0.0000000314,-0.0000000423,-0.0000003417,-0.0000000698,-0.0000001728,0.0000000318,-0.0000002968,0.0000000707,0.0000001781,-0.0000000583,-0.0000002618,-0.0000000128,-0.0000001000,-0.0000001511,-0.0000000067,-0.0000000175,0.0000000763,0.0000001641,0.0000000552,0.0000000576,0.0000000132,-0.0000000759,0.0000001685,-0.0000000234,-0.0000000864,0.0000001341,0.0000000333,-0.0000000213,0.0000001497,-0.0000000121,0.0000000268,0.0000001517,0.0000001287,-0.0000000358,-0.0000003073,-0.0000001684,-0.0000001953,0.0000000065,-0.0000002389,0.0000002436,-0.0000002097,-0.0000000915,-0.0000001723,-0.0000005462,-0.0000002418,0.0000001137,-0.0000001191,0.0000000155,-0.0000002169,-0.0000000884,0.0000003607,0.0000000482,0.0000002381,0.0000000144,0.0000001153,-0.0000000699,-0.0000001275,0.0000000692,-0.0000000482,0.0000001361,0.0000001345,0.0000002473,0.0000000030,-0.0000002766,0.0000002324,-0.0000001231,-0.0000000928,-0.0000000488,0.0000000542,0.0000000315,-0.0000003129,-0.0000003385,0.0000001042,-0.0000001494,0.0000002213,0.0000000059,0.0000000559,-0.0000001649,0.0000000840,-0.0000002347,-0.0000003156,-0.0000000065,0.0000000894,-0.0000000978,0.0000002029,0.0000002515,-0.0000001093,0.0000001139,-0.0000000331,-0.0000000182,0.0000001698,-0.0000001322,-0.0000000714,0.0000001509,0.0000000051,-0.0000001130,0.0000000561,-0.0000001501,0.0000000059,0.0000000933,-0.0000003204,-0.0000000949,0.0000000234,0.0000001002,-0.0000000129,0.0000000557,0.0000000082,0.0000000489,0.0000002205,-0.0000001022,-0.0000000095,0.0000000995,0.0000000670,-0.0000001869,-0.0000002792,0.0000000988,-0.0000001992,-0.0000001606,0.0000001741,-0.0000000418,-0.0000000313,0.0000000877,0.0000001117,-0.0000000399,-0.0000001782,-0.0000001949,0.0000000789,0.0000001135,0.0000000616,0.0000000869,-0.0000002282,0.0000001973,0.0000000547,-0.0000003743,-0.0000001414,0.0000000211,-0.0000000297,-0.0000001233,0.0000000327,-0.0000000067,-0.0000001911,-0.0000003972,-0.0000001473,-0.0000002945,-0.0000002199,-0.0000000668,0.0000001040,0.0000003095,0.0000000207,0.0000000896,-0.0000002635,0.0000000464,-0.0000001503,-0.0000001811,0.0000003395,-0.0000001457,-0.0000000409,0.0000000172,0.0000000151,-0.0000000226,0.0000001171,-0.0000000890,-0.0000001080,0.0000000388,0.0000001065,-0.0000002195,-0.0000000382,-0.0000001025,-0.0000002940,-0.0000001125,0.0000001023,0.0000001557,0.0000001488,0.0000000387,-0.0000001121,-0.0000001386,0.0000000653,0.0000000457,-0.0000000448,-0.0000000085,-0.0000000705,-0.0000000270,0.0000001130,-0.0000001753,-0.0000000609,-0.0000000947,0.0000000713,0.0000000567,-0.0000000688,0.0000000008,0.0000000667,-0.0000000690,-0.0000002179,-0.0000000786,0.0000000760,-0.0000002867,-0.0000000223,-0.0000000357,0.0000002757,-0.0000002178,0.0000000066,0.0000000148,-0.0000000010,0.0000000045,-0.0000000230,-0.0000000305,0.0000002019,-0.0000000768,0.0000001736,-0.0000000575,0.0000000556,-0.0000001593,0.0000000432,-0.0000001683,-0.0000002158,-0.0000000537,-0.0000000716,-0.0000001546,0.0000000395,-0.0000000667,-0.0000000982,-0.0000000793,-0.0000000423,-0.0000003200,0.0000000642,-0.0000002152,0.0000002529,-0.0000001423,-0.0000002649,0.0000002044,-0.0000000916,-0.0000000157,-0.0000002692,0.0000001234,-0.0000001547,0.0000002061,0.0000001311,0.0000002853,-0.0000000614,-0.0000000244,-0.0000000537,-0.0000000823,-0.0000000306,-0.0000000535,0.0000000832,0.0000001800,0.0000000930
