0.0000000433,-0.0000000606,0.0000000554,-0.0000000148,0.0000000746,-0.0000001657,-0.0000003334,-0.0000000646,0.0000000100,-0.0000000174,-0.0000000808,-0.0000002048,-0.0000002786,0.0000001040,0.0000000967,-0.0000001899,-0.0000000665,-0.0000001300,-0.0000001191,0.0000002389,-0.0000000002,-0.0000000938,-0.0000000114,-0.0000002088,-0.0000003165,-0.0000001559,0.0000000788,-0.0000000913,0.0000001659,-0.0000000686,0.0000003284,0.0000006209,0.0000001939,0.0000001506,-0.0000002455,0.0000000227,0.0000001054,0.0000002227,-0.0000000476,-0.0000002288,-0.0000000828,0.0000001212,0.0000001529,0.0000002503,0.0000001387,0.0000000756,-0.0000000428,-0.0000002208,-0.0000000279,-0.0000002420,-0.0000001391,0.0000001676,-0.0000002346,-0.0000000426,-0.0000000880,-0.0000002674,0.0000002436,0.0000000334,-0.0000000139,-0.0000000898,-0.0000000937,0.0000002499,-0.0000002945,0.0000000432,0.0000000982,-0.0000001251,-0.0000001003,0.0000000857,0.0000003379,0.0000000672,-0.0000000530,0.0000000283,0.0000000436,-0.0000001966,-0.0000003734,0.0000000428,-0.0000001170,0.0000000653,0.0000002674,0.0000004385,0.0000001383,-0.0000001220,0.0000002220,-0.0000003075,0.0000001465,0.0000000768,0.0000000579,0.0000002358,0.0000002302,0.0000000804,-0.0000002038,0.0000000629,0.0000000010,0.0000000372,0.0000000181,0.0000005107,0.0000001572,0.0000000162,-0.0000002800,-0.0000001313,-0.0000001191,-0.0000000739,0.0000002134,-0.0000000753,-0.0000001661,-0.0000001408,-0.0000000465,0.0000001566,-0.0000001442,0.0000002291,-0.0000000947,-0.0000000760,-0.0000002515,0.0000001946,0.0000001017,-0.0000005321,0.0000000546,0.0000000558,-0.0000000305,0.0000003074,0.0000003188,0.0000001671,0.0000001765,0.0000001784,0.0000000825,-0.0000000978,-0.0000002380,-0.0000001599,-0.0000000638,0.0000000126,-0.0000000034,0.0000002262,0.0000001772,-0.0000000750,0.0000000877,0.0000003015,0.0000003847,0.0000001166,-0.0000004058,0.0000001604,0.0000000638,-0.0000001771,0.0000000865,0.0000000179,0.0000004867,-0.0000001913,0.0000000684,-0.0000000150,0.0000002725,-0.0000001622,0.0000003337,0.0000003140,0.0000002706,0.0000000469,0.0000001372,-0.0000000773,0.0000001535,0.0000000010,0.0000002605,0.0000001536,0.0000001122,0.0000001047,0.0000002558,-0.0000001016,-0.0000001652,0.0000001973,0.0000001010,-0.0000000850,0.0000000391,0.0000001948,0.0000001473,0.0000000511,0.0000002827,0.0000000077,0.0000000506,-0.0000002849,0.0000002655,0.0000002077,0.0000002152,-0.0000000196,-0.0000003174,0.0000002220,0.0000002227,-0.0000000034,-0.0000003223,-0.0000000134,0.0000000746,-0.0000001227,0.0000000957,-0.0000000908,-0.0000000270,-0.0000001930,-0.0000002613,0.0000001070,-0.0000000482,-0.0000000417,-0.0000002044,0.0000000408,0.0000001958,0.0000001503,0.0000000907,-0.0000000251,-0.0000001229,-0.0000002675,0.0000002015,0.0000000415,-0.0000001197,-0.0000003130,0.0000001412,0.0000000099,-0.0000002431,0.0000000264,0.0000000224,-0.0000000639,-0.0000001738,-0.0000000685,-0.0000000227,-0.0000003560,-0.0000000688,0.0000002264,-0.0000001101,0.0000003077,0.0000001747,-0.0000001108,0.0000001924,-0.0000002396,-0.0000001430,0.0000003362,0.0000003042,0.0000004323,-0.0000001996,0.0000000695,-0.0000000284,0.0000001163,-0.0000001655,0.0000000574,-0.0000000980,0.0000001334,-0.0000001099,0.0000001527,-0.0000000092,0.0000000958,-0.0000000415,-0.0000001666,-0.0000002413,-0.0000000386,0.0000000918,-0.0000000880,-0.0000002708,-0.0000004092,0.0000000102,-0.0000000266,0.0000000595,0.0000001088,-0.0000001192,0.0000002926
