-0.0000004963,-0.0000028814,-0.0000025148,-0.0000022246,-0.0000029219,-0.0000008899,-0.0000024719,0.0000016991,0.0000010880,-0.0000031075,-0.0000001632,-0.0000003196,-0.0000023740,-0.0000028522,-0.0000008493,0.0000054296,0.0000040428,-0.0000041042,-0.0000055572,-0.0000057765,-0.0000040262,-0.0000027099,0.0000011439,-0.0000002041,0.0000019635,-0.0000055606,0.0000020578,0.0000003373,-0.0000047342,-0.0000005872,-0.0000015499,-0.0000051520,-0.0000041438,-0.0000018745,-0.0000056128,0.0000016571,0.0000029687,0.0000014411,-0.0000015773,0.0000027755,0.0000003115,0.0000011132,0.0000015950,-0.0000031774,-0.0000006441,0.0000014268,-0.0000008208,-0.0000029801,-0.0000012561,0.0000026462,0.0000011204,-0.0000054783,0.0000001331,-0.0000033349,0.0000023501,-0.0000035831,-0.0000020442,-0.0000028953,0.0000004283,-0.0000060113,0.0000053293,0.0000013376,0.0000058108,0.0000002740,-0.0000009157,0.0000007537,0.0000015166,-0.0000044166,-0.0000004979,0.0000003267,-0.0000045836,0.0000000959,-0.0000033045,0.0000005984,-0.0000015124,-0.0000026904,0.0000024211,-0.0000027955,-0.0000002105,-0.0000031762,-0.0000008734,-0.0000050134,-0.0000064217,0.0000005305,-0.0000036795,0.0000039543,0.0000037100,0.0000031204,0.0000015900,0.0000010883,-0.0000011394,-0.0000003350,0.0000026883,-0.0000032824,-0.0000040577,0.0000016760,0.0000010653,-0.0000012989,0.0000010462,0.0000006453,0.0000044132,-0.0000004600,0.0000018877,-0.0000007756,-0.0000002932,0.0000003173,-0.0000011675,-0.0000002233,-0.0000008294,0.0000006381,0.0000014381,0.0000034111,-0.0000043156,-0.0000002770,0.0000036547,0.0000012083,0.0000001268,-0.0000049920,-0.0000016137,-0.0000031436,-0.0000023741,0.0000037516,-0.0000015874,0.0000007992,0.0000031593,-0.0000009124,-0.0000010698,-0.0000004396
