-0.0000004963,-0.0000028815,-0.0000025149,-0.0000022247,-0.0000029220,-0.0000008899,-0.0000024720,0.0000016992,0.0000010880,-0.0000031076,-0.0000001632,-0.0000003197,-0.0000023741,-0.0000028522,-0.0000008494,0.0000054297,0.0000040430,-0.0000041043,-0.0000055574,-0.0000057767,-0.0000040263,-0.0000027099,0.0000011439,-0.0000002041,0.0000019636,-0.0000055607,0.0000020579,0.0000003373,-0.0000047343,-0.0000005872,-0.0000015499,-0.0000051522,-0.0000041439,-0.0000018746,-0.0000056129,0.0000016572,0.0000029688,0.0000014411,-0.0000015773,0.0000027756,0.0000003115,0.0000011132,0.0000015951,-0.0000031775,-0.0000006442,0.0000014269,-0.0000008208,-0.0000029802,-0.0000012562,0.0000026463,0.0000011205,-0.0000054785,0.0000001331,-0.0000033350,0.0000023502,-0.0000035832,-0.0000020443,-0.0000028954,0.0000004283,-0.0000060114,0.0000053294,0.0000013376,0.0000058110,0.0000002740,-0.0000009157,0.0000007538,0.0000015166,-0.0000044167,-0.0000004980,0.0000003267,-0.0000045837,0.0000000959,-0.0000033046,0.0000005984,-0.0000015124,-0.0000026904,0.0000024211,-0.0000027956,-0.0000002105,-0.0000031763,-0.0000008734,-0.0000050136,-0.0000064219,0.0000005305,-0.0000036796,0.0000039544,0.0000037101,0.0000031205,0.0000015901,0.0000010883,-0.0000011395,-0.0000003350,0.0000026884,-0.0000032825,-0.0000040579,0.0000016761,0.0000010653,-0.0000012990,0.0000010462,0.0000006454,0.0000044134,-0.0000004600,0.0000018877,-0.0000007757,-0.0000002932,0.0000003173,-0.0000011676,-0.0000002233,-0.0000008294,0.0000006381,0.0000014381,0.0000034112,-0.0000043158,-0.0000002770,0.0000036548,0.0000012084,0.0000001268,-0.0000049921,-0.0000016137,-0.0000031437,-0.0000023742,0.0000037517,-0.0000015874,0.0000007992,0.0000031594,-0.0000009125,-0.0000010698,-0.0000004396
