0.002497,-0.002115,0.005900,0.002375,-0.004234,-0.001258,0.002638,-0.001446,0.005874,0.003848,-0.003943,0.007266,0.003076,-0.004810,0.000715,0.000233,0.005235,-0.000202,-0.000249,0.005238,0.003471,0.001733,0.002617,-0.008734,0.000805,-0.001576,-0.000864,-0.006265,0.004892,0.006409,-0.006985,-0.000139,0.000151,-0.001167,0.001419,-0.000333,-0.003764,-0.001955,0.004958,0.002947,0.005480,0.001434,-0.003398,-0.004301,0.002602,0.010243,-0.011360,0.008853,-0.002405,-0.002235,-0.000327,-0.007091,-0.002063,0.000207,-0.000100,0.001627,0.006308,-0.001030,0.001017,0.003400,0.004221,0.009630,0.010592,-0.000145,0.001113,-0.003201,-0.006948,0.006039,0.002696,-0.004918,0.007057,-0.002314,-0.006878,0.006668,0.002597,-0.003046,-0.001956,0.006130,0.003773,-0.002817,-0.000578,-0.011710,-0.000330,-0.008855,0.008785,0.009271,0.000075,-0.004936,-0.002562,-0.004438,-0.004833,0.011214,-0.005844,0.002454,0.002489,0.000959,0.007026,0.007943,-0.009610,-0.000004,0.000726,0.002981,0.002126,-0.005883,-0.002677,-0.010526,0.007349,0.005971,-0.001219,-0.005674,-0.002954,0.002673,0.007537,-0.000422,-0.003024,-0.004665,0.000126,-0.005906,0.001970,-0.001296,0.003168,-0.000313,-0.002284,0.004144,-0.004501,0.003390,-0.004550,0.000730,-0.005061,0.001563,-0.003357,0.008988,-0.000145,0.001826,0.011823,-0.000086,0.008282,-0.003643,-0.003557,-0.000478,0.000898,-0.004313,-0.000013,-0.007079,-0.003784,-0.002362,0.003093,-0.004504,0.003952,-0.001512,-0.004742,0.006375,-0.011640,-0.001407,0.005569,0.004111,-0.000853,-0.001711,0.002776,-0.000826,-0.003001,-0.004930,-0.003323,0.009426,0.005649,-0.004420,-0.000041,0.001249,0.005400,0.013473,0.001608,0.001178,0.003285,0.000153,-0.005519,0.005995,-0.008677,-0.001147,0.003804,0.006295,0.003212,0.008167,0.003069,0.003122,0.000242,-0.000346,0.007101,0.014680,-0.002949,0.000812,-0.007232,-0.005828,-0.001566,-0.003059,-0.001504,-0.004815,0.005306,-0.003538,0.000894,0.001199,-0.002311,-0.001063,-0.006227,0.004684,0.002665,-0.009515,0.003160,-0.002833,0.000786,-0.003060,-0.001716,0.000180,-0.001427,0.001365,-0.015584,-0.001197,-0.011999,0.007948,-0.007243,0.001424,-0.007305,0.001105,0.007324,-0.008890,0.010828,-0.001225,-0.000606,0.002926,0.000129,-0.002466,0.002018,-0.000861,0.010862,-0.005079,0.002788,0.000887,0.001994,-0.002967,0.002616,0.004911,0.001857,-0.004532,-0.005810,-0.003065,-0.005082,0.000010,0.006583,0.001511,-0.002173,-0.005729,-0.005591,0.009181,0.000954,-0.004399,-0.004317,-0.008102
