0.004948,-0.002342,-0.000450,0.001739,-0.003838,-0.000340,-0.002422,-0.001386,0.006622,0.000933,-0.001543,-0.001028,0.000078,-0.009194,-0.000587,0.004114,-0.008747,0.001216,-0.004657,-0.005304,-0.004248,-0.010000,0.008278,0.001775,0.008187,0.002723,-0.000318,0.001738,-0.002619,0.001156,-0.005579,-0.002704,0.004415,-0.003508,-0.001941,-0.003125,-0.001492,-0.009101,0.000649,0.001391,-0.013678,-0.009591,0.003018,0.000565,-0.004540,0.001881,-0.001180,-0.006985,0.002588,0.000662,-0.002004,0.005653,-0.003902,-0.000057,-0.007682,0.002173,-0.006338,-0.003058,0.000674,-0.001380,0.005782,-0.001458,0.001774,0.002712,-0.003567,-0.001254,0.001992,0.004948,0.005134,0.002563,-0.002475,-0.005330,-0.000919,-0.006649,-0.004221,0.006427,0.003538,0.006676,-0.001722,0.004254,-0.002421,0.007042,0.009947,-0.000422,0.004655,0.000476,-0.011375,0.000986,-0.001533,-0.002060,-0.001065,-0.002482,0.012801,-0.005978,0.003239,0.012601,0.003639,-0.007011,0.002801,0.009075,0.002029,-0.000437,0.014566,-0.003004,-0.006237,-0.001434,0.001956,-0.005507,-0.000440,-0.004920,-0.006090,0.000716,0.002103,0.001848,0.001138,0.003578,-0.008834,0.003378,0.001350,-0.001784,0.000921,-0.000298,0.003065,-0.005089,-0.003566,0.009828,0.004561,-0.000675,-0.001405,-0.012263,0.008175,-0.005128,-0.006376,-0.000454,0.007380,0.004682,-0.002401,0.003962,-0.001801,0.002480,-0.000122,-0.002848,-0.004723,-0.008145,-0.005257,-0.002702,0.002267,-0.000636,-0.005123,0.001015,0.001042,-0.002027,0.005796,0.000828,-0.008377,0.006193,0.004359,-0.002707,-0.008499,-0.007111,0.001737,0.003835,-0.012097,-0.000130,0.002782,0.001102,0.008576,0.000258,-0.002505,-0.003954,0.003872,-0.001810,0.002735,-0.002553,0.011199,0.008477,-0.004206,0.002818,-0.001898,-0.004989,-0.000744,-0.003389,-0.002525,0.002117,-0.012598,-0.005322,0.004685,0.001104,0.001918,0.004559,0.004592,0.000061,0.001270,-0.001772,-0.010147,-0.003532,-0.007663,0.012545,-0.003101,0.004404,0.001467,0.014564,0.003559,-0.010114,-0.001663,-0.003175,0.002072,-0.003664,0.005504,-0.002715,-0.001416,0.012765,0.003330,0.002367,-0.003696,0.005166,0.005582,-0.002736,-0.001147,-0.002974,0.004435,-0.000393,-0.003661,0.004922,0.004816,-0.001450,0.013401,0.006798,0.002509,-0.005436,-0.004015,0.001699,0.004894,0.005894,0.000437,0.004094,0.001596,-0.006681,-0.001876,-0.000806,-0.002760,-0.003383,-0.002014,-0.003474,0.001677,-0.001362,-0.002413,-0.005120,0.005281,0.004188,-0.008631,-0.000176,-0.004923,0.003436,-0.006322,-0.006985,0.001516,-0.005194,0.005642,0.003279,0.005436,0.003622,-0.005871,0.002322,0.004814,0.003370,0.000059,-0.004625,0.000883,-0.001227,0.000449,-0.002798,-0.000334,0.001291,-0.003994,0.005936,-0.003014,-0.000467,0.007330,-0.006828,0.001003,-0.006749,0.004947,0.002373,0.001376,-0.001517,-0.003752,-0.001219,-0.007705,-0.001081,-0.002647,-0.001765,-0.003934,0.002868,0.003636,-0.005038,0.002347,0.009590,0.000829,0.009682,-0.005023,-0.009442,0.000945,0.002076,0.000814,0.002535,0.008127,0.002955,0.005472,0.000542,-0.005415,-0.004330,0.000432,0.008779,-0.007487,0.002173,-0.000009,0.000074,0.002334,-0.004985,-0.006418,-0.001382,0.004188,-0.013145,0.004432,-0.001269,-0.002355,0.001328,0.005244,-0.000022,-0.001011,0.002504,-0.004143,-0.001508,-0.002729,0.001970,0.008251,-0.007313,0.007004,0.003362,-0.001261,0.000346,-0.001641,0.007493,0.005705,0.002806,0.000198,0.005042,-0.007732,0.001893,-0.007225,0.001630,0.000067,-0.003629,0.000134,0.002065,0.000647,-0.007616,-0.000694,-0.006121,0.004043,0.000019,-0.000091,0.000208,0.001258,-0.003855,0.003977,-0.002810,0.009194,0.002257,0.001737,0.007953,0.005915,-0.006620,-0.004380,0.004816,0.004050,0.001043,-0.001057,-0.005449,0.006516,-0.005994,-0.001743,-0.006467,0.007745,-0.002564,0.004049,-0.000427,0.000406,-0.001068,-0.002235,-0.006355,0.004269,0.000971,0.004441,0.001996,0.002448,-0.003883,0.005842,0.007044,-0.011931,0.009516,-0.006052,-0.000640,-0.008832,0.008474,0.007610,-0.012083,0.011544,-0.001378,-0.007570,0.008722,-0.000589,0.001805,0.004588,-0.003336,0.003490,-0.001787,0.004354,-0.004044,-0.003472,-0.005053,-0.007277,0.009614,0.003575,-0.002559,0.001598,-0.004397,-0.005724,0.001278,0.006576,0.004403,0.003985,-0.004577,-0.002735,-0.005176,-0.000636,0.006020,-0.006852,-0.000905,-0.002839,-0.007573,0.009340,-0.004347,0.006669,0.002096,-0.003075,0.003675,0.000354,0.002817,-0.004884,-0.010083,-0.002426,0.003096,0.003370,0.004344,0.005050,0.001823,0.000072,-0.006508,0.006472,-0.003467,-0.000471,0.001766,0.007373,0.002662,0.003535,0.008143,-0.001834,-0.000562,-0.002142,-0.001141,0.002492,0.001499,0.000585,-0.007707,-0.005592,-0.007096,0.000494,-0.001876,0.002738,0.001058,0.004724,-0.008624,-0.001685,0.000864,0.004135,0.004781,0.003767,-0.000617,-0.000643,0.001939,-0.010175,-0.005451,-0.004814,-0.006052,-0.002676,0.004088,-0.001572,0.001120,0.000207,0.007250,-0.006351,0.001922,0.006322,-0.001021,0.011237,0.003740,-0.009233,0.003493,-0.000220,-0.001298
