-0.000035,0.004558,0.001685,-0.003638,0.004376,0.006771,-0.005054,-0.000206,-0.003900,0.005141,0.009726,-0.000025,-0.000749,0.008193,-0.005979,-0.002090,0.001195,0.001214,-0.004519,-0.001400,-0.001245,-0.001334,0.002501,-0.002521,-0.005097,-0.009407,-0.000651,-0.003620,0.002829,0.005962,-0.003961,0.004278,0.003526,-0.002402,-0.002839,0.005160,0.003297,0.004196,-0.003755,0.003398,0.001855,-0.002692,-0.002181,-0.003946,-0.004462,0.003382,0.006260,0.000056,0.001505,0.003811,0.007018,-0.007505,-0.005189,-0.000996,0.000749,-0.005800,0.005494,0.002867,0.010431,-0.003851,0.000953,0.004857,0.002123,0.002155,-0.005299,-0.002829,0.007160,0.005440,0.000725,0.000630,0.009713,0.003786,-0.008286,0.001862,0.001181,-0.004818,-0.006600,-0.001415,-0.000254,0.000415,0.002413,0.002753,0.007739,-0.000310,0.008504,0.008791,0.005456,-0.001952,-0.001213,-0.005945,0.004979,-0.003860,0.002946,0.002147,0.001222,0.000296,0.003185,-0.008418,0.007761,0.001730,0.003362,0.009006,-0.002165,0.000472,0.007237,-0.001173,0.003561,-0.003558,-0.005167,0.008841,-0.003388,0.001618,0.004629,-0.005754,-0.001926,0.007243,0.000873,0.005762,-0.000842,0.005782,0.005202,0.007056,-0.014250,-0.002334,0.004494,-0.001238,-0.000645,0.006151,-0.005056,0.007293,-0.010397,0.011229,-0.006041,0.005414,-0.008561,-0.004217,-0.000798,0.012097,-0.005645,0.008854,-0.010665,-0.000696,-0.001245,0.001559,-0.004924,0.002422,-0.004127,0.004946,-0.004024,-0.007961,0.005517,-0.001243,-0.003482,-0.000940,0.006208,0.009115,-0.000532,0.001611,0.003239,-0.003152,-0.004462,-0.003237,0.008691,-0.003909,-0.002576,-0.002588,-0.002718,0.004208,-0.002221,0.003804,-0.000068,-0.002674,0.006747,-0.000800,-0.002560,0.000660,-0.004246,0.007706,0.000020,0.000091,0.000809,-0.000075,0.002206,0.006594,-0.000838,-0.001954,-0.003587,-0.002665,-0.000583,0.002968,-0.008042,-0.004649,0.004221,-0.003303,-0.001774,0.008711,0.006503,0.000572,-0.003768,0.005761,0.002761,-0.001419,0.001959,0.006745,-0.006302,0.000066,0.002185,-0.004337,-0.005324,0.009382,-0.004658,-0.003399,0.001334,0.001915,0.009188,-0.003424,-0.011347,0.000482,-0.004588,-0.005998,-0.001067,0.010504,0.005125,0.008532,0.008334,0.003003,0.001282,-0.000280,-0.003208,0.011914,-0.000561,0.003237,0.004040,-0.004999,-0.005135,-0.003320,0.000563,0.007466,-0.001826,0.004908,-0.008566,-0.000059,0.002138,0.003179,-0.004447,-0.003941,0.004114,0.007574,0.000558,0.003865,-0.003594,0.001365,-0.003764,0.003557,0.002252,-0.005814
