0.003064,0.002170,-0.002281,0.004670,0.003405,-0.005130,0.003635,0.000281,0.003510,0.000349,-0.000212,-0.007717,0.001283,0.001228,-0.007327,0.000119,-0.003028,0.001509,-0.012468,-0.002115,0.000820,0.003479,-0.008483,-0.008385,0.003905,0.001392,-0.003077,0.000401,-0.011561,-0.002757,0.008960,0.007687,0.009448,0.008338,0.000280,-0.005265,0.000680,0.000350,0.011608,0.000522,-0.003688,-0.001373,-0.002824,0.001644,-0.001621,0.007161,-0.005835,-0.009697,-0.001958,0.000047,0.000111,-0.011547,-0.003205,-0.001460,-0.006607,-0.003784,0.007982,-0.009781,0.004238,0.002473,-0.000584,-0.001675,0.004615,-0.001881,-0.012464,0.009654,0.000172,0.006433,-0.003309,0.001577,-0.005414,-0.007581,0.000644,0.001386,-0.002036,-0.003293,-0.003981,0.007191,0.005912,0.001166,0.001018,-0.002639,-0.006293,-0.007659,-0.006750,0.004713,-0.003010,0.000302,-0.001691,-0.007425,-0.001995,-0.000266,-0.000089,-0.008799,-0.005569,-0.004045,0.003319,-0.002548,-0.008890,-0.006492,0.006383,0.003774,0.006250,0.000477,-0.006903,-0.003183,-0.001693,-0.001239,-0.001780,-0.001156,-0.003789,0.003427,0.007462,0.001560,-0.005757,0.004674,0.000753,-0.005761,-0.004945,-0.015248,0.005235,0.005118,-0.005230,-0.005113,-0.002036,0.001301,0.006109,0.001159
