-0.002099,0.005247,-0.009727,-0.002669,-0.002072,-0.003038,-0.000918,-0.000618,-0.001664,0.006835,0.000270,0.006650,-0.002869,-0.003650,-0.005876,0.000961,0.003838,0.006891,-0.000354,0.002129,0.002782,-0.000702,0.004267,-0.006451,0.009870,0.006922,0.007435,-0.004309,0.004222,-0.006367,-0.005272,0.002140,0.004660,0.007955,0.001930,0.004898,0.007315,0.004910,0.001330,0.000872,-0.002223,-0.002554,-0.006013,0.001760,0.000336,-0.000071,0.007814,-0.004533,0.005005,0.000728,0.000014,-0.003402,0.012197,0.004173,-0.001338,-0.001338,0.002042,-0.008333,-0.002792,0.000908,-0.003428,-0.007573,-0.000117,0.004459,0.001414,0.002764,-0.007884,0.002463,0.004174,0.010556,-0.006653,0.002404,-0.001068,-0.004649,0.004868,-0.005831,-0.002204,-0.001336,0.000562,0.000941,0.008160,-0.002422,0.000816,0.008448,-0.006036,-0.001650,-0.003940,-0.002798,-0.012808,0.004015,0.002082,-0.009086,0.000875,0.006382,0.001560,0.001211,0.000273,0.002574,-0.000403,-0.008433,0.002457,-0.000151,0.003895,0.000810,-0.001838,0.006816,0.006257,0.001721,-0.009470,0.003079,0.004278,0.003736,-0.000810,0.000438,0.005591,-0.000963,-0.003114,-0.000384,-0.004729,0.004515,-0.001761,-0.003078,-0.005157,-0.003388,-0.001253,-0.001432,0.007622,0.001556
