0.001063,0.004309,-0.004669,0.001182,0.005380,-0.004049,0.004471,0.006090,0.001573,0.007966,-0.003116,-0.001430,0.004712,0.011081,0.005226,-0.002292,-0.001431,0.004591,-0.004837,0.003407,0.003885,0.004632,-0.001598,-0.002414,0.006803,0.002338,0.000487,-0.002739,-0.004571,0.010352,-0.007466,0.009214,0.003131,0.005554,-0.000055,0.001787,-0.002500,-0.000121,-0.010064,-0.006945,-0.000579,-0.003881,0.004561,0.003623,0.001839,-0.011419,-0.001961,-0.000569,0.006478,0.002844,-0.000026,-0.003030,0.000652,0.006076,-0.001386,0.008672,0.007462,-0.006694,0.003367,0.000766,0.000160,0.009592,0.001309,-0.006806,0.000321,0.012150,-0.002954,0.002679,-0.004521,-0.004680,-0.009037,-0.006446,0.006263,0.005218,0.007206,-0.003785,0.001971,-0.006050,0.008369,0.002695,-0.005094,0.005078,0.000391,0.002331,0.003701,0.000926,-0.000495,-0.001748,0.013527,-0.000952,0.009559,0.010005,0.003039,-0.001745,0.000913,-0.004228,-0.001406,-0.009009,0.000359,-0.001824,0.011992,-0.005270,0.005361,0.007282,0.014686,-0.005862,-0.007422,-0.002635,0.006112,-0.008300,0.001685,-0.000522,-0.007258,0.000236,0.003231,-0.001754,-0.005038,-0.005826,-0.002718,-0.007729,0.001704,-0.003671,-0.002199,0.000709,-0.000619,-0.004209,-0.004459,0.010304,0.003041,-0.008112,-0.004865,0.007368,-0.002110,0.003994,0.004598,0.003305,0.005239,0.005632,-0.008853,-0.002626,-0.007587,-0.000305,0.002772,-0.002167,-0.006151,0.000180,-0.003387,0.004310,0.000728,0.007760,0.010502,0.007059,0.001775,0.004237,0.002595,-0.002800,-0.001385,-0.006370,0.004657,0.007020,-0.001250,0.004264,-0.006979,0.001034,-0.004670,-0.005940,-0.005629,-0.001298,-0.004052,0.011052,0.000333,0.002335,-0.000323,-0.000521,-0.006026,0.000790,0.005238,0.002549,-0.000375,0.005498,-0.001045,0.006868,-0.003842,-0.000667,0.006970,-0.001193,-0.002990,-0.003418,0.003909,-0.001801,0.003026,0.001142,-0.004953,0.005886,0.000055,0.000388,-0.002955,0.005461,-0.002759,0.005751,-0.004392,-0.007843,0.005319,-0.000257,0.006107,0.005492,0.006982,-0.003097,-0.005972,-0.003278,0.000003,-0.006303,-0.001670,-0.000750,-0.000193,0.005104,0.003973,0.004681,0.009550,0.005983,0.000791,-0.000420,0.000808,0.001124,-0.003866,-0.004629,0.004554,-0.000637,0.008914,-0.003789,-0.002240,0.001559,-0.006049,0.003801,-0.001290,0.001214,-0.001005,0.004178,0.004626,0.002993,0.001971,-0.002884,-0.001296,0.009030,0.001874,-0.004597,0.002039,-0.001803,0.002379,0.003169,0.006265,-0.001823,-0.005103,0.002549,0.002579,0.005108,0.005882,-0.007475,-0.005534,-0.001534,-0.002196,0.006615,0.001377,-0.006322,0.004145,0.005253,0.001342,-0.000352,0.002719,-0.001677,-0.000849,-0.005247,-0.009728,0.001147,-0.008726,-0.001813,0.003444,-0.002822,-0.002765,-0.009862,-0.000287,-0.001959,-0.004365,0.003604,0.003637,-0.006953,0.009359,0.007541,-0.000209,0.006166,-0.002372,0.007588,0.002500,0.003977,0.004798,0.007556,-0.001994,-0.006813,0.000107,-0.009631,0.000041,-0.000658,-0.004240,-0.002532,-0.002429,0.004291,-0.003961,-0.002321,0.008349,0.001946,-0.000256,0.004038,-0.006309,0.002782,-0.003180,-0.001812,-0.000816,-0.006665,-0.000517,0.001268,-0.007689,-0.001335,-0.003818,-0.002659,-0.009739,-0.004291,-0.005967,-0.004319,-0.002406,0.005348,0.001966,0.002699,-0.000822,0.006138,0.003049,-0.003389,-0.000167,0.000108,0.007910,0.003730,-0.000911,0.009274,0.003126,0.000826,-0.007123,0.010772,-0.002991,-0.007958,0.000069,0.003301,-0.000402,-0.000122,0.000071,-0.001191,0.002375,0.006280,0.001270,0.001726,0.004189,-0.001598,-0.009123,-0.001925,0.009783,-0.002876,0.004840,-0.000099,0.007143,0.000834,-0.002981,-0.005561,0.004277,-0.000984,0.007243,0.004246,-0.001748,0.000242,-0.000252,-0.001339,0.002044,0.007773,0.001520,-0.002967,-0.000145,0.001817,-0.007097,-0.000447,-0.000963,0.003424,0.000149,-0.000602,0.006002,0.002774,-0.006812,-0.002451,0.000691,0.001454,-0.000489,0.003515,-0.004989,-0.000721,0.002851,0.000324,0.003632,-0.002844,-0.003437,0.007652,-0.009448,0.001114,-0.005275,0.003752,-0.000873,0.005462,-0.005120,0.010821,0.001447,0.000747,0.000443,0.004004,0.000077,0.007341,-0.000424,0.006291,0.003714,-0.006415,-0.002710,-0.004023,-0.000376,-0.000237,0.001980,0.001211,0.010745,0.000144,-0.001478,0.003207,0.008238,-0.005347,-0.008716,-0.000892,-0.001345,-0.002204,-0.001175,-0.000249,0.007806,-0.000491,0.000516,-0.003061,-0.002443,0.000390,0.001425,0.009188,-0.001124,0.002232,-0.004236,-0.000996,-0.001088,0.002370,0.002858,-0.000839,-0.010274,-0.003105,0.002355,0.008730,0.007518,-0.004611,-0.005180,0.000157,0.002493,0.005007,-0.004477,0.000319,-0.005245,0.003648,-0.009813,0.002228,0.002176,0.009867,0.004707,0.003016,0.006478,-0.009580,0.000785,0.004161,-0.006878,-0.002441,0.003220,-0.001166,0.005280,0.011568,0.000823,-0.002003,-0.011287,-0.002829,-0.005304,-0.008199,-0.000940,0.008944,-0.001611,0.001395,0.003600,-0.002684,0.000646,0.004665,0.008159,-0.002072,0.002337,-0.002806,0.010177,0.002267,0.004041,-0.000686,0.007755,-0.007805
