0.000014,0.005454,0.006353,0.004133,-0.002192,0.002780,-0.005643,-0.012940,0.002541,-0.004480,0.001373,0.001464,0.002276,0.000245,0.007411,-0.006375,0.002675,-0.006779,-0.001573,0.005260,-0.002581,-0.001362,0.003262,-0.002548,0.007841,-0.003729,-0.015643,-0.008868,0.006300,0.001889,0.000496,-0.003463,0.011963,0.008142,0.003925,-0.002655,-0.008785,-0.000506,-0.010028,0.001719,0.001447,-0.003940,0.008040,-0.002462,-0.001448,-0.002031,0.002100,-0.005897,0.006580,0.000038,-0.008630,0.004861,0.001124,0.001055,0.006610,0.000801,-0.002832,-0.008971,-0.004972,0.001228,0.001525,-0.000449,0.004157,0.006599
0.002150,0.003702,-0.004161,-0.005783,0.001295,0.005130,0.000124,0.003020,0.001702,0.006857,0.006830,0.006288,0.002392,-0.002988,0.003521,0.002598,-0.006241,0.005026,-0.007139,-0.007251,0.003809,0.006274,0.011534,0.002881,-0.001744,0.004328,0.000760,-0.003668,0.000411,0.004454,0.001924,-0.005910,-0.000982,-0.000586,0.001971,0.002022,-0.000553,0.001321,-0.001922,0.002935,0.005700,-0.001838,-0.003519,0.003511,-0.009866,0.004919,0.002666,0.009412,0.001401,-0.005736,-0.004174,0.006326,-0.002821,-0.004059,-0.002729,0.002024,0.009770,-0.002141,0.000980,0.006823,0.008523,-0.002563,0.004991,-0.000539
-0.002550,0.006400,0.006390,0.010674,-0.000863,-0.000077,-0.006014,0.004028,0.002237,-0.001482,0.003565,0.007231,0.001379,0.002570,-0.005344,0.000797,-0.006937,-0.006014,-0.001310,0.008943,0.009128,0.005387,0.000416,-0.002505,-0.002591,-0.003936,-0.003273,0.006393,-0.006048,0.002388,0.003197,0.002653,-0.000164,-0.008330,0.001855,-0.004391,-0.001324,0.010686,-0.006314,-0.003782,-0.008706,-0.007394,0.000895,-0.003325,-0.001058,-0.001143,-0.010455,-0.006122,0.003709,0.006734,-0.001827,-0.001248,-0.004353,-0.006345,0.000973,0.000305,0.006012,0.000100,-0.000396,-0.002292,0.007690,-0.002172,-0.001081,-0.002992
0.005921,-0.007136,-0.003027,0.003867,0.003398,-0.000084,-0.001666,0.004610,0.001796,-0.003612,-0.006381,0.000700,-0.009681,0.000512,0.003901,0.007144,-0.000546,0.007844,0.000622,0.001958,0.002739,-0.007165,0.000746,0.003859,-0.010630,0.000879,0.001889,0.003769,-0.000362,0.002961,-0.002056,-0.002365,0.000802,0.004206,-0.006238,-0.006468,0.001166,-0.001250,-0.004362,-0.002979,-0.001317,-0.001329,0.001907,-0.002108,-0.001220,0.000472,-0.011310,-0.001510,-0.001357,0.000397,-0.005422,0.003800,0.000655,-0.004569,0.003955,0.006688,-0.001733,-0.010375,0.003987,-0.000731,-0.005712,-0.000233,-0.004883,0.000883
-0.003184,-0.004704,-0.005091,0.007112,0.006436,-0.006082,-0.008140,0.006172,-0.000821,-0.003715,-0.010774,0.000332,0.011163,-0.003988,0.004657,0.000842,-0.000818,0.011974,-0.008503,0.005652,0.002500,-0.010979,-0.004380,0.002951,0.001397,0.000423,0.004256,0.003844,-0.002172,0.003030,0.002038,-0.010855,0.001603,-0.008829,-0.001622,0.001430,0.001213,0.007662,-0.001879,0.005232,0.001247,-0.004811,0.001885,-0.003054,-0.006448,0.001642,-0.001931,-0.005907,0.000019,-0.003174,0.006185,-0.001433,-0.004122,0.006790,0.001626,-0.001833,0.000363,-0.001116,-0.000986,-0.002172,-0.006187,0.005168,-0.004674,-0.007514
-0.001283,0.002717,0.000940,-0.003001,0.001481,-0.005136,0.005624,0.003666,-0.000883,-0.001323,0.002782,-0.002995,-0.001463,-0.002807,-0.003757,0.004149,0.000989,-0.011398,-0.000187,0.003070,-0.005792,-0.004772,-0.000855,0.002123,-0.007594,0.004248,0.001188,0.004461,-0.005249,-0.001071,-0.008478,0.002489,-0.002632,0.006046,-0.013502,0.009366,-0.001056,0.004216,0.000574,-0.004523,0.006646,0.010889,0.003479,0.001062,-0.010365,-0.004319,-0.011183,0.004164,0.000179,0.008612,0.001791,-0.001186,-0.003193,-0.005718,0.010754,-0.004277,0.005898,-0.003422,0.008293,-0.001994,-0.000398,0.000451,0.006148,-0.002825
-0.011635,-0.008115,-0.002982,-0.000769,0.000364,-0.005430,0.010944,0.003819,-0.004985,-0.003674,-0.004790,-0.001731,0.003729,0.002166,0.001854,0.003518,-0.002571,-0.000397,-0.000887,0.002563,-0.000857,0.003966,0.006670,0.003179,-0.001926,-0.007834,-0.004347,0.005881,0.007997,0.007958,0.000338,0.007797,0.001618,-0.006480,0.000264,0.011088,0.006399,0.001011,0.000607,-0.000894,0.001686,0.007006,-0.003639,0.011606,0.000850,0.002256,-0.004988,-0.000255,-0.001479,0.005203,-0.010871,0.005203,0.002259,0.009037,-0.008148,-0.004163,-0.002441,-0.006040,-0.001437,-0.001258,0.004898,-0.004132,0.004054,-0.001077
0.009366,-0.002451,0.002938,0.001474,-0.004764,-0.001535,-0.004304,-0.000764,0.004938,0.000508,-0.003705,0.001742,-0.008334,-0.008602,0.001493,-0.005679,-0.007662,0.001801,-0.000902,-0.005980,0.015528,0.000465,0.003316,-0.011749,-0.007677,0.000987,0.005497,0.000211,0.003775,-0.001521,-0.012694,-0.004982,0.004250,-0.002935,-0.001186,-0.001726,0.002518,0.007022,-0.002231,-0.005849,-0.001923,0.005258,0.002257,-0.003997,-0.001852,-0.004262,-0.001596,-0.006394,0.001660,0.002714,0.013333,0.004336,-0.003185,-0.003930,-0.007436,-0.000205,0.003835,-0.000235,0.003756,0.008306,0.010852,-0.001332,0.004196,-0.003873
-0.003754,-0.007042,0.012537,0.003783,-0.008450,-0.003931,0.003956,0.001027,-0.000282,0.009881,-0.001323,0.004941,-0.000489,0.004049,0.003985,-0.002623,-0.009256,-0.001791,0.001555,0.001304,-0.002894,-0.000953,-0.000934,0.004105,0.002996,0.005711,0.004433,-0.002799,0.001744,-0.006808,0.000719,-0.001275,-0.003489,0.004858,0.005157,0.005186,0.006923,-0.001465,0.004850,0.003696,0.003010,0.004215,0.001083,-0.006722,-0.002875,-0.001085,-0.003594,0.005238,0.001104,-0.008301,-0.006724,-0.004899,0.005044,-0.008741,-0.002351,0.004606,0.001549,-0.009692,0.003751,0.005607,0.003011,-0.006451,-0.004242,-0.001156
0.002808,-0.000581,-0.008234,0.007043,0.001208,-0.006549,-0.000495,0.000868,-0.008687,0.007861,0.001394,0.000563,0.003919,0.007248,-0.001611,-0.001080,0.010048,-0.001097,-0.006888,0.002860,0.004426,-0.005913,-0.001565,0.010627,-0.004297,0.002343,0.004567,0.008713,-0.005134,-0.006515,-0.003557,0.004594,0.001842,-0.006949,-0.014093,0.003448,-0.001905,-0.001998,-0.000006,0.001509,0.002208,-0.002152,0.000707,0.000420,-0.012495,-0.002951,-0.006100,-0.005404,0.010066,-0.001119,0.003846,-0.000804,0.004485,0.001154,0.001797,-0.001712,0.000938,-0.002317,0.001032,0.003271,-0.004665,-0.000955,0.002285,-0.002996
-0.003702,0.003699,0.001085,0.002076,0.001872,0.007306,0.004265,0.008948,-0.002118,0.000923,0.008721,-0.006272,0.002521,-0.000710,-0.000892,-0.002197,0.004606,-0.013197,0.003573,-0.003305,-0.001331,-0.001633,0.000576,-0.003210,0.004936,0.000101,-0.008070,-0.001681,-0.000629,0.006640,0.009413,0.008573,0.005436,0.000213,0.009908,-0.006240,-0.007940,0.000416,-0.004120,-0.000885,0.002776,-0.001030,-0.001983,-0.000230,0.000828,0.007495,0.008211,-0.003157,-0.001222,-0.009751,0.000673,-0.003288,-0.001951,0.000340,0.004361,0.010249,0.005670,0.004239,-0.002319,-0.002517,-0.009392,-0.011467,0.000467,-0.002804
-0.005816,-0.000351,0.002932,0.007568,0.009001,0.006307,0.009646,-0.007838,0.008301,0.005974,-0.002629,-0.002344,-0.000241,0.002384,0.008107,0.001876,-0.011806,0.000495,-0.001939,-0.002364,-0.001499,0.005974,0.009261,0.001074,0.002802,0.003554,0.009173,0.000529,-0.002986,0.006112,-0.007171,-0.003410,-0.005711,0.013474,-0.000510,-0.008601,-0.001017,0.008686,0.006211,0.002899,-0.003626,-0.001616,0.002287,-0.002957,-0.004717,-0.001160,0.009992,-0.007632,-0.002862,-0.005150,0.005090,0.005862,0.003307,-0.003443,-0.004057,0.008223,0.007297,-0.001435,-0.002730,-0.002783,0.012368,-0.001297,0.001471,0.001151
-0.005758,0.000539,-0.007006,-0.002336,-0.006837,0.010645,-0.004908,-0.014813,0.000226,0.000975,0.005681,-0.003738,0.008978,-0.004792,0.008014,-0.004045,0.002371,-0.001741,0.002405,-0.005272,-0.001970,-0.000351,0.002957,0.000899,-0.002136,-0.010374,0.009321,0.008479,0.006619,-0.003816,-0.003075,-0.000502,0.000759,0.000819,-0.004049,0.004351,-0.001713,0.004661,0.000865,-0.001810,0.001904,-0.002447,-0.000121,0.001047,0.000413,0.001336,-0.000476,0.004968,0.007722,-0.001142,-0.000611,-0.005702,-0.004574,0.000052,-0.005033,0.004564,-0.004462,0.001344,0.001806,0.000857,-0.002937,-0.001772,-0.001957,-0.003599
-0.000403,-0.006253,-0.002706,0.001870,-0.002229,-0.000467,0.000590,-0.000217,-0.002409,0.001508,-0.000880,-0.000349,-0.000489,0.000509,-0.002947,0.003980,0.002384,0.005142,-0.000834,-0.005195,0.009292,-0.005533,0.002317,0.001392,-0.006272,0.005989,0.004207,-0.005196,-0.009689,-0.004554,0.002103,0.006111,-0.002769,-0.000819,-0.009139,-0.007317,-0.006180,-0.007134,-0.005772,0.004900,-0.001514,-0.000037,-0.001351,-0.002004,-0.005947,0.002534,-0.009870,0.001110,0.004520,-0.009042,0.004793,-0.002114,-0.006284,0.001777,-0.007484,-0.004906,0.013018,-0.001264,-0.005169,0.002287,0.000760,0.006179,0.002162,-0.006013
-0.008638,0.010687,-0.000297,-0.006380,0.003659,-0.001332,0.003842,-0.001330,0.004496,-0.002708,-0.005918,0.010967,0.002513,-0.000561,-0.003027,-0.000262,-0.003056,-0.000186,0.002405,0.004895,-0.001992,-0.009027,-0.007453,-0.000112,-0.004495,0.003539,-0.004695,-0.004739,-0.006011,-0.004858,0.002909,-0.005147,0.010382,-0.000242,-0.006564,-0.002404,-0.005192,0.001362,0.007791,-0.000067,0.000401,-0.003888,0.001854,-0.001931,0.007400,0.005895,0.003827,0.007251,0.006205,0.002731,-0.003628,0.003638,-0.006643,-0.000635,-0.006327,-0.010014,-0.005825,-0.000101,0.002475,-0.003528,-0.005375,-0.000541,0.006401,-0.001652
-0.007600,-0.003092,-0.001169,0.006467,-0.000116,-0.009746,0.011616,-0.007112,-0.002684,0.000827,0.001230,0.007613,-0.000523,-0.005861,0.000948,0.000564,-0.003077,-0.000448,-0.000854,0.005435,0.006704,0.001397,0.002341,-0.003566,-0.007948,-0.009857,-0.002528,-0.000498,0.008063,-0.000111,0.003983,-0.005107,-0.003911,0.006653,-0.000805,-0.002471,0.002237,0.008736,-0.003518,0.006828,0.001628,0.008127,-0.003993,0.004449,-0.006828,-0.000202,-0.004417,0.003800,-0.008034,0.001603,-0.002580,0.001539,0.000012,0.001227,0.009390,-0.000105,0.002579,0.000068,-0.003635,0.003292,0.003536,0.004086,-0.002209,0.002727
